filenames,embedding_0,embedding_1,embedding_2,embedding_3,embedding_4,embedding_5,embedding_6,embedding_7,embedding_8,embedding_9,embedding_10,embedding_11,embedding_12,embedding_13,embedding_14,embedding_15,embedding_16,embedding_17,embedding_18,embedding_19,embedding_20,embedding_21,embedding_22,embedding_23,embedding_24,embedding_25,embedding_26,embedding_27,embedding_28,embedding_29,embedding_30,embedding_31,labels
image_5.png,0.12019362,0.21740338,-0.26089427,0.32014602,-0.041164495,-0.16266121,-0.0504912,0.14814888,0.13554825,-0.13530892,-0.18749538,0.3600065,-0.09043209,0.1800997,0.18542847,-0.20055604,0.2755329,0.21158788,0.3893065,-0.32587406,-0.15275936,-0.15392098,0.34163266,0.2066465,0.16474794,-0.25900826,0.59343815,0.13591969,-0.09729675,-0.33797762,0.061407503,0.025010874,0
image_4.png,0.07769074,0.061840285,-0.1658561,0.3456606,-0.13447219,0.073905654,-0.28584784,0.07404844,0.025529336,-0.0032141753,-0.03767561,0.22623695,-0.16446045,0.16561389,0.2758686,-0.53697795,0.26323298,0.27430442,0.30887237,-0.20789051,0.00880423,-0.034569535,0.33561966,0.1692693,-0.2434914,-0.12477476,0.39555153,0.19272396,-0.10351301,-0.11104023,0.23378652,0.21533024,0
image_7.png,-0.14515413,0.075226314,-0.13286169,0.50120986,0.17394647,-0.105210945,-0.09304231,0.3208528,0.09164778,0.02424547,-0.007695153,0.22019245,-0.2673326,0.11417763,0.3330741,-0.28108236,0.15054856,0.42376217,0.5753706,-0.50617033,-0.38690776,-0.0018305894,0.42781803,0.098592855,0.204154,-0.1127804,0.45333806,0.2027754,-0.40613058,-0.024303727,-0.06742699,-0.059534244,0
image_0.png,0.11332152,0.19614436,-0.20140983,0.15654762,-0.16950572,-0.19823074,-0.22076191,0.15538529,0.18610632,-0.1808426,-0.44848207,0.35949114,-0.0073269284,0.2213387,0.31701738,-0.35309392,0.3412972,0.2554616,0.1329997,-0.21841499,-0.28139645,-0.24132383,0.3146267,0.4151608,0.16724272,-0.10487523,0.6838969,0.012438254,-0.047875892,-0.4293048,0.18137892,-0.086327106,0
image_8.png,0.18528199,0.26523083,-0.40749383,0.31277317,-0.16164562,-0.14648052,-0.080706485,0.029823048,0.13534312,-0.12776329,-0.2741701,0.15541454,0.007539154,-0.015705613,0.19508007,-0.39680484,0.36328912,0.094341084,0.17370847,-0.19796945,-0.1673885,-0.044144128,0.32287845,0.29697463,-0.008639013,-0.14268997,0.7213109,0.21574521,0.048566166,-0.3285349,0.103749305,0.16868953,0
image_2.png,0.13506031,0.1540676,-0.41632056,0.21875772,-0.12696387,-0.12677966,-0.18840095,0.16907947,0.044702034,-0.0789121,-0.32258728,0.24763882,-0.13841604,0.10782531,0.23026225,-0.44524297,0.34035817,0.28233072,0.16235918,-0.1843262,-0.1241671,-0.08180967,0.30108413,0.37627226,-0.08477584,-0.21177198,0.7009282,0.17908396,-0.033948436,-0.36484185,0.29071048,0.25670734,0
image_3.png,0.16077694,0.11566623,-0.48474726,0.50186837,-0.13361487,-0.002042589,-0.048396353,0.093894534,0.14256154,-0.132687,-0.53529185,-0.057454523,0.110087976,0.0010080455,0.14483175,-0.56037974,0.404229,0.14214262,0.010282153,-0.23166685,0.018514745,0.30530438,0.20776084,0.40725824,-0.16342455,-0.16491999,0.8271317,0.17361349,0.105315745,0.0072305966,0.39037657,0.20299634,0
image_6.png,-0.1510615,-0.01685877,-0.15965699,0.659544,0.20685527,-0.13418205,-0.2153389,0.26379666,0.050097235,0.16992131,0.0136382,0.23751993,-0.17566004,0.090635486,0.3692363,-0.3846748,0.11201448,0.4003074,0.39323884,-0.56061566,-0.43149287,0.38759392,0.45714933,0.18387687,0.12005701,-0.16427144,0.52292776,0.3658093,-0.42798352,0.016490327,-0.013133736,0.103007235,0
image_1.png,0.20910226,0.21898343,-0.41154724,0.4002099,-0.30298093,-0.06903646,-0.06300639,0.10365513,0.13349786,-0.2565117,-0.5096525,0.07413804,0.04536942,0.09004432,0.15851,-0.48485577,0.42799938,0.049535792,0.08585247,-0.23672803,-0.06603675,0.06329171,0.19519207,0.379194,-0.063100904,-0.111065954,0.8417847,0.121504955,0.13977323,-0.2883883,0.25287488,0.14726242,0
image_10.png,0.030038366,0.0545089,-0.1659147,0.1664001,-0.1059355,-0.049033254,-0.23783077,0.02080943,0.01993921,0.04839704,-0.03573563,0.11908768,-0.10113446,0.04073535,0.23267391,-0.40468365,0.18632089,0.21075779,0.20415382,-0.14385061,-0.07538268,-0.026028361,0.27871782,0.20327444,-0.1399952,-0.108213,0.3521504,0.24533844,-0.068097845,-0.11491007,0.17267023,0.13351908,0
image_9.png,-0.28117588,-0.12077546,-0.09374466,0.7016736,0.4618754,-0.051200755,-0.07139816,0.3075667,0.13735385,0.24805409,0.045437913,0.33287203,-0.19203758,0.20732382,0.4695814,-0.3475507,0.055264764,0.45566928,0.3907161,-0.5075848,-0.6657414,0.38440123,0.5656936,0.016856153,0.34913832,-0.040275596,0.43285573,0.15360966,-0.56711376,0.07156692,-0.057876993,-0.06929226,0
image_12.png,-0.14565478,-0.099122375,-0.035802346,0.727912,0.17148282,0.09336488,-0.36328205,0.32721245,0.17764097,0.24899417,-0.12673339,0.28166702,-0.10016657,0.14996685,0.4380788,-0.5349054,0.09146635,0.52425754,0.33787233,-0.6269846,-0.6053204,0.39745694,0.53572285,0.34361663,0.12377006,0.00631543,0.4913843,0.2791155,-0.4698577,-0.029757803,0.16883332,0.008140135,0
image_11.png,-0.12958112,-0.15049236,-0.07937081,0.7332298,0.24308874,-0.0046689375,-0.2613835,0.32747084,0.08276676,0.22266798,0.09631772,0.06400241,-0.035196383,0.15507998,0.23011982,-0.4401029,0.09294153,0.4146744,0.3856531,-0.5122211,-0.3394057,0.44973296,0.36792025,0.094992496,-0.051252834,-0.14134389,0.3798057,0.32883897,-0.35708937,0.08922401,-0.087776266,0.16574688,0
image_13.png,0.5918051,0.48704737,-0.7470598,0.32271683,-0.42330763,-0.018997716,0.28563768,-0.0002826228,0.32241347,-0.31061223,-0.73142093,0.1980978,0.173982,-0.14980686,-0.104152665,-0.2540034,0.5708627,0.11093941,0.18093698,0.0038802277,-0.103091486,-0.2663366,0.35628936,0.47194594,0.07674285,0.05381501,0.9013885,-0.09022728,0.4151706,-0.54428035,0.27611685,0.06941147,0
image_14.png,0.07836246,0.12814014,-0.18827248,0.21266359,-0.19084834,-0.09489268,-0.34515822,0.11749923,-0.061285615,-0.12365763,-0.041680705,0.17453781,-0.21153153,0.21081883,0.23858748,-0.48359165,0.35189015,0.20872596,0.24882938,-0.13112526,0.10839315,-0.145772,0.3029664,0.17677157,-0.3107375,-0.18001169,0.50704443,0.21169163,-0.1083466,-0.12553671,0.2464717,0.31415197,0
image_15.png,-0.19615705,0.052345432,-0.1434418,0.4712503,0.2223935,-0.009548797,-0.08207413,0.15041123,0.025481168,0.115574285,0.19467823,0.36195466,-0.20609984,0.15793318,0.46104774,-0.3234106,0.023155704,0.38906506,0.63003933,-0.43796712,-0.27433354,-4.7395482e-05,0.49042258,-0.013755353,0.19507225,-0.1555601,0.2865596,0.22277266,-0.33176243,-0.0756322,-0.04328108,-0.043208174,0
image_16.png,0.28026357,0.22699508,-0.37853804,0.08262167,-0.28556368,-0.07397973,-0.07978043,0.12456145,0.17738712,-0.14193664,-0.4822662,0.24767222,0.037194684,0.039354958,0.06518226,-0.22441705,0.31334326,0.21442144,0.18177179,-0.1189909,-0.20859538,-0.3198335,0.30308878,0.49489197,0.07186427,-0.04726568,0.65139484,0.033759017,0.10006533,-0.5432211,0.31759527,0.04535245,0
image_17.png,0.086244926,0.08698606,-0.12592512,0.16721824,-0.11084541,-0.02740021,-0.20296708,-0.12808381,0.084707625,0.030913686,0.04900637,0.20096819,-0.09716314,-0.052072443,0.1999323,-0.31277713,0.11545231,0.20013285,0.38711774,-0.26183954,-0.042032883,-0.14603162,0.34920514,0.20883672,-0.06658408,-0.13045737,0.28088704,0.27757052,-0.11864755,-0.042948455,0.09293109,-0.009514214,0
image_18.png,-0.09246191,0.10867157,-0.13803698,0.57887346,0.0017897832,0.013674557,-0.21777695,0.25117093,0.03470702,0.022069292,0.05190327,0.257696,-0.17066346,0.2618869,0.38004985,-0.49803916,0.2480217,0.2570766,0.43337375,-0.36045793,-0.30058593,0.16000791,0.5208673,0.017888682,-0.020699019,-0.05141487,0.50501436,0.262724,-0.23085468,-0.18426561,0.08482282,0.20062077,0
image_19.png,-0.057674162,0.15093702,-0.27428907,0.33347958,-0.11118673,-0.16665085,-0.2055759,0.26384303,0.009720865,-0.09879942,-0.2788807,0.22689486,0.019169137,0.28311956,0.3262885,-0.42861325,0.29866564,0.14685367,0.1196536,-0.16551174,-0.13000695,0.07481544,0.41797584,0.20660178,0.01810543,-0.17252062,0.69141746,0.16007447,-0.021379916,-0.27041754,0.35046872,0.24948412,0
image_21.png,0.20333679,0.23656914,-0.06568164,0.27889898,-0.17485838,-0.19618727,-0.2448243,0.21905333,0.19413747,-0.19386978,-0.37223324,0.30187663,0.009929247,0.1100478,0.1306174,-0.120413184,0.2556636,0.27609885,0.35824206,-0.5021912,-0.13288169,-0.32170433,0.23755021,0.5183171,0.15248197,-0.26048163,0.60837173,0.17680067,-0.23582011,-0.29200432,0.09416538,-0.07319041,0
image_20.png,-0.047933184,0.12261192,-0.11183702,0.5662005,0.021726597,-0.06302348,-0.205993,0.4556898,0.07993448,0.084657095,-0.120092236,0.1897214,-0.053814206,0.13037544,0.2533969,-0.28530186,0.2089976,0.46354386,0.4366579,-0.37637803,-0.3900308,0.0003471562,0.4770964,0.22186051,0.10248402,0.024950534,0.42646906,0.1530789,-0.3210975,-0.14982478,0.054833338,0.11054805,0
image_24.png,-0.10652654,0.03912391,-0.027100109,0.754122,0.042599496,-0.12902328,-0.2207582,0.31353354,0.07248266,-0.025288103,-0.07781856,0.22704725,-0.08174067,0.20945594,0.3110175,-0.32935703,0.15263638,0.24524368,0.38885203,-0.6025481,-0.31107238,0.3158903,0.41487497,0.11973255,0.13153376,-0.10919931,0.55102885,0.25208032,-0.37907746,0.07382244,-0.04028456,0.05183183,0
image_23.png,0.090038665,0.13161089,-0.17491078,0.25299132,-0.12577312,-0.12885337,-0.24012002,0.2227965,0.20292151,-0.08143776,-0.38561344,0.39987242,-0.09154625,0.2541937,0.31448016,-0.38685593,0.30774152,0.36032203,0.20769931,-0.36887637,-0.4656062,-0.10623001,0.3303866,0.44000402,0.21882138,-0.0766826,0.6689288,0.08718636,-0.15450433,-0.5119697,0.12387465,-0.10537879,0
image_22.png,-0.06255285,0.17545545,-0.32515535,0.29930523,-0.120316274,-0.1631557,-0.16469616,0.16187188,-0.018251348,-0.12939978,-0.2509821,0.20830569,-0.0016602081,0.24528971,0.3653171,-0.47365353,0.30143636,0.08443993,0.1275896,-0.17707516,-0.063771635,0.095755726,0.36863443,0.19582516,-0.0017711826,-0.20592023,0.7048745,0.20382857,0.033234913,-0.27908683,0.3274629,0.24004169,0
image_25.png,-0.14506835,0.08013275,-0.08405191,0.5777981,0.17599422,0.032062333,-0.14976093,0.12208059,0.017720673,0.08932913,0.26280332,0.31983092,-0.19736603,0.13085818,0.4585908,-0.41385287,0.058133215,0.3927766,0.672371,-0.46412045,-0.18534087,0.023711432,0.55685735,-0.039439715,0.05602413,-0.074431896,0.2782875,0.25108615,-0.34638882,0.06002362,-0.05396801,0.021330388,0
image_26.png,0.10621238,0.1437737,-0.31517503,0.14322314,-0.18362202,-0.13786836,-0.31851122,0.06966431,0.041874513,-0.06860731,-0.26421782,0.170433,-0.04786653,0.09403352,0.22928208,-0.42464167,0.3636929,0.17964165,0.036169223,-0.18361562,-0.1705731,-0.09238287,0.4097934,0.42664325,-0.12570198,-0.11319453,0.73439574,0.20938446,-0.15052785,-0.20464616,0.4426646,0.20578104,0
image_27.png,0.10445706,0.15189956,-0.30254018,0.29402655,-0.21937017,-0.057800673,-0.21066736,0.16431199,0.07883573,-0.12395889,-0.2615185,0.15249243,-0.13489431,0.11908293,0.1711438,-0.45334044,0.3314558,0.18404692,0.26503724,-0.27471942,-0.09254976,-0.043410864,0.3786789,0.2953351,-0.12142484,-0.17426187,0.70509726,0.24144012,-0.05544119,-0.21466315,0.3553935,0.22310862,0
image_28.png,0.1665105,0.31668863,-0.40750474,0.17108583,-0.3227055,-0.040543225,-0.02324771,0.09138713,0.09763081,-0.20703062,-0.50029916,0.24925376,0.14321835,0.117655605,0.3150646,-0.34071854,0.368179,0.18072157,0.22305888,-0.08762503,-0.103434965,-0.3482646,0.28670943,0.38553888,0.08876699,-0.0124819605,0.64325607,-0.03347876,0.1594891,-0.5213694,0.28765345,-0.042063292,0
image_31.png,-0.027265683,0.0886424,-0.20432803,0.065645166,-0.15379049,-0.122359194,-0.38521808,-0.111312546,-0.015239714,0.04840189,0.0037348385,0.28094864,-0.16675504,-0.0026880812,0.38652116,-0.40509433,0.13985121,0.1869993,0.23298728,-0.2929085,-0.12055344,-0.15652184,0.33348784,0.32168025,-0.067729324,-0.23629984,0.42438528,0.3444863,-0.18810676,-0.14927588,0.24839461,0.040846344,0
image_30.png,0.1689988,0.34816313,-0.54198396,0.42105865,-0.2325574,-0.08066175,0.08492939,-0.08043488,0.15818562,-0.21649276,-0.38441315,0.35546058,0.12510596,0.085220166,0.34632927,-0.42718,0.4014517,0.027740806,0.21028113,-0.06324711,-0.114303716,-0.022426775,0.47419617,0.16602865,0.099097095,-0.053148102,0.74270797,0.027738467,0.2331165,-0.3470851,0.21267216,0.04916814,0
image_29.png,0.17477703,0.1712463,-0.4541754,0.34907913,-0.21136898,-0.016158791,-0.06451141,0.07215422,0.104371436,-0.1193505,-0.38409016,0.17181137,0.09877692,0.11030107,0.22871691,-0.45662227,0.3422101,0.14979354,0.1519849,-0.17755319,-0.13672966,0.03389137,0.2617862,0.36184984,-0.03664877,-0.08625988,0.7053921,0.121634774,0.13522719,-0.4282367,0.22444671,0.13259725,0
image_33.png,0.0035971906,0.032576993,-0.02721256,0.4364118,-0.05373533,-0.07349454,-0.29358298,0.27250025,0.10594254,-0.053694427,-0.24707226,0.3266141,-0.08953525,0.30344263,0.3527614,-0.38954923,0.18942526,0.31135184,0.2727236,-0.39543286,-0.20652993,-0.016873334,0.26210174,0.29719526,0.07143411,-0.18605728,0.5356918,0.12723786,-0.24542764,-0.21906786,0.13336267,0.023980876,0
image_32.png,-0.04169829,0.22481994,-0.18546195,0.57302654,0.16086616,-0.32415518,0.04973386,0.22905454,0.16813302,-0.12151978,-0.310932,0.57490647,-0.08784056,0.23737729,0.43379992,-0.13005663,0.16895601,0.121061094,0.21717356,-0.37940446,-0.47314695,0.18738009,0.39413354,0.10718837,0.5341735,-0.18740442,0.66946054,0.05132414,-0.17473154,-0.36100587,-0.14177595,-0.05836961,0
image_34.png,-0.07362984,0.095984496,-0.0806923,0.381083,-0.00789782,-0.06448554,-0.35213852,0.15889758,0.062283672,0.07299205,0.049514156,0.4048638,-0.15363076,0.19889471,0.4103272,-0.3752628,0.1449879,0.35534236,0.44889915,-0.41701815,-0.2540393,-0.08614403,0.46934685,0.17073394,0.048160344,-0.21014524,0.38932157,0.27291518,-0.30888614,-0.18842931,0.10432548,0.043415893,0
image_37.png,0.123174876,0.08319892,-0.27979282,0.30278972,-0.13736726,-0.094662316,-0.26518667,0.24519758,0.14931177,-0.03507181,-0.4460734,0.30724353,-0.09450802,0.1281242,0.24081126,-0.40560648,0.26555088,0.36360875,0.21048099,-0.36647797,-0.25810745,-0.060416844,0.29539582,0.5171997,0.0419622,-0.23853807,0.69489366,0.18690497,-0.13291946,-0.3654933,0.31338027,0.09858644,0
image_36.png,0.13479395,0.14756344,-0.30794862,0.45210862,-0.051917203,-0.11934851,-0.18042378,0.10012543,0.14584269,-0.11442095,-0.20465878,0.2559703,-0.107946634,0.09376059,0.2222503,-0.3962743,0.30896345,0.28033587,0.37625366,-0.46359336,-0.10516794,-0.037088342,0.31440973,0.32630727,-0.01024751,-0.30838877,0.6978433,0.2490353,-0.19298998,-0.1300398,0.09788945,0.06880233,0
image_38.png,-0.15054967,-0.028106133,-0.13088599,0.80105305,0.1746616,-0.029637963,-0.26714775,0.28899843,0.023063228,0.18917406,0.069477744,0.2777388,-0.18020177,0.14373569,0.39639407,-0.4359091,0.09855453,0.39340433,0.4881715,-0.6066292,-0.3633532,0.40414217,0.49199462,0.15845732,0.050717868,-0.19107902,0.4894158,0.39193755,-0.45144314,0.024172794,0.039145384,0.18501212,0
image_35.png,0.08987816,0.11094708,-0.31515053,0.2768539,-0.12118667,-0.12606707,-0.30445608,0.02626704,0.035410378,-0.0012440449,-0.114682265,0.15328763,-0.14958514,0.01868761,0.20163217,-0.45764324,0.31578425,0.17586169,0.12522516,-0.30083475,-0.15233395,0.107041046,0.3388783,0.3269942,-0.16043122,-0.21616262,0.64985305,0.35608363,-0.15299103,-0.12497358,0.25323594,0.24614461,0
image_42.png,0.12905085,0.059411146,-0.11973253,0.23535562,-0.2338435,-0.07653455,-0.430993,0.12120305,0.004899632,-0.07367538,-0.118800625,0.1504197,-0.14445776,0.14307983,0.1646316,-0.465033,0.27877843,0.19952147,0.14982128,-0.17947088,0.048987214,-0.07781356,0.2727908,0.25954145,-0.32723245,-0.16075748,0.49028173,0.22930531,-0.09863018,-0.08351127,0.26291037,0.29531324,0
image_40.png,-0.036859438,0.11947597,-0.15578423,0.33891913,-0.15509252,-0.07971166,-0.3175827,0.03893573,-0.11420354,-0.051206157,0.1794069,0.2793812,-0.4195296,0.117148645,0.3398411,-0.4344956,0.2325483,0.2662626,0.5447403,-0.35002193,-0.035992615,-0.041856866,0.47975194,0.069014646,-0.18883058,-0.10568337,0.41429216,0.33842495,-0.29764166,0.033194184,0.13306148,0.16946125,0
image_41.png,-0.025639992,0.03978194,-0.25688186,0.17303891,-0.08300839,-0.13226794,-0.4507051,0.04327561,0.042839315,0.07639448,-0.094999075,0.40175983,-0.17911291,0.13551962,0.40629897,-0.4839617,0.22078986,0.362441,0.2131134,-0.38780507,-0.31600583,-0.08720587,0.434425,0.430365,0.016933262,-0.23578557,0.5725098,0.28214884,-0.28336766,-0.24845022,0.29646212,0.037615072,0
image_39.png,0.18423682,0.17531958,-0.26615414,0.34871653,-0.09258974,-0.25750148,-0.19713964,0.21670663,0.1488075,0.0016762584,-0.52335453,0.51530194,-0.20496032,-0.08805625,0.2871611,-0.1883982,0.14950807,0.47387895,0.20441476,-0.4824532,-0.44271937,0.019645473,0.25198406,0.67431635,0.31365773,-0.16319112,0.61036766,0.18237671,-0.25400662,-0.3955246,0.06325104,-0.03106315,0
image_43.png,-0.04065867,0.021170013,-0.122032635,0.5627872,0.047586344,-0.14493525,-0.30672094,0.34200594,0.14305456,0.031557914,-0.22331965,0.28085613,-0.0776956,0.24509883,0.28863204,-0.36212903,0.25361052,0.39737222,0.3153699,-0.484233,-0.33903414,0.13002321,0.3973584,0.3208893,0.12108804,-0.23006661,0.60877085,0.21564908,-0.35646677,-0.08664257,0.12255635,0.038843792,0
image_45.png,0.348673,0.3052178,-0.54775333,0.44213754,-0.41699743,0.0057104905,-0.06456163,0.027747447,0.10668859,-0.23652187,-0.6173975,0.02334323,0.19037478,-0.049957242,0.08811512,-0.49727815,0.5210403,0.022580318,-0.061610933,-0.11401355,0.060317982,0.078668356,0.23044138,0.44957697,-0.22579253,-0.01076821,0.8552834,0.081405714,0.24809572,-0.20450187,0.41553473,0.26207414,0
image_46.png,-0.13407406,0.11446795,-0.09398931,0.7779172,0.15490887,-0.021327125,-0.13153896,0.31670544,0.11423768,0.08477361,0.024809385,0.25457114,-0.25916135,-0.014491328,0.43356252,-0.37640923,0.09923902,0.5269032,0.7214047,-0.5701209,-0.34600586,0.04856031,0.5737798,0.09421949,0.15385598,-0.02777599,0.37343746,0.2349743,-0.48942938,0.22691813,-0.06766417,-0.034046207,0
image_44.png,0.31979162,0.28249633,-0.27882528,0.12121324,-0.37045136,-0.08460592,-0.10221291,0.106210716,0.18888615,-0.1979639,-0.50295234,0.28076032,0.075805895,0.085568875,0.115630776,-0.25356522,0.36586624,0.21827675,0.25733224,-0.20353983,-0.21696116,-0.38308892,0.30815494,0.54264766,0.10819142,0.0055527654,0.67297,0.03341308,0.06811498,-0.6058887,0.24266043,-0.043627042,0
image_50.png,0.101954296,0.026360596,-0.19485424,0.41331968,-0.087193616,0.013143326,-0.30162317,0.23903073,0.20051411,0.09453896,-0.27922443,0.1658767,-0.024167174,0.05082646,0.15609182,-0.3784513,0.21730648,0.36479154,0.33134618,-0.55091405,-0.39092207,0.049823806,0.3701164,0.52305436,0.022616375,-0.20043845,0.6503141,0.35266426,-0.28137502,-0.28996736,0.27246985,0.076992,0
image_48.png,-0.101374224,0.0151424045,-0.16129938,0.5350549,0.14658074,-0.08896404,-0.15978052,0.25711814,0.10606399,0.07874867,-0.030862434,0.21314014,-0.20819099,0.108220235,0.31184298,-0.3941281,0.16849166,0.40142155,0.44546795,-0.46520224,-0.40341687,0.18136859,0.4445962,0.16377032,0.12538458,-0.0891895,0.48610464,0.23808204,-0.3325921,-0.04049557,-0.017834578,0.021119433,0
image_47.png,0.09069032,0.18528526,-0.47529778,0.42337725,-0.027399424,0.039183147,0.085708775,-0.03307628,0.03852428,-0.10628502,-0.2432407,-0.06564826,0.1591142,-0.02800149,0.20443174,-0.4547325,0.2963517,-0.0075339107,0.043102924,-0.11712896,0.12601803,0.24359651,0.1747628,0.215222,-0.119529784,-0.11737489,0.5949797,0.16210046,0.15064263,-0.04001444,0.23659007,0.24179107,0
image_49.png,-0.29418293,0.009037545,-0.1221273,0.86771345,0.45236063,-0.2771549,-0.16203809,0.31414956,0.010559326,0.15947527,0.16378269,0.29378805,-0.1848578,0.17681411,0.5006195,-0.3726515,0.12863964,0.2732984,0.19019544,-0.5763446,-0.6438891,0.73699784,0.43740714,-0.07987305,0.2646752,-0.08628359,0.5205162,0.3216341,-0.50045115,0.040788144,-0.40761828,0.15848625,0
image_51.png,0.013574447,0.20119692,-0.24748294,0.27811274,-0.06435553,-0.15076797,-0.081510104,0.16457559,0.055004627,-0.046024445,-0.11694391,0.30733302,-0.15861021,0.062174164,0.3316556,-0.282649,0.17646578,0.30965072,0.4672893,-0.31024513,-0.2655221,-0.19994278,0.3610582,0.23357815,0.17434631,-0.12068204,0.48009023,0.1911148,-0.14457421,-0.35197285,-0.011231947,0.00486139,0
image_52.png,-0.039739624,0.12576625,-0.11344658,0.3617541,-0.18748254,-0.12640604,-0.35600308,0.13437659,-0.11868587,-0.113473564,0.09849007,0.27361083,-0.42994916,0.1792202,0.32924974,-0.44293007,0.27252278,0.2758786,0.49472794,-0.36387783,-0.03763375,-0.036192648,0.43073,0.09824006,-0.18197177,-0.09455673,0.45703137,0.29203114,-0.29935944,0.017178835,0.11532366,0.18339995,0
image_54.png,-0.012429996,0.0348946,-0.13836834,0.44844258,-0.03606095,-0.041467372,-0.2914196,0.13426155,0.09288533,-0.026123263,-0.15677899,0.24595806,-0.003244129,0.20768623,0.34931275,-0.47429553,0.1923691,0.27720246,0.2894901,-0.45089352,-0.1331901,0.06926943,0.29226577,0.31936204,0.0036798455,-0.2235209,0.54020095,0.2297362,-0.2068824,-0.13112874,0.1468823,0.04194095,0
image_53.png,-0.031817686,0.051374536,-0.2928792,0.59228855,0.17376342,-0.17092387,-0.117513865,0.2581472,0.114416994,0.12162799,-0.1627291,0.37280428,-0.119110994,0.11168278,0.29371583,-0.24959183,0.17157508,0.37841427,0.31719807,-0.4863151,-0.49033552,0.28051272,0.5003379,0.26928347,0.25386053,-0.18661454,0.64759415,0.24562828,-0.36312443,-0.15562978,0.090468735,0.06555796,0
image_57.png,0.23117784,0.27774453,-0.26312998,0.3510332,-0.095192395,-0.34083286,-0.109384045,0.18998885,0.12516953,-0.094125465,-0.5520736,0.5529842,-0.25250006,-0.18009752,0.2922547,-0.07005065,0.12113487,0.4326246,0.23163909,-0.48824587,-0.37503234,-0.023757787,0.18923366,0.6475664,0.3682006,-0.14924377,0.5893892,0.1559269,-0.2273193,-0.36948296,-0.07882432,-0.06045039,0
image_55.png,0.050067585,0.038941395,-0.17810275,0.43476868,0.015799182,-0.078591034,-0.316928,0.16785634,0.09710352,0.08395902,-0.13376795,0.47773626,-0.1230871,0.18421385,0.3704621,-0.33780435,0.2032444,0.41865414,0.29156232,-0.30842653,-0.3884617,-0.008856634,0.54178965,0.26242033,0.059850793,-0.042032503,0.50643975,0.104365155,-0.30489516,-0.1915424,0.15663648,0.03987878,0
image_56.png,0.030940173,0.11964116,-0.2582081,0.37035722,-0.15488827,-0.04880129,-0.27238625,0.15650037,0.0150969755,0.15653045,-0.14007095,0.17916147,-0.027595319,-0.12464887,0.23110376,-0.2512926,0.11349733,0.28910258,0.35562575,-0.4501015,-0.33172542,-0.04332157,0.3828765,0.4907793,0.058698386,-0.10745128,0.46647623,0.36906752,-0.28263646,-0.26254714,0.22812386,0.13742903,0
image_58.png,0.14097662,0.17617615,-0.45188484,0.42238888,-0.14261979,0.0044017374,-0.020104405,-0.012503831,0.094480745,-0.13355507,-0.30186647,-0.043603934,0.1045435,0.00020354183,0.16223735,-0.5113861,0.37928185,0.04362224,0.06430673,-0.15616849,0.038368,0.22039185,0.2153957,0.24485317,-0.17205594,-0.114677995,0.67491853,0.1984725,0.13953559,-0.06832776,0.21537939,0.20633943,0
image_59.png,0.20342073,0.19316009,-0.18256854,0.26396808,-0.320641,-0.0064141955,-0.19974498,0.22858773,0.06136003,-0.1660071,-0.41246715,-0.054394893,0.0974131,0.036721457,-0.0027355235,-0.23798203,0.30532372,0.117377214,0.28879303,-0.36550292,0.08981386,-0.22830306,0.2469797,0.5668096,-0.13327357,-0.19192348,0.6984357,0.27529544,-0.13905689,-0.18648241,0.5103455,0.22544062,0
image_60.png,0.12532301,0.075181015,-0.28277034,0.29003894,-0.07145632,-0.10134087,-0.31054702,0.04887335,0.03878613,-0.035806384,-0.045529105,0.1945082,-0.21626107,0.10382042,0.20995872,-0.51086724,0.3182644,0.3025038,0.33648282,-0.38134113,-0.033504795,-0.01627219,0.31182334,0.32039404,-0.22223051,-0.3114955,0.6339882,0.36562815,-0.20901178,-0.14636856,0.17383449,0.22850788,0
image_61.png,-0.011036514,0.03335121,-0.24739462,0.49601957,0.06830018,-0.034023948,-0.22158699,0.19743212,0.07332938,0.112836756,-0.11657895,0.052522954,0.013914061,0.015349809,0.2267219,-0.4288424,0.18422271,0.29253796,0.15512846,-0.44251907,-0.27409542,0.30470347,0.29962897,0.34285933,-0.014846011,-0.1436041,0.5486959,0.32964626,-0.23302689,-0.062932126,0.12487309,0.17987464,0
image_62.png,0.32847282,0.24653177,-0.55667293,0.4260876,-0.33200955,0.07815662,-0.02553819,0.036931314,0.10098476,-0.1551749,-0.5450982,0.004100615,0.257848,-0.05183747,0.12190675,-0.48688102,0.44480452,0.10615377,-0.025646858,0.016102372,0.07342193,0.022614766,0.24489217,0.3656293,-0.25521368,0.06309263,0.71147084,-0.0010427483,0.2954313,-0.19187166,0.36881912,0.23905632,0
image_63.png,0.12222105,0.07795128,-0.19178209,0.38593552,-0.21381009,-0.010392848,-0.2515949,0.18551809,0.03590457,-0.05401658,-0.23750962,-0.06754733,-0.021525718,-0.019446723,0.053578034,-0.34796545,0.21677627,0.16944167,0.25983196,-0.47680873,-0.013505369,0.061458066,0.18394431,0.4701632,-0.17827328,-0.19963944,0.6216217,0.381155,-0.19071536,-0.061266184,0.30742648,0.22973593,0
image_65.png,0.3300314,0.16670859,-0.3807948,0.38679782,-0.20703149,-0.014906698,-0.02813689,0.16531734,0.25292644,-0.0883692,-0.5130947,0.22342864,0.14763574,0.1079204,0.053544078,-0.35631227,0.37036353,0.24664189,0.1378842,-0.23869811,-0.27998307,0.027902212,0.2518872,0.48410988,0.074481405,-0.052659947,0.720007,0.059920736,0.1120777,-0.54899347,0.1679664,0.07908577,0
image_66.png,0.17252977,0.4005868,-0.4108267,0.2959632,-0.2546795,-0.30538929,-0.06911165,0.21617036,0.086280756,-0.31610078,-0.42577186,0.36705112,-0.14750756,0.13143353,0.2741615,-0.26380262,0.4360224,0.108747296,0.21343352,-0.19381568,-0.2616311,-0.24379677,0.35631302,0.2950435,0.1802339,-0.09417659,0.85697216,0.048435964,0.01277471,-0.5133833,0.076901354,0.11853337,0
image_64.png,0.08680821,0.21096094,-0.07847363,0.21068378,-0.15611716,-0.21674229,-0.22967054,0.2322192,0.24820912,-0.20263514,-0.44304416,0.380781,0.035805818,0.29153082,0.31358865,-0.29316118,0.3282726,0.25058264,0.21404615,-0.30491164,-0.33153957,-0.29974476,0.3053831,0.3941991,0.25818253,-0.14851877,0.6610497,0.010652743,-0.11369273,-0.4686081,0.097381875,-0.15815717,0
image_68.png,-0.14418855,0.021476042,0.16545199,0.9940335,0.17540628,-0.10227047,-0.2938707,0.60088104,0.19560045,0.16445354,-0.28270677,0.45440614,-0.16918655,0.10194896,0.46524492,-0.17208306,0.015388817,0.6064896,0.4760418,-0.7624142,-0.6623235,0.21907492,0.40961698,0.3194556,0.41757694,-0.025675647,0.3429356,0.116967104,-0.7334159,0.11117451,-0.15668055,-0.13390462,0
image_67.png,-0.21866253,0.07619573,-0.043854535,0.7254836,0.14360507,-0.021762123,-0.21206267,0.30185246,-0.09574568,0.09640629,0.3259623,0.25090858,-0.22972551,0.15937042,0.41755462,-0.3152436,0.036975957,0.35661826,0.7128253,-0.5497683,-0.1784381,0.089904204,0.551202,-0.093568504,0.021905925,-0.114727825,0.30382618,0.3343083,-0.48934427,0.1465937,-0.06524002,0.16812569,0
image_69.png,0.11187535,0.025081214,-0.18976268,0.42323697,-0.09238291,0.006002081,-0.30876374,0.24378978,0.19983521,0.096205175,-0.29329577,0.16223466,-0.015203464,0.039454825,0.14818875,-0.37167937,0.2134871,0.36478955,0.31407297,-0.55734843,-0.38772368,0.06233889,0.35038885,0.5438763,0.021440059,-0.20264821,0.64743716,0.35500205,-0.2836314,-0.28694248,0.26232532,0.08361591,0
image_70.png,0.268197,0.12904423,-0.4649579,0.34437007,-0.2534037,0.039560758,-0.18913497,0.07406137,0.14325744,-0.084042765,-0.5498014,0.09435922,0.112355866,0.03180477,0.17223898,-0.5916808,0.41639486,0.21583946,-0.073056936,-0.16755809,-0.11901281,0.122205615,0.2302416,0.49294117,-0.20903823,-0.050306305,0.78719324,0.1193055,0.14197177,-0.2941534,0.39895776,0.2085546,0
image_72.png,0.20846198,0.292024,-0.38352355,0.30095544,-0.3026685,-0.1991195,-0.09587905,0.20018296,0.05993187,-0.25556597,-0.3588648,0.18836573,-0.19531085,0.05217338,0.17185687,-0.3731301,0.40903637,0.16181536,0.29909486,-0.20045191,-0.14299114,-0.17437318,0.32303235,0.29049897,-0.05044853,-0.076661706,0.7877737,0.15717416,0.028538227,-0.37636888,0.123429105,0.21310267,0
image_73.png,0.113597654,0.19145903,-0.40822104,0.26049933,-0.086309165,-0.14222784,0.0028043091,0.095681086,0.1309626,-0.16486116,-0.27697006,0.18374139,-0.12684411,0.045715205,0.13433284,-0.2668366,0.3030803,0.19624464,0.33258668,-0.31887123,-0.14084843,-0.08874184,0.3055927,0.30061114,0.103657365,-0.22212651,0.7001349,0.17090003,-0.062394463,-0.20956975,0.17621598,0.015157896,0
image_71.png,0.27120674,0.34052807,-0.4494038,0.22101633,-0.2673247,-0.2287653,-0.12379866,0.12962416,0.12948698,-0.10685749,-0.30981156,0.28874347,-0.07647221,-0.006134694,0.17291127,-0.32683137,0.43576604,0.18214409,0.19871871,-0.12282746,-0.40445244,-0.21693356,0.45740512,0.36059216,0.055379674,-0.004348318,0.79336077,0.17156823,0.022664526,-0.6192229,0.085982,0.20671542,0
image_78.png,-0.117401056,0.013518963,-0.10878611,0.439386,0.2353835,-0.23678629,-0.09524665,0.25145692,0.14727083,-0.00023775263,-0.1173854,0.355933,-0.22831416,0.2276728,0.28056693,-0.17871107,0.19851904,0.34150252,0.31819376,-0.45716512,-0.52162117,0.19545682,0.43653923,0.086812645,0.33404133,-0.10212301,0.5420124,0.10948926,-0.37201658,-0.053773634,-0.09989169,-0.16678125,0
image_74.png,0.17371191,0.23476513,-0.405454,0.28767225,-0.30522397,0.026818719,-0.12685847,0.14859116,0.07983479,-0.09325519,-0.44680682,0.06795364,0.14538355,-0.009983808,0.16781785,-0.33912,0.32729748,0.1718412,0.16758725,-0.12916479,0.018607775,-0.21446246,0.2934193,0.47130617,-0.10634091,-0.11546459,0.6284118,0.11914081,0.0048746145,-0.21653247,0.51149946,0.19792785,0
image_75.png,0.17710769,0.10661918,-0.37194973,0.20802428,-0.15000004,0.024972562,-0.0076792915,-0.14646587,0.063863784,-0.085029736,-0.19693132,-0.051413715,0.04388935,-0.098536015,0.10590799,-0.45154262,0.2730748,0.09527713,0.16357693,-0.098137036,0.14426476,0.042433113,0.21944106,0.21447966,-0.24070553,-0.07793692,0.4930648,0.18603995,0.1446529,0.020410368,0.22667767,0.12350457,0
image_77.png,0.14534263,0.10967957,-0.3329433,0.38868383,-0.04066536,-0.23023088,-0.20292847,0.21195419,0.15507604,0.04554327,-0.44728327,0.43286258,-0.15014367,-0.028041074,0.27066416,-0.2769579,0.18961993,0.43784297,0.1730977,-0.41437548,-0.45117947,0.12438285,0.31523123,0.5695111,0.22444406,-0.18931654,0.66694576,0.20985317,-0.20826295,-0.3576195,0.10386244,0.044991404,0
image_76.png,-0.060854647,0.119411886,-0.12867235,0.35160086,0.073830865,-0.1763318,-0.15833136,0.25123724,0.17150412,-0.0380658,-0.21006916,0.3030935,-0.19326903,0.11271925,0.31477532,-0.25344348,0.16205922,0.36344296,0.4576347,-0.62745714,-0.36776227,-0.10139572,0.3084322,0.3894544,0.31119624,-0.3182888,0.6036698,0.27104694,-0.4138285,-0.21353556,0.061364453,-0.11901638,0
image_80.png,-0.030684747,0.18351321,-0.25136963,0.18548732,-0.028545955,-0.20696686,-0.21511388,0.10801755,0.07305195,0.018791407,-0.10253024,0.40229288,-0.110173315,0.13163799,0.41765168,-0.2973572,0.22677009,0.27766547,0.31059018,-0.28127724,-0.40960777,-0.21657625,0.47288156,0.27989706,0.21456835,-0.15513599,0.5662609,0.19547942,-0.23812924,-0.41164827,0.11003119,-0.01219552,0
image_79.png,0.086428516,0.033538107,-0.31971568,0.3134516,-0.13590293,-0.118976235,-0.30596006,0.0865736,0.023125272,-0.034929875,-0.25717106,0.16583249,-0.1468092,0.08715874,0.20773764,-0.4865557,0.30557922,0.19059075,0.054150157,-0.2867609,-0.15511687,0.18428975,0.3086107,0.36926666,-0.1516212,-0.17032199,0.71111745,0.26690403,-0.10549696,-0.12456037,0.31091958,0.23185278,0
image_81.png,-0.040217753,0.10082459,-0.27254054,0.35527715,-0.08891152,-0.118779846,-0.18759935,0.28183386,-0.0058257203,-0.074636206,-0.2587576,0.14037581,0.01180224,0.27482766,0.24823341,-0.4212675,0.3077236,0.17455518,0.13201553,-0.15575784,-0.07237171,0.10645982,0.3884731,0.19243355,-0.06209342,-0.16321637,0.6633731,0.16091195,-0.051785342,-0.1769831,0.37419558,0.28433722,0
image_85.png,0.02239726,0.07845651,-0.223741,0.27719665,-0.07634932,-0.05038051,-0.19798553,0.14383397,0.039000012,-0.0050033242,-0.086977124,0.2708053,-0.11352361,0.13588655,0.23262966,-0.29917705,0.19202612,0.3142525,0.38617283,-0.28180876,-0.13532284,-0.15213388,0.3855572,0.23536415,0.01090299,-0.15049322,0.43482298,0.14666227,-0.18406306,-0.15884969,0.20494762,0.05621409,0
image_82.png,-0.16040619,0.0661876,-0.18967889,0.757971,0.33629113,-0.18216151,-0.060281157,0.3323282,0.20664527,0.17468488,-0.18590666,0.48830643,-0.19619364,0.10344228,0.51219887,-0.29757684,0.11951969,0.5492611,0.42444888,-0.56151474,-0.71385574,0.3414463,0.5942131,0.21564154,0.48767138,-0.07524391,0.56810886,0.1654844,-0.49014187,-0.05138926,-0.068424664,-0.14282846,0
image_84.png,0.035945054,0.050794553,-0.118247144,0.44928607,-0.023113867,0.0002857199,-0.25705853,0.22177793,0.07803338,0.007194047,-0.10188031,0.1733878,-0.11716809,0.17920052,0.16924384,-0.3826415,0.2524051,0.28655657,0.31016228,-0.3428984,-0.120540224,0.09485224,0.41072145,0.19588603,-0.11559517,-0.14875074,0.5084895,0.24026102,-0.23588209,-0.017564198,0.25246257,0.19507033,0
image_86.png,-0.060575087,0.10874415,-0.18724027,0.47319576,0.0605634,-0.08875429,-0.16323665,0.16985343,0.008585769,0.06143134,0.046283428,0.25502297,-0.16192491,0.040937815,0.32492086,-0.25014448,0.09623186,0.2795529,0.4913372,-0.3904643,-0.15600632,-0.018761177,0.36978707,0.10506962,0.040162805,-0.2359752,0.38302052,0.30242506,-0.28221297,-0.05507724,0.0096291285,0.11795108,0
image_83.png,0.008079518,0.020946085,0.057783954,0.12979485,-0.07380407,0.071541525,-0.2060934,-0.057233155,0.085743375,-0.0037734983,-0.1048126,0.23062868,-0.08312474,0.047308575,0.29256445,-0.25381517,0.028181469,0.24235941,0.38272187,-0.40845647,-0.044162523,-0.21118772,0.25920594,0.3473485,0.06554568,-0.095802,0.23969752,0.17864366,-0.26144794,-0.011786794,0.2375711,-0.20050472,0
image_87.png,-0.03737977,0.02079306,-0.15714285,0.573526,0.13283405,-0.06995162,-0.23059788,0.12058692,0.11359149,0.04313147,-0.029445851,0.17120968,-0.036585223,0.15151067,0.33202899,-0.5408751,0.19972385,0.26711342,0.23350206,-0.44653508,-0.20332415,0.35705173,0.3382923,0.17735085,-0.02506075,-0.20070107,0.5473749,0.3103431,-0.19965775,-0.00923025,0.0040937993,0.13127601,0
image_89.png,-0.054613255,0.0038131825,-0.11691644,0.29258975,-0.028620336,-0.036882672,-0.29361933,0.29885608,0.13447684,0.05419851,-0.31183407,0.3414101,-0.13959956,0.24442728,0.40158013,-0.4165067,0.1970765,0.4523283,0.25699154,-0.36182007,-0.4606907,-0.08055402,0.3659969,0.42461324,0.18172713,-0.06419208,0.53725874,0.094361216,-0.3043269,-0.3292403,0.25593653,-0.07020402,0
image_88.png,-0.30261114,-0.23583992,-0.06313485,0.3440622,0.35906753,-0.14363228,-0.4038138,0.12466694,0.1753519,0.22258706,-0.114285,0.5051497,-0.19080685,0.34555364,0.60898787,-0.5178412,0.07333406,0.39831346,0.019715572,-0.47935152,-0.77737814,0.4322233,0.45361716,0.2657989,0.33765408,-0.13035041,0.5444069,0.16439527,-0.41546357,-0.20239723,0.07688072,-0.2038453,0
image_90.png,0.018394168,-0.02513965,-0.019694708,0.13388826,-0.07422617,0.13461587,-0.21257792,-0.08779142,0.05815233,0.011740055,-0.07057392,0.19092505,-0.08110176,0.065703005,0.26825398,-0.31460917,0.047436386,0.22702114,0.36757416,-0.32771912,0.043555662,-0.18106604,0.26335806,0.29541722,-0.059996612,-0.119383544,0.24285896,0.17403954,-0.19021605,0.02234921,0.31105968,-0.1190362,0
image_91.png,0.030159594,0.26851246,-0.27669913,0.2147984,-0.23971207,-0.15087423,-0.009564597,0.3299635,-0.0029575727,-0.21714394,-0.39022848,0.38329783,-0.18006137,0.2439287,0.34066755,-0.19805428,0.29299578,0.3026303,0.41188896,-0.16092144,-0.30242017,-0.32796806,0.38233107,0.2491324,0.2606525,0.09862119,0.58662516,-0.08174451,-0.02979176,-0.5325994,0.14767933,-0.064808704,0
image_92.png,0.13289967,0.13991569,-0.43186012,0.31649125,-0.14456588,-0.05794433,-0.13326438,0.14757971,0.060798127,-0.11587036,-0.290423,0.036353137,-0.09886747,0.052269377,0.12916681,-0.50267637,0.37361854,0.19688296,0.16785797,-0.22511585,-0.02182111,0.03339212,0.28136173,0.30497387,-0.1905415,-0.202018,0.7455376,0.22864503,-0.011298581,-0.1381804,0.3293482,0.28793353,0
image_94.png,0.009430327,-0.04217789,-0.026267773,0.19771285,-0.10647673,0.11262682,-0.26878357,0.07489004,0.024804177,-0.009866782,-0.15651639,0.14309826,-0.09691389,0.082773045,0.22911192,-0.28305835,0.058357693,0.28431687,0.3647614,-0.36026266,0.053019006,-0.21033035,0.24089125,0.34655342,-0.096921384,-0.13026848,0.30067804,0.15112047,-0.2518756,0.06669331,0.36980402,-0.048542436,0
image_93.png,-0.03009222,0.014974861,-0.12893753,0.34262094,-0.043202095,0.022750137,-0.35844827,0.13567582,0.10528949,0.16181366,-0.07428395,0.294931,-0.1994714,0.021335084,0.43942493,-0.51408243,0.08543422,0.5296436,0.53663594,-0.56230676,-0.31086388,-0.1130028,0.2983166,0.4465548,0.019099558,-0.23434126,0.38391143,0.38845497,-0.3374247,-0.25811127,0.08551494,-0.045865852,0
image_95.png,0.08289049,0.10718991,-0.3856108,0.24621631,-0.1763283,-0.07747201,-0.3034435,0.012999403,-0.021960545,-0.011714591,-0.15966584,0.1126451,-0.18112175,-0.03194915,0.20316647,-0.47739083,0.3085464,0.17201379,0.10777641,-0.29273582,-0.069943294,0.094346054,0.2883406,0.35812986,-0.2268214,-0.22368851,0.6442698,0.3544023,-0.117589645,-0.08475789,0.34770766,0.27315623,0
image_97.png,0.1540337,0.067416966,-0.23589543,0.22166689,-0.19073041,-0.06346817,-0.39929327,0.00607427,0.0278743,0.036270343,-0.1056108,0.04721389,-0.03369687,-0.01166162,0.15432303,-0.5276447,0.29096237,0.16456953,0.03856765,-0.21097134,-0.036422838,0.061849587,0.24184322,0.38275963,-0.3287073,-0.18179941,0.54251444,0.35491702,-0.07708929,-0.14399776,0.2627382,0.33503813,0
image_96.png,0.25823054,0.31421885,-0.43497136,0.25294164,-0.2846711,-0.08546392,-0.0031621973,0.20484358,0.15302223,-0.110183395,-0.5084322,0.28786236,0.09691457,0.02685439,0.13194421,-0.14792044,0.3430646,0.21472216,0.23692593,-0.1321866,-0.28574988,-0.2874543,0.36590093,0.42944437,0.16957678,-0.010521705,0.6738293,0.0052189585,0.074587196,-0.56693137,0.27307898,0.03916375,0
image_99.png,0.016022375,0.05768168,-0.21131486,0.33916315,-0.122322895,-0.038241223,-0.28437755,-0.00105473,-0.07753712,0.010548417,0.10415593,0.2798184,-0.23855288,0.07620246,0.30008996,-0.4028864,0.14012931,0.23620902,0.46822807,-0.35955292,-0.01729434,-0.010851322,0.40882108,0.15994944,-0.1636201,-0.18073605,0.42136616,0.3382269,-0.19334549,-0.072656356,0.1569567,0.17635779,0
image_98.png,0.19362976,0.2673702,-0.44940263,0.20959257,-0.1975657,-0.0006845248,-0.00047457629,-0.05454919,0.113156304,-0.045561355,-0.2856002,0.18594755,0.12706862,-0.065905906,0.17435616,-0.3222663,0.2752248,0.05268383,0.14397053,-0.087077335,-0.08686447,-0.11866406,0.3323168,0.34310952,0.011373909,-0.10402069,0.56236094,0.15924299,0.12789373,-0.40090644,0.30785707,0.1819982,0
image_101.png,0.2830263,0.33093807,-0.47067213,0.47412184,-0.37128514,-0.015028431,-0.07665793,0.051672414,0.1090088,-0.30488726,-0.53835535,0.06754145,0.17015912,0.038626365,0.16922373,-0.48928937,0.51323915,0.019002287,0.03233203,-0.12813595,0.096991725,-0.0057887966,0.290524,0.3350201,-0.19154704,-0.017754376,0.83295697,0.039136123,0.19236793,-0.12706181,0.35557368,0.20583491,0
image_102.png,0.2152527,0.15995371,-0.31248996,0.22605635,-0.21978454,-0.064775944,-0.18327677,0.017027251,0.112838574,-0.11535981,-0.20705579,0.19619168,-0.06820457,0.059312105,0.12003789,-0.39697087,0.31255025,0.16291218,0.24042195,-0.24130046,-0.088936396,-0.073245965,0.32833365,0.3291316,-0.127262,-0.15540284,0.63349044,0.239708,0.00017522738,-0.30131683,0.21008284,0.17119876,0
image_100.png,0.26757833,0.1320445,-0.28869656,0.34646028,-0.14552067,-0.041983847,-0.19907764,0.16391745,0.20807719,-0.01662147,-0.33127037,0.17174909,-0.029326253,0.0019382003,0.0691465,-0.36007166,0.32941246,0.33603233,0.2919868,-0.34833488,-0.20503522,-0.11265006,0.35196906,0.4820797,-0.06988565,-0.18101524,0.6789695,0.23919429,-0.15707831,-0.25844643,0.25245464,0.1464478,0
image_103.png,0.24032286,0.27909055,-0.5322602,0.49611306,-0.24574582,-0.12943254,0.12745178,0.13435605,0.113691926,-0.34193474,-0.46497485,0.03480199,-0.085060984,0.0062702666,0.030181585,-0.37194416,0.4363541,0.0039660367,0.23793948,-0.27896544,0.028659957,0.09557475,0.22113732,0.25316793,-0.05209045,-0.18508314,0.9195284,0.15001771,0.13703594,-0.16547878,0.19160338,0.23213328,0
image_104.png,0.14597227,0.122360505,-0.1903449,0.36022037,-0.2175303,-0.095761366,-0.384538,0.08846603,0.12179847,-0.029404253,-0.21790394,0.36570594,-0.074841075,0.08617943,0.2630814,-0.4024178,0.24703005,0.29138225,0.2539347,-0.31872627,-0.18113689,-0.0821479,0.41229737,0.34082916,-0.07862048,-0.14545533,0.5428273,0.20528431,-0.12388158,-0.18747894,0.18635806,0.08937777,0
image_105.png,0.083491355,0.2696891,-0.35889342,0.86209124,0.2373368,0.07953794,0.08761518,0.11004572,0.18032461,0.068766646,-0.010101719,0.2436609,0.22966108,-0.010290689,0.3216029,-0.3886178,0.21351671,0.1704701,0.19300696,-0.16778718,-0.19364117,0.36149058,0.51808167,-0.09698908,0.025090849,0.0062921927,0.41016778,0.09569886,-0.013485824,-0.0108694555,-0.11337935,0.29176885,0
image_106.png,0.16285431,0.1641664,-0.34998262,0.22164546,-0.24772818,-0.11163588,-0.19057086,0.12142814,0.04625415,-0.1434549,-0.3039372,0.0919137,-0.050521325,0.08954741,0.13368452,-0.4605757,0.371894,0.14217807,0.11636784,-0.15833218,-0.06792908,-0.008837836,0.30386016,0.32510775,-0.17772634,-0.10507199,0.7153838,0.20618846,0.055723988,-0.28539512,0.2905744,0.27066946,0
image_107.png,0.13426921,0.18572801,-0.2752944,0.21303555,-0.22379471,-0.26697516,-0.23595724,0.21304627,0.13113616,-0.09668908,-0.49947935,0.26818895,-0.10215729,0.055276815,0.2753924,-0.3458294,0.33605665,0.22226094,0.06920144,-0.2923022,-0.44809827,-0.06734871,0.27015284,0.53062135,0.14606778,-0.09622026,0.799076,0.18192323,-0.11446922,-0.50946003,0.16321065,0.066407554,0
image_108.png,0.055182084,0.16743302,-0.22529255,0.3515038,-0.057232093,-0.0865809,-0.10415587,0.23934734,0.07071651,-0.083925284,-0.1750846,0.28475696,-0.12666647,0.15308386,0.21252458,-0.19853641,0.20566346,0.2146921,0.36832544,-0.40464717,-0.21443716,-0.1645946,0.24480076,0.27304626,0.15778966,-0.23176435,0.54662704,0.16673793,-0.20874089,-0.3501574,0.081417605,0.066207804,0
image_109.png,0.07761696,0.08096258,-0.35259688,0.2893545,-0.18632829,-0.041060574,-0.30991188,0.05363817,-0.036990453,-0.013525252,-0.19853441,0.08324085,-0.15129372,-0.006109659,0.19389072,-0.47883096,0.30456322,0.1915801,0.09734921,-0.28177425,-0.022457546,0.12616086,0.25709403,0.3438075,-0.26584733,-0.1961071,0.60855794,0.31559706,-0.10023072,-0.032966953,0.36686376,0.27069512,0
image_110.png,0.08695204,0.08127809,-0.30331197,0.20223078,-0.21696202,-0.17894043,-0.37680548,0.13857229,-0.0136027355,0.10110379,-0.13775006,0.22005191,-0.1076418,-0.0068953256,0.17281604,-0.28462672,0.19016623,0.1558196,0.16945274,-0.32596907,-0.33635563,-0.010574322,0.36468497,0.44837904,-0.06411136,-0.2301531,0.6509215,0.4221345,-0.19607466,-0.4402859,0.29003572,0.3156857,0
image_111.png,-0.19402401,0.010387316,0.114756964,0.90858346,0.29546678,0.6992271,0.15363868,0.14539683,0.27994645,0.3082599,0.16255417,0.3706457,-0.31062046,-0.14815427,0.62552416,-0.57610077,-0.27423504,0.6596175,1.0328182,-0.8763727,-0.5750491,0.05842108,0.772035,0.11511921,0.38448998,0.3564067,0.029651243,0.13321015,-0.6373682,0.23062456,0.1833117,-0.32705408,0
image_112.png,-0.024705712,0.14864072,-0.094384775,0.31952697,-0.06517329,-0.12379475,-0.16210434,0.20322458,0.062397085,-0.081676595,-0.111387186,0.26433846,-0.10460483,0.14803006,0.25309902,-0.16724786,0.12935856,0.16757567,0.41487053,-0.49516422,-0.21607845,-0.14606941,0.22374529,0.24634156,0.18546501,-0.25595254,0.474072,0.24652459,-0.2449014,-0.31078774,0.012728597,-0.017119844,0
image_113.png,0.24617101,0.14969209,-0.40918776,0.20432755,-0.2005455,-0.08412574,-0.091312274,0.05025808,0.17680083,-0.035508156,-0.42223036,0.25630695,-0.0057733427,0.0044848863,0.13556598,-0.34239024,0.29996088,0.25752115,0.21194923,-0.25340414,-0.2703362,-0.057313815,0.32464483,0.4906043,0.06949468,-0.13141128,0.70586854,0.18705308,0.058289714,-0.47726485,0.2531688,0.03503371,0
image_114.png,-0.28308353,0.013353564,0.114975624,0.83381855,0.33582073,0.04139612,-0.19613653,0.33956409,0.03525016,0.14778113,0.29489875,0.3674485,-0.19801822,0.27964705,0.55238384,-0.3256344,0.0026308722,0.46201554,0.7457508,-0.5567968,-0.32150692,0.09226563,0.64609957,-0.15361951,0.17208345,-0.050706558,0.23878714,0.20334233,-0.62547475,0.22840826,-0.100327455,-0.011263643,0
image_115.png,-0.026848992,0.0442103,-0.19282454,0.22256614,-0.07070417,-0.0073795984,-0.37618893,0.05130771,0.073901445,0.1525732,-0.04451634,0.34157372,-0.22230479,0.01915268,0.45807016,-0.5178955,0.105809756,0.48257074,0.47927824,-0.50182045,-0.3054804,-0.13431461,0.32892212,0.45472664,0.0069880397,-0.24495196,0.40724966,0.40668127,-0.2893615,-0.32898596,0.14489773,-0.026024135,0
image_116.png,0.12990275,0.123626396,-0.2799781,0.11050061,-0.24291326,-0.119664334,-0.3371712,0.123990305,0.008251896,0.030154556,-0.26950312,0.17355399,-0.0094091855,0.024551759,0.17702577,-0.29854003,0.262573,0.10973008,0.042884897,-0.15222862,-0.2638818,-0.14953947,0.3805771,0.5011692,-0.085182935,-0.10045095,0.66024065,0.25517368,-0.14936215,-0.4283581,0.45207003,0.3125688,0
image_118.png,0.116106175,0.09162365,-0.25959888,0.28583553,-0.11587566,-0.027627574,-0.21998043,0.10061291,-0.006848745,-0.07053938,-0.10878152,0.118174076,-0.14716902,0.15048857,0.16822083,-0.4602882,0.3295826,0.19018152,0.22170563,-0.16013803,0.07040397,-0.01178195,0.26814675,0.22111219,-0.26053825,-0.19926523,0.54295456,0.22718464,-0.08462678,-0.13219306,0.26652846,0.3191536,0
image_117.png,0.21859303,0.30448693,-0.33946306,0.20531876,-0.4013797,0.016832817,-0.15131378,0.20851085,0.11138725,-0.17661555,-0.5310445,0.18516108,0.14014477,0.058370862,0.15014677,-0.22262463,0.35023278,0.19186664,0.23166358,-0.16494083,-0.06174214,-0.45884246,0.35072535,0.5372797,0.007343858,-0.049151517,0.65418667,0.013299338,-0.04288904,-0.35966998,0.5547781,0.08515888,0
image_121.png,0.04353584,0.0626036,-0.22298327,0.30305657,-0.1636911,-0.09619234,-0.4011768,0.14624825,0.07790772,-0.023853268,-0.28814456,0.31567174,-0.13017921,0.1811549,0.35099545,-0.5269923,0.31374183,0.29237592,0.09339781,-0.24545045,-0.26377922,0.003591927,0.39710835,0.35950914,-0.07420034,-0.098593056,0.6300423,0.15413272,-0.1555703,-0.20267975,0.3064221,0.1261345,0
image_120.png,-0.016193476,0.079007715,-0.22526723,0.36569637,0.058911487,-0.16184512,-0.2539121,0.08800376,0.11120132,0.08719155,-0.04048319,0.35275212,-0.046993103,0.14362189,0.35574135,-0.3485854,0.19853231,0.25851142,0.25905973,-0.3767915,-0.39154556,0.014264809,0.49500504,0.27510077,0.1516661,-0.21604416,0.6065192,0.27156556,-0.3144779,-0.23166318,0.12343018,0.057522565,0
image_119.png,-0.1642269,0.08993273,-0.08860103,0.5864261,0.20190157,0.01439734,-0.13362041,0.14880973,0.0072698323,0.09382707,0.28164193,0.3267896,-0.2388613,0.14175063,0.474583,-0.42184934,0.07956876,0.41476026,0.6693457,-0.43008572,-0.23293385,0.041726757,0.60330695,-0.08744827,0.06386053,-0.024614416,0.28606495,0.23022969,-0.3632391,0.07180081,-0.07093991,0.035171177,0
image_122.png,-0.014528301,0.048061658,-0.19861461,0.2419029,-0.0786466,-0.015976405,-0.3712288,0.06870006,0.07323589,0.15930988,-0.06609909,0.33129597,-0.21159054,0.005797876,0.44714156,-0.50302005,0.10874562,0.48104554,0.47222406,-0.5048784,-0.3150459,-0.1260542,0.32060248,0.47358373,0.010648935,-0.24549884,0.42249063,0.41325256,-0.29542476,-0.33797124,0.14486204,-0.011006428,0
image_123.png,0.18423697,0.16869095,-0.3557562,0.33230484,-0.099329405,-0.13634852,-0.24022488,0.09652416,0.102872774,-0.061751287,-0.21274392,0.31230602,-0.052641924,0.14919676,0.20657298,-0.4758634,0.36755288,0.25180113,0.11007899,-0.1729493,-0.119866274,0.039779007,0.37784478,0.26551005,-0.1178453,-0.1905539,0.6627487,0.16973472,0.0044242977,-0.28659675,0.18370792,0.25979754,0
image_124.png,0.032942295,0.1930934,-0.31192216,0.3339735,-0.0771226,-0.15402949,-0.15935016,0.17301932,0.08466174,-0.07718077,-0.27112693,0.3441156,-0.09519583,0.12778975,0.35399327,-0.35535082,0.25992084,0.24365501,0.23014148,-0.28800708,-0.30332834,-0.07251968,0.36487064,0.30069387,0.1552213,-0.12884282,0.64297307,0.12998793,-0.109903954,-0.35541287,0.13190992,0.05983049,0
image_126.png,-0.18727046,-0.25361517,-0.04426037,0.44258,0.38063928,-0.0016725869,-0.3022695,0.21387948,0.25576755,0.3580707,-0.08637246,0.3538475,-0.08067966,0.2571925,0.38503668,-0.4045824,0.0893231,0.542011,0.15788172,-0.551973,-0.8715215,0.4472974,0.5349492,0.32319644,0.31711203,-0.027329562,0.49715585,0.21362504,-0.52955437,-0.15623942,0.10633195,-0.20954542,0
image_125.png,0.044764742,0.26083696,-0.22317794,0.4362071,-0.2581648,-0.24644302,-0.13672769,0.29560575,0.06822242,-0.34565362,-0.46703404,0.43132854,-0.04611939,0.36944577,0.3403766,-0.27698836,0.36418322,0.16660364,0.30125636,-0.21129958,-0.045486093,-0.20823294,0.37143707,0.20281777,0.16224572,-0.15099874,0.71839744,-0.08672459,-0.03533386,-0.24349129,0.22589302,0.012804399,0
image_127.png,0.0577259,0.110270664,-0.19402182,0.2811043,-0.11893233,-0.059808735,-0.22338085,0.17720202,0.09061893,-0.12617722,-0.32966632,0.24741273,0.028078698,0.24977201,0.3106966,-0.39172164,0.29140207,0.23048182,0.15412256,-0.24258502,-0.18529898,-0.11120273,0.29100758,0.32798728,0.031627838,-0.07028058,0.60735476,0.040668685,-0.08629575,-0.30100814,0.2148202,0.01482243,0
image_128.png,-0.02598376,-0.14562614,-0.2735203,0.57969487,0.10515762,0.03677658,-0.26955613,0.14453197,0.26033914,0.18432318,-0.5576149,0.47720397,-0.010298818,0.18671355,0.41213414,-0.55117095,0.10682516,0.35600054,-0.056350768,-0.5454868,-0.58194345,0.6636055,0.31967646,0.57942694,0.26951918,-0.21159941,0.7020909,0.21569747,-0.12927982,-0.343248,0.36548668,-0.024910854,0
image_129.png,0.090438925,0.17406774,-0.2167713,0.25534528,-0.09827948,-0.10335996,-0.07728162,0.11924279,0.11516986,-0.14956106,-0.20006187,0.22941461,-0.046196014,0.1362437,0.17443912,-0.20802633,0.2450694,0.22165649,0.38596475,-0.3041969,-0.032969046,-0.26951364,0.30338523,0.2629984,0.1017999,-0.22776835,0.5362745,0.097947724,-0.16371462,-0.13016078,0.18735178,-0.039276432,0
image_130.png,-0.077285424,0.102814466,-0.008094774,0.42023602,-0.09340914,-0.043546762,-0.32694972,0.3724141,0.06349796,-0.06375265,-0.12723565,0.28137782,-0.10273587,0.30103493,0.39314583,-0.41602772,0.23100486,0.43395972,0.4965501,-0.37389225,-0.25168318,-0.26106018,0.51820546,0.22682196,0.04195807,-0.009590937,0.4902903,0.08020376,-0.35434768,-0.13051547,0.20881842,0.011584614,0
image_131.png,-0.005645998,0.13442263,-0.161524,0.5146913,0.10329584,-0.0658897,-0.12727775,0.18181138,0.22879831,-0.063745484,-0.2250788,0.36897013,-0.0975599,0.18440047,0.4086298,-0.39459336,0.25872347,0.44355366,0.4903872,-0.432928,-0.21785235,-0.1317432,0.4654404,0.22836453,0.17239891,-0.20579019,0.55713737,0.08423335,-0.32469624,0.004348015,0.11063288,-0.14510135,0
image_132.png,-0.28915894,-0.09656293,-0.0976014,0.47230902,0.37588,-0.24148381,-0.24051031,0.25184885,0.043361016,0.10364295,0.049407773,0.20876521,-0.27438655,0.27964976,0.4069671,-0.4655336,0.22013853,0.347118,0.13005179,-0.45626253,-0.5611333,0.5678057,0.45631927,0.059143294,0.16992596,-0.06951759,0.5834858,0.26476792,-0.44487417,0.058852013,-0.06865486,0.040323343,0
image_133.png,0.12746271,0.09286443,-0.35326687,0.39296067,-0.1765146,0.03610696,-0.24055104,0.1248729,0.07906058,0.03338809,-0.3696718,0.12607415,0.061844613,-0.029455313,0.21823739,-0.43962628,0.23123674,0.23260404,0.09914802,-0.36030656,-0.23832038,0.12107197,0.26577696,0.5108803,-0.071919784,-0.08015642,0.6362854,0.25054228,-0.06905122,-0.28647178,0.31054503,0.17419545,0
image_136.png,-0.12955025,0.0042215902,-0.037185222,0.67631096,0.18468489,-0.11953172,-0.20184258,0.40176457,0.13841736,0.099479906,-0.11860535,0.2323441,-0.13409814,0.17429854,0.294246,-0.29945204,0.16310468,0.4694928,0.39583167,-0.5989216,-0.4998926,0.31647497,0.44417912,0.20522977,0.22174683,-0.06373427,0.49747244,0.22072044,-0.46015373,0.03293319,-0.035644665,-0.04481384,0
image_135.png,0.11518242,0.082124874,-0.40170825,0.3167464,-0.17640066,0.050002143,-0.122718945,0.14910144,0.020660812,-0.06633884,-0.35516527,0.06773921,-0.027626837,0.071653575,0.16373861,-0.45063666,0.2884121,0.21060452,0.1623977,-0.19531724,0.024651261,0.02289608,0.26541603,0.34016228,-0.17727357,-0.1541444,0.651833,0.15465198,0.011741763,-0.13294064,0.4573816,0.23910488,0
image_134.png,0.13026084,0.17445183,-0.38862213,0.17935963,-0.20893723,-0.044812,-0.1326462,0.052438673,0.027611112,-0.0632952,-0.21940018,0.28011528,-0.049002174,0.072820745,0.21979456,-0.31264466,0.27476406,0.12637188,0.17635094,-0.034372747,-0.20533344,-0.19509955,0.47073463,0.24762124,-0.024531601,0.014961066,0.58494616,0.062367976,0.009763781,-0.3678257,0.335607,0.19159602,0
image_138.png,-0.21341407,-0.10344099,0.033207405,0.7732865,0.3347871,0.03579109,-0.17125383,0.37594262,0.13385169,0.20887886,0.1606133,0.11663058,-0.0689617,0.21790959,0.30057758,-0.37215894,0.07352197,0.45541257,0.50989854,-0.65048987,-0.48247927,0.35228595,0.42990586,0.040819533,0.15899132,-0.081315994,0.3486574,0.26800445,-0.5364168,0.10669761,-0.15573482,-0.019776277,0
image_137.png,0.5085137,0.27776644,-0.6578319,0.48696116,-0.37292835,0.04879165,0.08472234,0.033681266,0.24518926,-0.23177537,-0.6881505,0.17294896,0.28192195,-0.028173206,-0.0053754626,-0.4186389,0.46671736,0.033625755,-0.044506006,-0.00025321444,-0.08166042,0.004398728,0.29899096,0.40432465,-0.11846698,0.05417592,0.8955061,-0.086385794,0.4156112,-0.47152528,0.29697564,0.25255907,0
image_140.png,0.10537544,0.14390442,-0.38302413,0.097432576,-0.23496304,-0.15248793,-0.29507312,0.08475423,0.0084854355,-0.024520505,-0.26380423,0.1921154,-0.07104196,0.032695487,0.23453547,-0.3892032,0.31638795,0.1750136,0.041640338,-0.11914711,-0.28248098,-0.11180891,0.41568843,0.3955705,-0.09250056,-0.042033747,0.701138,0.19929932,-0.065128386,-0.35731137,0.371856,0.21986325,0
image_139.png,-0.40535817,-0.14708757,0.076230004,0.97668225,0.5818763,0.021504257,-0.12780775,0.48660353,0.14208981,0.37989643,0.18992056,0.24166042,-0.10713836,0.21301804,0.5089765,-0.3797359,-0.00926195,0.53037554,0.41650456,-0.6281531,-0.83141625,0.6101722,0.65262485,-0.09662073,0.37019864,0.112173565,0.29875287,0.19764869,-0.7071419,0.20799765,-0.21062039,-0.021165665,0
image_142.png,0.10378462,0.058530733,-0.18364799,0.211319,-0.15504442,-0.0044815405,-0.24404791,0.13218905,0.006083625,-0.10317965,-0.10061026,0.011553476,-0.14879589,0.10996387,0.10361129,-0.41304347,0.28219566,0.21919982,0.26611415,-0.161467,0.06976868,-0.0952741,0.26596615,0.18914095,-0.30663502,-0.098987006,0.47561762,0.20396407,-0.079052575,-0.024854785,0.23878641,0.22991177,0
image_141.png,0.157532,0.06392934,-0.18828212,0.42628053,-0.16831619,0.014787785,-0.27109292,0.3413932,0.21340673,-0.03948843,-0.4919836,0.11671212,0.1047,0.14671873,0.13563552,-0.3806054,0.3216001,0.38406894,0.21302602,-0.3703199,-0.26321214,-0.10690983,0.30353352,0.5300302,-0.010944732,-0.088897504,0.6714304,0.09337917,-0.180299,-0.22322981,0.3289249,0.037321717,0
image_143.png,-0.22197898,0.052612346,-0.04054665,0.8996654,0.18636099,-0.12604941,-0.23406334,0.32168278,0.013732721,0.11801115,0.23182724,0.31388298,-0.13316539,0.11235651,0.4295569,-0.25964606,-0.015727116,0.33467332,0.7225276,-0.777317,-0.2616513,0.14950812,0.42047352,0.024283227,0.19102263,-0.34533653,0.36656553,0.39912245,-0.56141037,0.12815347,-0.23332046,0.06514337,0
image_144.png,0.11452901,0.032213043,-0.1953184,0.40787557,-0.10273084,0.0113059925,-0.29470834,0.23665412,0.18463151,0.08634322,-0.28185806,0.16030814,-0.032352876,0.031467285,0.14339088,-0.35309523,0.2093385,0.35879108,0.3328854,-0.5489835,-0.37861872,0.035091918,0.35923165,0.53383845,0.018087212,-0.18382928,0.6429563,0.34820762,-0.29003483,-0.28137067,0.27018335,0.08232119,0
image_145.png,0.10502042,0.17419088,-0.22231305,0.3458718,-0.09175201,-0.10637688,-0.10911059,0.14415781,0.14333226,-0.13504262,-0.2669447,0.31169304,-0.06075136,0.22139204,0.25511402,-0.3784324,0.31741476,0.20079382,0.23299743,-0.27551594,-0.22344314,-0.02087794,0.32715797,0.25450093,0.11112242,-0.11100647,0.627536,0.10101092,-0.05563553,-0.3544838,0.091954485,0.045019716,0
image_148.png,0.17255,0.13938676,-0.20228525,0.3465991,-0.18658161,-0.10828598,-0.26456875,0.10577152,0.06909643,-0.16419756,-0.21792892,0.20882735,-0.13923208,0.11612676,0.17389496,-0.43166447,0.31596142,0.21642497,0.28981277,-0.3233893,0.028003003,-0.06826559,0.30712292,0.31861597,-0.1718497,-0.2021497,0.6357373,0.22474504,-0.122583054,-0.11273978,0.19828358,0.2030919,0
image_146.png,0.2635869,0.17413804,-0.43135855,0.32414696,-0.24964836,0.03454612,-0.04830514,0.012118564,0.08192493,-0.15626737,-0.34621432,-0.02614981,0.08445975,-0.012747656,0.031305894,-0.44038558,0.3893448,0.0986624,0.107400075,-0.1386777,0.123084076,0.014895415,0.21941324,0.32264474,-0.2534461,-0.09549502,0.66790164,0.13782643,0.13138522,-0.091184825,0.3378211,0.2308864,0
image_147.png,0.11318403,0.18947053,-0.45139664,0.43868947,-0.064405404,0.016409852,0.07432333,-0.043563467,0.054855805,-0.13267623,-0.2500112,-0.029942682,0.14237794,-0.022797983,0.19440328,-0.44117066,0.30354828,0.0106539475,0.07430253,-0.1428539,0.105253875,0.23667715,0.17997004,0.20795664,-0.11256881,-0.09117688,0.5890983,0.14820881,0.15011379,-0.035753835,0.17619148,0.18974029,0
image_150.png,0.029751444,0.08825296,-0.18682173,0.1275676,-0.2383718,-0.08698715,-0.32986236,0.020519152,-0.070492305,-0.049933318,-0.05121391,0.23712867,-0.16646056,0.1403603,0.3188861,-0.42979178,0.23566347,0.18243003,0.22974007,-0.08424921,0.017286303,-0.15941846,0.29316822,0.18274671,-0.20947066,-0.113712616,0.38106084,0.18916316,-0.046065204,-0.18874712,0.21417265,0.17823382,0
image_151.png,-0.22651948,-0.24758983,0.114523955,0.9835916,0.41709328,0.44927275,-0.27871382,0.26873383,0.29114738,0.5514656,0.07923953,0.38179952,-0.0520007,0.11550622,0.56375176,-0.5611044,-0.11417002,0.6912914,0.54398555,-0.88292474,-0.8782303,0.5525949,0.68094224,0.34651265,0.31452647,0.114802375,0.24002467,0.3002218,-0.77380866,0.061281405,0.16239746,-0.1907767,0
image_152.png,0.01340279,-0.12165341,-0.26530474,0.6215912,0.14471342,0.011062592,-0.28060094,0.14268151,0.29201096,0.18211244,-0.5851147,0.50526047,-0.0010182173,0.12025611,0.4161371,-0.5209883,0.08522842,0.37480637,-0.08797199,-0.5725998,-0.5895281,0.67144406,0.28479704,0.615324,0.2873041,-0.23491749,0.6887496,0.21536392,-0.15287188,-0.31601843,0.27998075,-0.022317873,0
image_149.png,0.108107366,0.083859645,-0.21544649,0.22129823,-0.16958581,-0.053020697,-0.29972765,0.08829693,-0.04667797,-0.09576681,-0.07143399,0.12332809,-0.21056767,0.16521491,0.1982935,-0.50063646,0.33912718,0.22124395,0.23589796,-0.13610986,0.12739947,-0.083766624,0.258582,0.20161703,-0.33995336,-0.18193622,0.5031997,0.21884866,-0.09007915,-0.08664448,0.2610316,0.30868402,0
image_153.png,0.19376625,0.1912229,-0.36600456,0.33023763,-0.12765858,-0.109763905,-0.029388193,0.15556392,0.16220722,-0.11493935,-0.5309332,0.24963686,0.017871141,-0.0008636329,0.11100029,-0.22570133,0.23765734,0.1925538,0.073205315,-0.281982,-0.16566895,0.11654629,0.18789148,0.42794886,0.11660188,-0.17300576,0.6379388,0.11049786,0.07278215,-0.31996652,0.2187031,0.08324,0
image_156.png,0.117061734,0.08101276,-0.3400157,0.26144078,-0.18225919,0.00494099,-0.20771725,0.07952228,0.064314105,-0.016203962,-0.3507563,0.0875598,0.056011133,0.019646764,0.18845817,-0.42314443,0.2612503,0.17761594,0.059144866,-0.25061074,-0.18522894,0.0962776,0.24684545,0.43593055,-0.09976244,-0.06193051,0.61626047,0.20501767,0.010520702,-0.28763482,0.3141223,0.14535972,0
image_155.png,0.06634758,0.1604553,-0.1410807,0.37342858,-0.05255237,-0.04966954,-0.1394759,0.20231986,0.14357783,-0.07054803,-0.19087332,0.2613965,-0.06534401,0.12362949,0.20037976,-0.21559578,0.19020414,0.23504737,0.3794991,-0.47025535,-0.19786365,-0.14685139,0.24441017,0.32004076,0.15411763,-0.2390718,0.50082964,0.19272617,-0.23461159,-0.26462775,0.08947351,-0.006537512,0
image_154.png,0.012813384,-0.056021217,-0.00592817,0.2461735,-0.038273185,0.20598833,-0.23256055,-0.028276172,0.0809064,0.048511814,-0.049856022,0.25670046,-0.06511232,0.13217962,0.2988983,-0.34910497,0.023769476,0.27087456,0.4063061,-0.36477375,-0.009827685,-0.14559226,0.28422958,0.2646558,-0.054703932,-0.12139636,0.22186473,0.15155391,-0.20808582,-0.04196492,0.28436294,-0.09127154,0
image_159.png,0.26551282,0.32145926,-0.54940766,0.41429797,-0.05958784,-0.029512592,0.12925729,-0.045133676,0.19515277,-0.11679893,-0.34786674,0.28431076,0.10477457,-0.056115907,0.19822472,-0.39175022,0.31414142,0.07968049,0.06528322,-0.13166645,-0.1471328,0.12492054,0.25266096,0.2648183,0.09004286,-0.103568986,0.6341926,0.086657725,0.2427276,-0.44894105,0.03102098,0.17883502,0
image_157.png,0.12087257,-0.027530152,-0.1493961,0.34421545,-0.17295247,0.007146811,-0.5019941,0.24628271,0.16918956,0.122514956,-0.34641075,0.30099413,0.037330292,0.19898012,0.24679022,-0.48803124,0.21972118,0.41944602,0.17699076,-0.46552917,-0.3463454,0.023748226,0.3055551,0.63140583,-0.0543288,-0.24212733,0.6230215,0.30709136,-0.20413469,-0.45078486,0.3608484,0.11964475,0
image_158.png,0.04752897,0.076455645,-0.17000113,0.18600465,-0.22874512,-0.12762968,-0.427254,0.051084597,0.013778983,0.028983243,-0.13211156,0.32526526,-0.2400742,0.055710215,0.3227436,-0.40318757,0.21892595,0.31394967,0.25427648,-0.28331292,-0.16957025,-0.12734392,0.35316288,0.38473147,-0.08504992,-0.17117795,0.45438492,0.27227336,-0.23626803,-0.14309813,0.25891772,0.08165379,0
image_160.png,-0.05853117,0.1679827,-0.14926492,0.20440318,5.0400362e-05,-0.33140805,-0.32842377,0.26868796,0.11953968,-0.13332309,-0.22117075,0.6621645,-0.28183767,0.35057208,0.48884553,-0.27869865,0.28826138,0.49277842,0.3843558,-0.33122808,-0.46350145,-0.34539375,0.5640721,0.27670416,0.32087192,-0.12436698,0.6070223,-0.019307077,-0.36218545,-0.33906665,0.070200205,-0.17323142,0
image_162.png,0.077849545,0.22074656,-0.11290786,0.27267334,-0.29446027,-0.20174646,-0.19711944,0.34645563,0.059115812,-0.20366307,-0.43686917,0.38404566,-0.13097441,0.2173325,0.2901471,-0.16924201,0.26711592,0.321727,0.4033206,-0.33017153,-0.33128366,-0.31689295,0.3643703,0.39933848,0.23602669,0.04056358,0.60934263,0.010216245,-0.1509183,-0.45738235,0.11958001,-0.10685374,0
image_161.png,0.1464623,0.10209217,-0.39447385,0.29369935,-0.19302128,-0.023059694,-0.1784748,0.17877871,0.05585381,-0.10688499,-0.35872155,0.009235628,-0.053681675,0.06750231,0.11573931,-0.50334966,0.37408617,0.19587934,0.06698576,-0.14542727,-0.042699926,0.042059742,0.27446947,0.31107965,-0.23965655,-0.103375725,0.71763253,0.15235633,0.03567175,-0.13200516,0.3823871,0.28617498,0
image_164.png,-0.050897174,0.117043585,-0.2855764,0.26470485,0.14836355,0.08251805,-0.2254335,-0.12591071,0.093869075,0.20840995,0.17796864,0.61936045,-0.14848642,0.103915446,0.6049701,-0.48566654,0.07772997,0.388384,0.38833845,-0.27603498,-0.36856285,-0.13206054,0.62724,0.14482063,0.124143,-0.12167356,0.31923845,0.19993156,-0.255858,-0.32329148,0.1678229,-7.9009815e-06,0
image_163.png,-0.06603358,0.0017023248,-0.33196247,0.25931445,0.0061531872,-0.1551376,-0.45260128,-0.06915429,0.023782501,0.2372215,-0.030040566,0.33557788,-0.13671687,-0.034379136,0.4984206,-0.58587104,0.15024565,0.27106366,0.021402244,-0.29472303,-0.37431931,0.22269666,0.34761134,0.3874391,-0.055660084,-0.26173443,0.5029621,0.41953114,-0.20393741,-0.23494872,0.16407572,0.19041902,0
image_167.png,0.07825783,0.07881102,-0.16021879,0.38658476,-0.13134435,0.018212862,-0.30473992,0.12292862,0.036852915,-0.034767006,-0.07284696,0.22817947,-0.15656887,0.17874487,0.27585605,-0.5250698,0.2855642,0.27605823,0.29498094,-0.2344892,-0.015075542,-0.020310733,0.34776446,0.16974425,-0.2280794,-0.13500601,0.45704675,0.1906412,-0.12277173,-0.092640616,0.20347674,0.22128195,0
image_166.png,0.08220658,0.24788517,-0.34267634,0.35620597,-0.017429415,-0.23227577,-0.005684208,0.1273351,0.1345529,-0.14403763,-0.2609926,0.3687409,-0.0978937,0.13282155,0.23524517,-0.2115462,0.29659867,0.15997154,0.28893617,-0.30284345,-0.24498089,-0.008725501,0.4093368,0.20522554,0.22952223,-0.22081074,0.7067991,0.14274795,-0.08232825,-0.30313122,0.097068645,0.039300498,0
image_165.png,0.012053441,-0.021727026,-0.18275231,0.6651587,-0.006603373,0.120515436,-0.19389501,0.2880178,0.10012829,0.06768169,-0.17981626,0.048757724,0.13037957,0.20379059,0.17306812,-0.45501608,0.20287932,0.244895,0.29782748,-0.43061385,-0.14372355,0.26634127,0.4049354,0.2683991,-0.09260485,-0.1542083,0.6107064,0.25288412,-0.20159723,-0.04297967,0.34961832,0.243364,0
image_168.png,-0.06253735,0.12778279,-0.05586352,0.4698221,-0.023034682,-0.09593471,-0.20803382,0.3407333,0.046551824,-0.015191514,-0.06335841,0.18558145,-0.14005688,0.15260799,0.27784026,-0.2837543,0.20194748,0.32582313,0.42879656,-0.3942235,-0.3484034,-0.03568291,0.4505843,0.18455492,0.11186874,0.04354691,0.4652434,0.16948408,-0.3185766,-0.12789279,0.029528992,0.05268032,0
image_172.png,-0.081208035,0.0035952514,-0.2697682,0.24794678,-0.015099096,-0.14849974,-0.46624672,-0.008822268,0.039900634,0.2070523,-0.09048394,0.34796914,-0.14804038,-0.0056429575,0.5172165,-0.56857324,0.14001377,0.32477418,0.07614362,-0.35027105,-0.38856307,0.14092217,0.32467946,0.43429375,-0.004092807,-0.24928196,0.48942345,0.3827117,-0.23995852,-0.24777772,0.16527684,0.10896166,0
image_169.png,0.11472755,0.05153844,-0.102870435,0.09181319,-0.21326305,0.023897897,-0.33184773,0.012212833,0.04716692,-0.06452572,-0.10819862,0.18742839,-0.06746447,0.09653113,0.15569162,-0.32312813,0.20203228,0.278321,0.30734408,-0.27375582,-0.022879593,-0.31669328,0.34719035,0.38562706,-0.14198591,-0.05312798,0.39158165,0.13629699,-0.20395036,-0.08117175,0.3310468,-5.4836535e-05,0
image_170.png,0.07302183,0.043332946,-0.19099993,0.41157448,-0.0230769,-0.06078372,-0.32504508,0.21809709,0.093048066,0.089248985,-0.18350616,0.44169343,-0.120704584,0.1466166,0.30275863,-0.2946397,0.1948863,0.43421358,0.28588757,-0.33889034,-0.38958818,-0.05501095,0.51624626,0.3426264,0.059045088,-0.051484622,0.5164894,0.11425425,-0.33466005,-0.20785227,0.22465193,0.069331005,0
image_171.png,0.07712903,0.057812393,-0.29685095,0.21718293,-0.1937129,-0.06508281,-0.3454219,0.05311099,-0.008187659,0.0076078875,-0.18036689,0.14507441,-0.10777376,0.025945744,0.18203716,-0.4100549,0.24523075,0.16105938,0.110451855,-0.28022856,-0.101462126,0.027031459,0.35353193,0.38533854,-0.1873409,-0.19133213,0.62823176,0.3121078,-0.14786747,-0.113715276,0.43788898,0.25546712,0
image_175.png,0.0945837,0.055714026,-0.45590386,0.35823742,-0.15274999,0.06093301,-0.13799137,0.15706743,0.013820711,-0.05839261,-0.38976404,0.07837499,-0.034660745,0.10285608,0.22353578,-0.5388785,0.3207579,0.26047185,0.12630764,-0.17042471,0.05225507,0.06812961,0.25658467,0.33468148,-0.2166215,-0.1820425,0.67942286,0.12634315,0.021630008,-0.08203934,0.49438405,0.24918228,0
image_173.png,0.012604074,0.015092348,-0.15147044,0.5883852,-0.037038576,0.05971006,-0.20878151,0.27051055,0.055518065,0.009966341,-0.15051763,0.099386275,0.038696606,0.20496525,0.20763367,-0.41999733,0.21071516,0.27247065,0.32947344,-0.3832928,-0.119357646,0.16997215,0.4166489,0.21493809,-0.10318611,-0.09292135,0.5716636,0.2060912,-0.20745917,-0.016544087,0.28479964,0.19697843,0
image_174.png,0.29002345,0.27455452,-0.23074766,0.14538015,-0.34976354,-0.07167071,-0.09790002,0.0996332,0.20535383,-0.21177496,-0.490485,0.27596232,0.0630869,0.08395675,0.14252077,-0.25622436,0.34426898,0.25139368,0.32456025,-0.25690794,-0.17431132,-0.4171242,0.295237,0.52269256,0.12235177,-0.0193606,0.6342141,0.02886803,0.02504162,-0.5040564,0.21825121,-0.118560724,0
image_179.png,0.054904886,0.073670864,-0.35472807,0.2372983,-0.17008527,-0.12694763,-0.30464888,0.084418595,-0.01967528,-0.010958949,-0.2132563,0.1848008,-0.17436083,0.041842647,0.21456772,-0.40272322,0.28180864,0.17444782,0.102385595,-0.28112125,-0.18497871,0.06408668,0.37265217,0.39350447,-0.11182978,-0.17966099,0.70152533,0.29166415,-0.17858587,-0.15189955,0.40764347,0.24777636,0
image_178.png,-0.25404498,-0.048541963,-0.10478125,0.4251484,0.24842046,-0.27745065,-0.2424426,0.2599788,0.063277856,-6.374374e-05,-0.08732954,0.2596966,-0.26844352,0.31450638,0.41460198,-0.42769715,0.2629161,0.27056372,0.08862501,-0.37865433,-0.53570175,0.4130841,0.45827425,0.08529498,0.21171148,-0.055448774,0.65393525,0.1603302,-0.38264173,0.0154581545,0.017062107,-0.00075847754,0
image_176.png,0.12830484,0.15962759,-0.510463,0.28650674,0.017487437,-0.03080176,0.114523426,-0.14128393,0.12173084,-0.06698311,-0.30328003,0.05702458,0.07983119,-0.070041336,0.23800528,-0.48455787,0.3047567,0.050220605,-0.014277141,-0.017756455,-0.03264106,0.24099119,0.24916929,0.24693601,-0.034356423,-0.07257453,0.6184948,0.1242746,0.20031328,-0.13181506,0.21067286,0.14469782,0
image_180.png,-0.052740708,0.028384827,-0.17165484,0.5861967,0.14783135,-0.07275997,-0.21562742,0.14331917,0.09439977,0.050699413,-0.016644517,0.16652173,-0.038156606,0.15207474,0.34200326,-0.5356894,0.20712146,0.27504304,0.21811976,-0.4223986,-0.23050988,0.37994343,0.3528604,0.14244893,-0.02105359,-0.16161923,0.53701365,0.28912142,-0.19627717,-0.008262516,-0.015738668,0.14352512,0
image_177.png,0.16052292,0.2448981,-0.32988226,0.35750154,-0.2465239,-0.2497408,-0.08820087,0.2920832,0.12033549,-0.29760617,-0.51981753,0.27899173,-0.17268518,0.21957646,0.22777452,-0.38914156,0.46524647,0.26685524,0.25245866,-0.1930956,-0.21173236,-0.0869748,0.36460134,0.28803173,0.07499041,-0.037342325,0.8429623,0.01461113,0.027082551,-0.32412133,0.13769674,0.057358354,0
image_181.png,-0.012884854,-0.06548416,-0.27026802,0.097074606,0.01659856,-0.01351699,-0.2723758,-0.10068785,0.06964032,0.15317227,-0.12961991,0.3402715,-0.19722661,0.042637102,0.36737812,-0.44372186,0.0978457,0.36427853,0.29164922,-0.40251932,-0.2435251,0.047014076,0.38038716,0.48529086,0.03330036,-0.27043352,0.513995,0.35704407,-0.26278308,-0.20607196,0.40747303,-0.031754114,0
image_183.png,-0.008498764,0.07659428,-0.21922219,0.81006277,0.34760758,-0.18057722,-0.10581906,0.25309902,0.338922,0.11844594,-0.32644692,0.50781673,-0.05609538,0.11099668,0.41670024,-0.3922812,0.19316934,0.41046625,0.11243141,-0.59884286,-0.7254424,0.61061287,0.39259377,0.29419798,0.41724107,-0.1758617,0.6602674,0.19471039,-0.30099759,-0.23531553,-0.21517378,-0.04563303,0
image_182.png,-0.078188,0.08569223,-0.082202435,0.22480121,-0.09661085,-0.08931195,-0.27176797,0.20980883,-0.017841903,-0.13774869,-0.23441133,0.32270855,-0.16444206,0.23304369,0.4075391,-0.32045415,0.16062792,0.37533844,0.38896102,-0.31146798,-0.052706365,-0.22375835,0.32942197,0.27103776,0.03888102,-0.07973721,0.41676125,0.044850297,-0.2063573,-0.08442432,0.23186576,-0.083214164,0
image_184.png,0.20407923,0.021647813,-0.3739596,0.33849427,-0.23303217,0.12094062,-0.116130665,0.17716542,0.05271335,-0.087933846,-0.4154419,-0.23675361,0.13512234,-0.004774461,-0.036354482,-0.41513783,0.32612062,0.14089565,0.08537778,-0.23711959,0.063445054,0.06982823,0.17646995,0.40456533,-0.34252653,-0.08500185,0.72658396,0.19050218,0.005504506,-0.012172306,0.49545416,0.26697853,0
image_185.png,0.12855497,0.09373783,-0.24269237,0.28656596,-0.18414472,-0.0641456,-0.2851089,0.028377824,-0.006974271,-0.059200797,-0.041896306,0.16062424,-0.17632954,0.04784647,0.15633176,-0.4104157,0.24619408,0.21062508,0.3773862,-0.33531904,0.049359627,-0.06565991,0.33112022,0.28268,-0.23692723,-0.23646984,0.5435086,0.34454358,-0.14615133,-0.08804415,0.2323145,0.23241341,0
image_186.png,-0.015501569,0.16130981,-0.286629,0.30901596,-0.045287337,-0.1692771,-0.0018529395,0.16537884,0.06635285,-0.12215214,-0.14988267,0.19268338,-0.1937408,0.070883155,0.23458548,-0.23914307,0.2089663,0.20869675,0.4396706,-0.3313491,-0.22578177,-0.0977827,0.36286184,0.17118733,0.17431498,-0.1407869,0.5937198,0.17221987,-0.161868,-0.1634816,0.06532111,-0.01348719,0
image_187.png,-0.1917336,0.10526367,-0.09119978,0.6202696,0.19742352,0.020544104,-0.14898415,0.15506224,0.025814943,0.10622592,0.31783032,0.2715131,-0.23364338,0.121325016,0.4914017,-0.46584997,0.08966943,0.40570343,0.7469033,-0.49830407,-0.23408954,0.034299415,0.5806763,-0.08722922,0.041332457,-0.09775353,0.3038097,0.3269269,-0.38218045,0.05510863,-0.10637895,0.043091014,0
image_188.png,0.11030705,0.022978868,-0.19714206,0.4229824,-0.09059768,0.020583652,-0.3009449,0.2387467,0.19776756,0.10909507,-0.2784754,0.14223234,-0.012781741,0.03252341,0.14431499,-0.37996754,0.21658018,0.35742527,0.3175243,-0.54990345,-0.3963764,0.070580415,0.36366305,0.53590703,0.009507101,-0.19271885,0.6522922,0.3682354,-0.28585088,-0.28836668,0.27655527,0.0978526,0
image_189.png,0.1002645,0.050461058,-0.19419718,0.40696198,-0.15256362,-0.079129696,-0.38706788,0.3142766,0.121446125,0.036336977,-0.41051307,0.32347378,-0.09639592,0.13295113,0.26862454,-0.41411144,0.2037137,0.4250184,0.22451696,-0.4928499,-0.2721887,0.033815276,0.16966322,0.57523924,0.013131071,-0.30152532,0.6011368,0.2768972,-0.18519646,-0.406854,0.212486,0.12217423,0
image_190.png,0.043393232,0.11047405,-0.24713048,0.31414166,-0.1888532,-0.059720702,-0.24027157,0.12849294,-0.08391973,-0.10940047,0.010801906,0.0765251,-0.26283786,0.10284634,0.19334613,-0.43860677,0.2782718,0.21040234,0.46732727,-0.31237587,0.08486782,-0.09485607,0.36084175,0.16739047,-0.27393347,-0.19664486,0.5675754,0.33570066,-0.19183303,-0.023936654,0.25072682,0.28613594,0
image_191.png,0.15592454,0.17399275,-0.23817536,0.31106567,-0.21428771,-0.12769294,-0.24667259,0.07484671,0.06569179,-0.16907299,-0.17999637,0.27229998,-0.17425647,0.119526215,0.19651245,-0.3914971,0.33389002,0.20709138,0.3090204,-0.2902744,-0.07989074,-0.072817005,0.38711932,0.2506313,-0.11697867,-0.11540215,0.62189454,0.20197423,-0.088383004,-0.17269813,0.14645255,0.13608651,0
image_192.png,0.1573198,0.14494202,-0.2641063,0.20764895,-0.19992803,-0.035663746,-0.23422433,0.18049109,0.14202608,-0.035775382,-0.38467443,0.24527869,0.03482013,0.1307502,0.19863027,-0.3685528,0.30256003,0.259914,0.1307154,-0.29493037,-0.36115214,-0.111513294,0.32741427,0.5103004,0.07780259,-0.030421376,0.6614622,0.13518514,-0.056505837,-0.5324228,0.2807873,0.05675488,0
image_194.png,0.25416908,0.13452367,-0.3789514,0.2982574,-0.25401583,-0.024038035,-0.13690592,0.10358164,0.13107203,-0.05870362,-0.41613257,0.16260089,0.051636014,0.022658335,0.0604533,-0.33664328,0.3224393,0.22721744,0.17649889,-0.26658204,-0.14067043,-0.02011167,0.29009217,0.46409333,-0.05673913,-0.115560114,0.67795575,0.16612291,0.034252215,-0.3194377,0.32240003,0.1160488,0
image_197.png,0.2763103,0.2917307,-0.50395876,0.2527502,-0.31440756,0.025994318,0.078184575,-0.068805106,0.14856693,-0.16706987,-0.4399881,0.18314144,0.24518895,-0.025049433,0.13940276,-0.29787233,0.31165063,0.016797034,0.13145664,-0.044934776,-0.06684256,-0.11795412,0.32101864,0.33576745,0.020259356,0.01663796,0.63555574,0.033498902,0.2916237,-0.44406644,0.274166,0.069374435,0
image_193.png,-0.14972898,-0.029334277,-0.12950352,0.71095324,0.21882905,-0.10682747,-0.23869762,0.28115878,0.05877473,0.20148079,0.041948937,0.24194138,-0.1569741,0.10324836,0.36737427,-0.39074644,0.10912316,0.41867864,0.41133374,-0.5646267,-0.44933817,0.4107289,0.49603367,0.17715973,0.10991508,-0.1434577,0.4988753,0.37026417,-0.4560477,0.035269946,-0.011376738,0.1201995,0
image_198.png,-0.23452759,-0.0051732217,0.043719515,1.1270633,0.36564392,-0.17171977,-0.27622458,0.39037573,0.082653485,0.17959793,0.18093431,0.43750158,-0.14480348,0.23549159,0.5293131,-0.38411424,0.058159024,0.37991118,0.45133898,-0.7316002,-0.5688636,0.600638,0.5344007,-0.04823319,0.25036854,-0.1375982,0.43373,0.313246,-0.63258785,0.14170773,-0.3711007,0.12340062,0
image_196.png,0.09534435,0.16828898,-0.3103659,0.23764317,-0.0574574,0.0008184071,-0.039502833,-0.021885699,0.060344025,-0.04112365,-0.045594472,0.15968585,-0.023029508,0.0546428,0.21014558,-0.3481174,0.19971466,0.0575741,0.30737612,-0.3127019,-0.15394545,-0.021493087,0.25961962,0.2463315,0.02667208,-0.17445323,0.54119015,0.30081764,-0.0006173686,-0.45804006,0.07733159,0.14278997,0
image_200.png,-0.019284021,0.1397507,-0.11533988,0.3063993,-0.22837801,-0.048108432,-0.2967155,0.14264855,0.0190056,-0.108400986,-0.049977846,0.41048318,-0.38873646,0.18201996,0.3561401,-0.35897928,0.21657649,0.34847662,0.64741474,-0.48854396,-0.20043562,-0.2893074,0.5504999,0.27110282,0.064116165,-0.108134836,0.5245623,0.2254424,-0.38640115,-0.11466898,0.29048312,-0.04548425,0
image_195.png,-0.21026747,0.065936625,-0.099720106,0.43182456,0.23621207,-0.19748013,-0.06971007,0.16110115,0.011589636,-0.04230196,0.09792214,0.41776153,-0.2147662,0.2928593,0.4703143,-0.22271502,0.13231719,0.24900271,0.42788503,-0.40625998,-0.4146025,0.05667663,0.46517634,-0.05446011,0.33194214,-0.049656436,0.43354872,0.08468534,-0.3621168,-0.11496706,-0.19101189,-0.14506279,0
image_199.png,0.16160122,0.21944813,-0.35582492,0.066136904,-0.20404252,-0.21126337,-0.19449577,0.049582675,0.09524462,-0.06933834,-0.32005304,0.3524763,-0.111854866,0.025784815,0.25678614,-0.2951524,0.3000567,0.16784269,0.070264116,-0.110501274,-0.40713292,-0.15964258,0.3844091,0.3741204,0.09474886,-0.006879867,0.66437006,0.12700576,0.016591111,-0.5581769,0.16010574,0.08507917,0
image_202.png,0.17324255,0.10995493,-0.30996883,0.28487855,-0.12595399,0.029079154,-0.098595135,0.08426199,0.05817827,-0.027854297,-0.15617968,0.0079574585,0.023306666,0.0071116225,0.038951702,-0.31685278,0.23269396,0.040240183,0.1412445,-0.29266894,-0.16200349,0.06570938,0.1853378,0.33861196,-0.09646286,-0.112756535,0.5943988,0.28866604,-0.02184115,-0.3793241,0.16328366,0.26755497,0
image_201.png,0.01605719,-0.12308856,-0.3046081,0.5505562,0.15110563,0.0077565224,-0.24714962,0.12674707,0.22906743,0.1969026,-0.5015351,0.4726386,-0.011909801,0.11862017,0.39041966,-0.49452034,0.08870285,0.36381364,-0.10370363,-0.46254793,-0.5459759,0.60867274,0.26631412,0.5454732,0.23183988,-0.1991815,0.6305056,0.18230592,-0.12944634,-0.3350793,0.25413707,0.033333354,0
image_204.png,-0.061692934,0.071459614,-0.16939181,0.4712955,-0.09563902,-0.041304294,-0.28485784,0.22005329,0.009795633,0.010874651,-0.018711677,0.28789103,-0.22090052,0.21689127,0.35478926,-0.45612434,0.22159226,0.27192736,0.40140393,-0.38316166,-0.30564076,0.083339155,0.4916035,0.14492777,-0.018095704,-0.07826973,0.5485852,0.2721329,-0.25704062,-0.19059435,0.16186836,0.16198577,0
image_209.png,0.011769883,0.045681622,-0.15230332,0.54364794,0.06620783,-0.057069622,-0.23153359,0.36247602,0.19921488,0.0860929,-0.19339329,0.075188294,-0.13143961,0.012786166,0.17291251,-0.3530052,0.2337438,0.50187206,0.47315526,-0.5830393,-0.34459412,0.037623025,0.3379155,0.38224602,0.042241756,-0.22420327,0.5510699,0.32145378,-0.41045505,-0.00022259685,0.08024017,0.021730935,0
image_210.png,0.2876576,0.25274807,-0.28762057,0.2225529,-0.2777307,-0.11614233,-0.07253197,0.26088884,0.20171064,-0.22455586,-0.58635867,0.2536755,-0.015301177,0.120034225,0.05242565,-0.20499192,0.34102732,0.2148219,0.21420063,-0.28051776,-0.17186083,-0.21982032,0.18977435,0.5058044,0.12065902,-0.16089463,0.7359023,0.06713342,0.05724291,-0.53609335,0.2544514,0.04447355,0
image_211.png,-0.1115199,0.1294135,-0.17554533,0.59227014,0.08182308,-0.14974666,-0.060393453,0.2529289,0.0145443715,0.003328415,-0.055469353,0.20907205,-0.21934894,-0.033016227,0.33548754,-0.24786107,0.07175314,0.27580854,0.49649298,-0.47953695,-0.2644338,0.11556891,0.4041001,0.14178343,0.17845282,-0.104214326,0.46447527,0.25539604,-0.3323167,0.04617211,-0.028901674,0.0833665,0
image_212.png,-0.0039329925,-0.09756967,-0.047401033,0.18533048,0.00797772,0.09898867,-0.20927636,0.012259995,0.081024505,0.07360043,-0.08718318,0.20626037,-0.13319765,0.069572344,0.22620681,-0.2884704,0.01874607,0.33000863,0.35580674,-0.35972887,-0.086861126,-0.07333954,0.28789163,0.2902344,-0.011181216,-0.11845771,0.26775214,0.15927695,-0.24147236,0.041386813,0.27859098,-0.11649487,0
image_213.png,0.42318767,0.31723744,-0.54398984,0.3512967,-0.4098196,0.009049021,0.00082052255,0.033154067,0.16373515,-0.24181786,-0.56833786,0.028408984,0.113879636,-0.06830456,0.013501268,-0.44712937,0.52816236,0.070244275,0.002214709,-0.06985861,-0.08533161,-0.041567557,0.2517073,0.46276873,-0.15620215,0.10767778,0.83894765,0.033051282,0.24214917,-0.35403177,0.29408884,0.20484984,0
image_214.png,0.015632791,-0.12344257,-0.2807379,0.5885146,0.10604862,0.021720821,-0.25258324,0.13566916,0.28390566,0.16296202,-0.5907357,0.5108409,-0.050050963,0.15176727,0.39772388,-0.5252263,0.11953476,0.37570146,-0.04935219,-0.566028,-0.597843,0.6450846,0.31170696,0.6067672,0.2950502,-0.20521237,0.7141499,0.1956556,-0.14707398,-0.33407807,0.3310745,-0.05252512,0
image_215.png,-0.22156061,-0.07314132,-0.13389504,0.38703734,0.2738168,-0.13294491,-0.17610717,0.1497751,0.08833086,0.12542187,-0.0766272,0.51631325,-0.16204071,0.30750045,0.5285751,-0.30222479,0.08095791,0.33185038,0.23856059,-0.39221337,-0.6357224,0.22914751,0.5272495,0.13499813,0.39907923,-0.03134641,0.49812603,0.0804924,-0.32438216,-0.24666725,0.030763997,-0.1910775,0
image_216.png,0.161932,0.35728133,-0.47136286,0.61645156,-0.039168134,-0.37225914,0.20247506,0.22903445,0.20875388,-0.27502507,-0.5725073,0.54055494,-0.15074952,0.05926233,0.28755918,-0.109703645,0.30921328,0.1341807,0.22973958,-0.45628592,-0.55987245,0.2049865,0.37624928,0.2688137,0.5587062,-0.089270815,0.94772774,0.029101694,-0.024810405,-0.4735365,-0.15750213,-0.09360506,0
image_217.png,-0.11378315,-0.0516249,-0.014609436,0.615358,0.14636996,0.042101312,-0.32438442,0.28281483,0.16266897,0.21200964,-0.079012126,0.24784926,-0.04860782,0.13795587,0.3666999,-0.42028058,0.10693021,0.47237056,0.32882807,-0.5615192,-0.5341164,0.29121697,0.4672243,0.2903091,0.11673545,-0.00092811644,0.41359875,0.25592926,-0.4170095,-0.05795503,0.07458374,-0.032329615,0
image_218.png,-0.090000235,0.113244705,-0.074040435,0.43068966,0.12365478,0.14474821,-0.26828116,0.085502714,0.094229884,0.16503963,0.17065297,0.6497211,-0.13700391,0.19621038,0.57115895,-0.32437912,0.017235741,0.46985435,0.549372,-0.34523627,-0.3509214,-0.26696858,0.6628558,0.067606926,0.16919908,-0.01212955,0.16292211,0.055655994,-0.397314,-0.17547688,0.13144352,-0.07753306,0
image_219.png,-0.06241992,0.026110023,-0.12809487,0.57764053,0.05585359,-0.060769208,-0.37393868,0.15354055,0.054260075,0.15403819,0.088358976,0.4109712,-0.07707277,0.18159774,0.4058976,-0.43205747,0.13204458,0.3453518,0.3419675,-0.4589975,-0.37222856,0.16887619,0.53111625,0.20563844,0.045691624,-0.13300626,0.44298804,0.28728735,-0.3661837,-0.1444415,0.0551039,0.14047372,0
image_220.png,0.17042637,0.09643081,-0.30031407,0.48597574,-0.010665065,-0.02859676,-0.1615828,0.18949349,0.08829586,-0.0124277575,-0.33074757,0.079532415,0.022487754,-0.04213989,0.10101516,-0.344288,0.20354223,0.23616491,0.0964303,-0.3882969,-0.024446692,0.22223496,0.14102365,0.43632746,-0.104872726,-0.26178798,0.59948635,0.2580893,-0.09929202,-0.077521585,0.21896438,0.27461797,0
image_221.png,0.10585029,0.1329509,-0.36596572,0.17540635,-0.1766184,-0.09480273,-0.2454543,0.06852902,0.02910165,-0.02464225,-0.19637579,0.07603947,-0.13064536,-0.0069714207,0.14874403,-0.4342436,0.33831385,0.19017573,0.11366994,-0.24202698,-0.16027853,-0.0008682843,0.32177302,0.37961927,-0.15703104,-0.15558183,0.6716956,0.30592415,-0.11169077,-0.1886956,0.34583458,0.2368499,0
image_222.png,0.08388536,0.1107691,-0.24891639,0.14361963,-0.081617765,-0.0010535526,-0.19458385,0.008123266,0.007196294,-0.03691852,0.017525407,0.14935315,-0.14150761,0.11271898,0.22451915,-0.43530062,0.25670516,0.20158434,0.33847967,-0.20576108,-0.004687341,-0.16952659,0.31805024,0.22670612,-0.17655429,-0.18679705,0.4811817,0.27090126,-0.1089124,-0.24293666,0.22043036,0.20310481,0
image_223.png,0.1153369,0.097318426,-0.20695306,0.3428319,-0.18177427,-0.06649298,-0.25956747,0.08998427,0.08553005,-0.11435844,-0.21320912,0.2894795,-0.11287997,0.21314754,0.2152061,-0.43383527,0.3070183,0.1742108,0.24042864,-0.25975832,-0.10981771,0.036885172,0.41839623,0.2546653,-0.10507816,-0.12951942,0.6355644,0.18864052,-0.08137029,-0.20426346,0.2821224,0.17245747,0
image_224.png,0.1617603,0.15952033,-0.4952003,0.264649,-0.060440306,-0.11748532,-0.100209855,0.027335506,0.123387285,-0.12902986,-0.27624395,0.15644857,-0.08095455,0.07266862,0.246295,-0.58792526,0.40074745,0.26223293,0.15294072,-0.21809281,-0.099006064,0.023360262,0.2416582,0.3198636,-0.10843138,-0.22656527,0.7577402,0.19352391,0.056848004,-0.29382092,0.11727188,0.1618023,0
image_225.png,0.0005415809,-0.13828476,-0.2915729,0.5757768,0.11841717,0.04778286,-0.26411906,0.12512128,0.2664649,0.19446127,-0.5391963,0.4771527,-0.0108050555,0.1634974,0.40128455,-0.5445124,0.12166582,0.36182246,-0.071262494,-0.5405829,-0.5986126,0.6399973,0.31201345,0.589109,0.25984842,-0.19992734,0.6976402,0.2063265,-0.15557075,-0.350826,0.33885318,-0.018306268,0
image_226.png,-0.002964049,-0.11723384,-0.2810708,0.5975667,0.099999264,0.001924114,-0.26514703,0.12512186,0.2506248,0.16560125,-0.57186264,0.5195518,-0.022739988,0.14941233,0.41767588,-0.5151878,0.08926458,0.32064214,-0.09142891,-0.5404372,-0.55674833,0.6773419,0.28374955,0.5873019,0.28472745,-0.23358676,0.6916079,0.20996626,-0.11739494,-0.34578943,0.32426432,0.0018582817,0
image_227.png,0.3284809,0.2528267,-0.34910902,0.27620053,-0.28700942,-0.0071940604,-0.07566951,0.19015487,0.18561007,-0.118595526,-0.44067195,0.21116264,0.11837882,0.03968608,0.03721748,-0.18005648,0.31906176,0.19213657,0.290358,-0.2432055,-0.19086939,-0.31308147,0.30149338,0.4736094,0.032684974,-0.10046615,0.6806111,0.09886848,0.019615585,-0.54629636,0.27233416,0.10739795,0
image_228.png,-0.015745582,-0.10044362,-0.046208214,0.16528924,0.010000597,0.09304757,-0.20334943,-0.009562434,0.06298655,0.0743785,-0.08940745,0.19332688,-0.13370907,0.056598846,0.24508087,-0.30650038,0.0068772063,0.30745342,0.31431133,-0.3241423,-0.06162941,-0.039720584,0.25071773,0.27509156,-0.027336,-0.11247081,0.2414099,0.15989277,-0.19968829,0.042899817,0.26060364,-0.103673086,0
image_229.png,-0.07673347,0.007821796,-0.23888955,0.7015334,0.1132747,-0.021806799,-0.28112027,0.3396869,0.036700677,0.16318695,-0.017222377,0.06293836,-0.031324916,0.09019282,0.23353946,-0.47968158,0.20477124,0.32399806,0.16653757,-0.42330223,-0.34150177,0.46535054,0.4206595,0.19916084,-0.07968044,-0.09067406,0.5456008,0.3352565,-0.29663992,0.020188596,0.10949407,0.34490585,0
image_230.png,-0.27853888,-0.13949898,-0.09116664,0.8055444,0.528043,-0.096064605,-0.0982163,0.37175635,0.17685926,0.2844707,0.062177528,0.33499274,-0.19017851,0.22513218,0.45045203,-0.34193617,0.09549999,0.5377409,0.42480075,-0.49554428,-0.6959033,0.4282842,0.6479147,-0.028281076,0.3377808,-0.06441886,0.454821,0.15476999,-0.6240643,0.18991502,-0.09161797,-0.06033918,0
image_231.png,0.16114864,0.13722047,-0.3345217,0.07918797,-0.34488443,-0.12959187,-0.30036485,0.30126578,-0.017317362,-0.031707317,-0.3866064,0.11121262,-0.06386114,0.06020792,0.097539224,-0.2721323,0.31787342,0.20489743,0.102003515,-0.115121685,-0.32504997,-0.24335822,0.37211442,0.51574665,-0.092893645,0.0063786474,0.7302644,0.17763154,-0.098857805,-0.53107697,0.46260026,0.31258276,0
image_232.png,0.1936852,0.25230512,-0.45983535,0.25752187,-0.15510611,-0.117806464,-0.039204504,0.010331026,0.118793316,-0.141505,-0.28621975,0.1299487,-0.043062855,-0.0291406,0.18145406,-0.417897,0.3728282,0.12639707,0.17735337,-0.17153712,-0.116559856,-0.062430467,0.2879385,0.29670694,-0.04878064,-0.1444461,0.7172994,0.19516772,0.06635957,-0.30027094,0.14557105,0.16500594,0
image_233.png,0.28260937,0.19821416,-0.5785611,0.38639495,-0.095692374,0.09703533,0.14563392,-0.080573834,0.2529226,-0.03737129,-0.44309422,0.32747748,0.051315848,-0.06542972,0.1627809,-0.40877286,0.27138466,0.19642416,0.22376037,-0.3043588,-0.24276118,0.08034364,0.40343174,0.43708906,0.15140851,-0.122295596,0.7515152,0.124834895,0.113474116,-0.40846652,0.35198012,0.037116222,0
image_234.png,-0.038695157,0.11332477,-0.16171755,0.33333725,-0.14992115,-0.080976136,-0.3092277,0.036860816,-0.11262499,-0.049356394,0.18391915,0.27898788,-0.4279393,0.11882751,0.3331267,-0.4299943,0.23328304,0.26833352,0.5465995,-0.3491504,-0.04536816,-0.039164152,0.48298702,0.06311424,-0.18159375,-0.10459275,0.41590768,0.33588788,-0.30102307,0.03595884,0.12983762,0.16204329,0
image_236.png,0.27836907,0.16552907,-0.45906895,0.3844104,-0.25406626,0.050539743,0.043851547,0.03722924,0.14697605,-0.17738348,-0.46299532,-0.056271706,0.17247428,-0.04146853,-0.028461454,-0.36108226,0.35337648,0.019974276,0.06879623,-0.17749347,0.011655205,0.12043775,0.22737895,0.3337337,-0.15311132,-0.04785847,0.7406578,0.1211836,0.19845334,-0.15047827,0.32327542,0.18265745,0
image_235.png,0.1226303,0.09714984,-0.29558536,0.34152657,-0.1937744,-0.027246905,-0.2452435,0.08297158,-0.04299347,-0.0937692,-0.07597225,0.0407252,-0.1320266,0.05626356,0.13938612,-0.46989572,0.28324062,0.15780897,0.32156697,-0.3112968,0.102512226,-0.0007491195,0.29166707,0.25663653,-0.31677225,-0.21694796,0.61558497,0.34290364,-0.09859299,-0.07710427,0.2659703,0.3384078,0
image_237.png,0.18038045,0.10874601,-0.5190832,0.31210974,-0.007457594,0.022262229,0.09913018,-0.13399675,0.12477671,-0.06787574,-0.30590552,0.03825057,0.06780358,-0.043129414,0.16336755,-0.52561027,0.31197286,0.04780348,-0.00934939,-0.07097261,0.011284878,0.25457406,0.19896026,0.293401,-0.08950855,-0.12188903,0.64903367,0.13844423,0.19816457,-0.15956675,0.24593516,0.19864513,0
image_203.png,0.19077185,0.14899923,-0.37679103,0.16275719,-0.27910894,-0.098340444,-0.26769897,0.09212603,0.048215292,0.037309255,-0.31757635,0.1797177,0.038559817,-0.027598755,0.14227803,-0.3000831,0.27555022,0.09244668,0.02013086,-0.14047633,-0.34016314,-0.056341734,0.38404742,0.47073624,-0.07288607,-0.042477347,0.6955697,0.25117788,-0.019126527,-0.5137236,0.37614837,0.28753638,0
image_207.png,0.05742009,0.18449956,-0.5057067,0.27960688,-0.06650563,-0.09075806,-0.01156425,0.068509474,0.029456155,-0.16125296,-0.2286027,0.14578761,-0.1168608,0.1170373,0.304097,-0.5494149,0.38603714,0.22185574,0.22947623,-0.14349616,-0.06108561,-0.010375402,0.3639633,0.19680141,-0.07035198,-0.124269694,0.7382357,0.122309126,0.03331979,-0.19082497,0.23834921,0.17090599,0
image_205.png,0.10930101,0.1503791,-0.28891936,0.15879516,-0.03705033,-0.16774161,-0.20507155,0.0052919467,0.1145121,-7.162495e-05,-0.07824164,0.35964167,-0.23070967,0.0034345621,0.23245154,-0.27639005,0.23459862,0.36217043,0.42237514,-0.37744045,-0.25055462,-0.18079665,0.43580064,0.34786284,0.064478435,-0.2285751,0.54517823,0.29079053,-0.25419462,-0.22873683,0.12413706,-0.013086731,0
image_208.png,-0.16147341,0.02081188,-0.25482422,0.3496047,0.11506432,0.18718669,-0.08469805,-0.024111105,-0.045496654,0.2174385,0.28161648,0.2145892,-0.16651726,0.01627124,0.43321124,-0.4023499,-0.026077345,0.26924056,0.6193472,-0.29688734,-0.12304147,0.010705349,0.42859128,-0.033823542,-0.057364617,-0.16431476,0.16319495,0.36081314,-0.13998947,-0.1351241,0.11459652,0.09388777,0
image_238.png,0.1536915,0.20324454,-0.37442157,0.13182877,-0.067588456,-0.20880473,-0.22273162,-0.024021655,0.110768355,-0.09103139,-0.18702997,0.4335253,-0.13986634,0.14830492,0.3234246,-0.4696156,0.34705874,0.24155651,0.10965757,-0.17598857,-0.21977386,-0.06777788,0.38284507,0.28813198,0.006151445,-0.20765236,0.6823353,0.177233,0.0059718364,-0.44058794,0.12492974,0.124464445,0
image_239.png,0.06562445,0.14511593,-0.1499947,0.39509174,0.02283186,-0.121712446,-0.08509077,0.21052924,0.09888676,-0.05079164,-0.11204763,0.23344634,-0.0062813875,0.15870431,0.16195378,-0.19619551,0.2094065,0.25375947,0.3428186,-0.31182742,-0.16770646,-0.012277891,0.3756762,0.17048594,0.109256774,-0.11788448,0.47902748,0.13551122,-0.15846582,-0.16402178,0.041782327,0.057740323,0
image_240.png,0.18276401,0.11070834,-0.20578533,0.23001246,-0.16739765,-0.050090414,-0.2758444,0.16420949,0.15755388,-0.055825066,-0.30654472,0.27083236,-0.034901526,0.12576193,0.14361745,-0.3195475,0.2901429,0.34757218,0.29438132,-0.30976644,-0.18456668,-0.22086513,0.39013562,0.4596715,-0.018566309,-0.13146429,0.5894984,0.14499635,-0.16137382,-0.27584895,0.30656385,0.04763986,0
image_241.png,-0.013438122,-0.12276436,-0.26940122,0.58736783,0.08606634,-0.008608402,-0.27431634,0.1515864,0.23769963,0.1519541,-0.60501134,0.5104927,-0.042506695,0.1557225,0.41906005,-0.51569617,0.09013125,0.33012652,-0.10185476,-0.55773795,-0.5598426,0.6851479,0.26010293,0.6091782,0.29027596,-0.23161785,0.7043415,0.20882292,-0.12415288,-0.34785083,0.3317874,-0.004135448,0
image_242.png,0.06405083,0.08261027,-0.44098285,0.22052003,0.010375212,-0.0007526116,-0.17164011,-0.033320196,0.05619321,0.013764031,-0.06910197,0.20799163,-0.07822103,0.102291726,0.3239133,-0.59220207,0.3149004,0.2964468,0.22529119,-0.15210061,-0.06251004,-0.07140516,0.37927768,0.24096687,-0.15317321,-0.2053447,0.5706496,0.17734157,-0.054241415,-0.18357895,0.27102605,0.17665456,0
image_243.png,0.10362807,0.020971743,-0.19038697,0.3849398,-0.10879827,0.0051852525,-0.3183323,0.24139586,0.18368584,0.09160602,-0.2795919,0.16110633,-0.03155943,0.05191545,0.13997726,-0.35967058,0.2172111,0.36587983,0.3229816,-0.5468954,-0.38553753,0.032781795,0.36473805,0.53919184,0.013987785,-0.19164233,0.64460415,0.35050747,-0.29174235,-0.28803226,0.29044443,0.07735104,0
image_244.png,0.055006836,-0.14405236,0.06328438,0.3352563,-0.046648704,0.18336432,-0.3140513,0.057735812,0.1441669,0.14084467,-0.17003922,0.21784607,-0.023293788,0.10347521,0.21733257,-0.33699092,0.02235351,0.36165,0.3238614,-0.54790235,-0.18555808,0.038867444,0.23458222,0.47342956,0.008660789,-0.11509098,0.29651105,0.21689618,-0.32245427,-0.044440046,0.2916417,-0.14699283,0
image_245.png,-0.19540603,-0.070035875,-0.18143778,0.81939054,0.23850429,-0.22411208,-0.30399722,0.36367923,0.0748834,0.11359315,-0.14141677,0.4360809,-0.24741203,0.33631167,0.46847805,-0.47378543,0.23643175,0.3061937,0.09396175,-0.55015165,-0.71303725,0.7330576,0.50441855,0.12800655,0.22401242,-0.09850477,0.7598941,0.2560178,-0.4149007,-0.13246478,-0.03271451,0.15154757,0
image_246.png,0.0037052792,0.09959822,-0.2614621,0.4753448,0.0012209901,-0.057715967,-0.10911199,0.15383333,0.03911003,0.040295575,-0.04189642,0.030236084,-0.0022273462,0.034591503,0.16621238,-0.39800176,0.22818105,0.14429234,0.15291165,-0.3031572,-0.23174289,0.2947106,0.34144878,0.17206095,-0.022819707,-0.048377056,0.5269713,0.2763991,-0.11352438,-0.09089449,0.06834024,0.24087349,0
image_247.png,-0.27200335,-0.085968934,-0.14340648,0.4992237,0.34627032,-0.25351557,-0.2626416,0.24493632,0.0569695,0.08782788,0.04201558,0.14476128,-0.25858995,0.27308112,0.4095768,-0.53825283,0.26971054,0.28101888,0.082223594,-0.48684043,-0.5797084,0.57598794,0.41474226,0.092011645,0.13229766,-0.13081974,0.7003867,0.33236486,-0.45207894,0.01564572,-0.073861994,0.09990512,0
image_248.png,-0.049213234,0.12530264,-0.13476078,0.44050324,0.11715846,-0.19705239,-0.16990747,0.20795977,0.17280352,-0.031604618,-0.16824266,0.3566689,-0.19615437,0.1044966,0.3709371,-0.29051733,0.16261041,0.36708948,0.43216807,-0.55886453,-0.29660022,-0.046897214,0.29889235,0.30157655,0.26556063,-0.343535,0.54519904,0.24153244,-0.37472904,-0.11956141,-0.035264276,-0.0915487,0
image_249.png,-0.15839294,0.08176219,-0.20290814,0.77785295,0.31891713,-0.16608165,-0.044837456,0.3225338,0.21500537,0.15578075,-0.17110139,0.46172565,-0.18100204,0.117461495,0.50419605,-0.3406422,0.14306161,0.520176,0.447873,-0.56091624,-0.68575764,0.34943447,0.60910064,0.1991082,0.46935487,-0.08391398,0.5960301,0.18257289,-0.45845562,-0.058395796,-0.052470747,-0.11909255,0
image_251.png,-0.17813192,0.08963121,-0.0735777,0.6661782,0.14950477,0.06118446,-0.14431933,0.16847286,0.017810442,0.09662461,0.2927524,0.26620242,-0.24122795,0.10334807,0.4476401,-0.4190423,0.046040878,0.39044192,0.7608188,-0.5713469,-0.20680207,0.065148264,0.53418326,-0.057408907,0.046692546,-0.10696128,0.28562462,0.33277315,-0.40718704,0.09658776,-0.07560501,0.030536436,0
image_250.png,0.26509124,0.14378825,-0.50111073,0.38299897,-0.17810296,0.057795316,0.019857379,0.25459388,0.110744394,-0.12708667,-0.48922047,-0.16364911,0.084233336,-0.02736605,-0.017290123,-0.44229534,0.4274311,0.19179367,0.0436068,-0.092741966,-0.058761828,0.00093388703,0.17896342,0.3812263,-0.21661331,0.0083341375,0.77101195,0.046440262,0.098166026,-0.17878942,0.33882365,0.2990049,0
image_252.png,0.41318277,0.15183379,-0.364157,0.42540047,-0.40127963,0.0026414606,-0.087676935,0.29035613,0.16517374,-0.11285189,-0.55240923,0.02857368,0.14935653,-0.07991627,-0.22968875,-0.115616105,0.26280347,0.05702067,0.14562325,-0.31635877,-0.22531602,-0.039896477,0.23662058,0.53006756,-0.061766222,-0.022129977,0.7741792,0.1566199,0.09230088,-0.46226424,0.303281,0.28608662,0
image_206.png,0.16006924,0.25790432,-0.43757376,0.33646122,-0.1196838,-0.084502034,-0.029349586,0.084503524,0.10025047,-0.10130083,-0.19439924,0.20591077,0.028927086,0.07481448,0.21110001,-0.39731875,0.34064943,0.100342855,0.17950518,-0.10710463,-0.18369707,-0.036235508,0.31970754,0.18101776,-0.0025724634,-0.090473406,0.62743926,0.13791859,0.12078751,-0.46388236,0.042621203,0.23118958,0
image_253.png,0.024246944,0.07635421,-0.3489295,0.40112972,0.012545653,-0.15247983,-0.20345047,0.07940098,0.12200372,-0.04109812,-0.23603374,0.23213695,-0.103319,0.10966824,0.33571613,-0.5126635,0.30433258,0.298228,0.25041148,-0.37364158,-0.19808732,0.12833159,0.36241785,0.32134753,0.0028533584,-0.26673707,0.7292325,0.27194795,-0.15674357,-0.11008343,0.16583014,0.06833501,0
image_254.png,0.0924351,0.09558705,-0.29774714,0.2977967,-0.07561045,-0.017488223,-0.25063336,0.017868675,0.03945086,0.01535251,-0.022264658,0.1811956,-0.12369794,0.057531863,0.22591677,-0.48773044,0.26221243,0.23860998,0.2749762,-0.282164,-0.095465876,0.05390818,0.38052255,0.23874013,-0.19294699,-0.17095773,0.5339972,0.31930757,-0.10421274,-0.16658267,0.19759072,0.22978494,0
image_255.png,-0.018787991,-0.07281548,-0.0039572706,0.47745395,-0.011518784,-0.0020170168,-0.44261786,0.35379502,0.11634538,0.13551207,-0.17741816,0.20308973,-0.11740862,0.16488351,0.27322692,-0.43346205,0.14891404,0.5461287,0.41382587,-0.57714164,-0.27550727,0.001961617,0.31609878,0.46991634,-0.031126682,-0.21700042,0.45820415,0.29164156,-0.44250643,-0.07151502,0.21621826,0.042967986,0
image_256.png,0.007568806,0.058162875,-0.255143,0.47638917,0.056350637,-0.023283456,-0.18866731,0.22118971,0.093150295,0.10589533,-0.15583448,0.02843989,0.028931383,0.014436301,0.18588293,-0.398969,0.21185257,0.25881147,0.113027625,-0.4360934,-0.31346837,0.28521577,0.29054478,0.3791623,0.02096397,-0.13288397,0.58663803,0.31918818,-0.24868397,-0.11460153,0.17067468,0.1975288,0
image_257.png,-0.10858179,-0.014719133,-0.2968738,0.2126956,0.038011108,-0.12839578,-0.4448169,-0.08316365,0.017312152,0.23346303,0.0024557407,0.38281608,-0.15582179,0.002374824,0.54731506,-0.5769788,0.118882865,0.31219888,0.07319371,-0.30571884,-0.40022787,0.15360585,0.39466217,0.3681929,-0.0055226786,-0.20723517,0.45663705,0.36351955,-0.24146067,-0.2244128,0.17689303,0.102603,0
image_259.png,0.114468195,0.13123162,-0.06990215,0.24372312,-0.113938764,-0.05664745,-0.27104843,0.26348507,0.1960392,-0.07006131,-0.3675948,0.23821086,-0.0017142093,0.18020637,0.22165895,-0.2967552,0.26753518,0.3824511,0.33668175,-0.4300678,-0.2247376,-0.29418966,0.3239178,0.53512263,0.103713684,-0.18377313,0.60816824,0.14724827,-0.2952546,-0.28968513,0.31703877,-0.05381022,0
image_258.png,0.28900403,0.2192234,-0.42590958,0.43752384,-0.24423684,-0.061380267,-0.19409047,-0.043947145,0.1074448,-0.17843094,-0.31864232,0.19386008,0.098771445,0.057950992,0.20222794,-0.5491938,0.43774125,0.029946059,-0.029073404,-0.123735964,0.013836916,0.07869706,0.27218667,0.25467044,-0.25889844,-0.11456236,0.744195,0.11230025,0.15556777,-0.22191757,0.17202392,0.297031,0
image_262.png,0.22847533,0.24852854,-0.4639548,0.5116273,-0.19797167,-0.095009245,0.06616172,0.16446064,0.18456739,-0.21998002,-0.46058503,0.06893742,0.011966516,0.000565397,0.038668934,-0.35513672,0.40909827,0.12224373,0.2572493,-0.31111437,-0.10566541,0.07982688,0.31239897,0.3206187,0.0075228587,-0.13899033,0.84463423,0.1621648,0.045703754,-0.17498986,0.20843785,0.1634398,0
