filenames,embedding_0,embedding_1,embedding_2,embedding_3,embedding_4,embedding_5,embedding_6,embedding_7,embedding_8,embedding_9,embedding_10,embedding_11,embedding_12,embedding_13,embedding_14,embedding_15,embedding_16,embedding_17,embedding_18,embedding_19,embedding_20,embedding_21,embedding_22,embedding_23,embedding_24,embedding_25,embedding_26,embedding_27,embedding_28,embedding_29,embedding_30,embedding_31,labels
image_0.png,-0.3674421,0.13914178,-0.21390969,0.83160377,-0.013275784,0.10309249,-0.37632015,0.57277524,-0.41553897,0.2950173,-0.035129372,-0.038042806,-0.08991134,-0.04819389,0.753311,-0.46363205,-0.07684163,0.117740795,0.37774873,-0.6115512,0.00605232,0.034973823,-0.07575876,0.5270214,-0.06408166,-0.5130269,0.43547255,0.6678936,-0.6291013,-0.3318743,0.33934793,0.7807673,0
image_1.png,0.08141808,-0.11886503,-0.019992478,0.8746582,0.23655106,0.4232356,-0.12143639,0.53913045,0.41873962,0.20017998,-0.20038807,-0.2705699,0.56470805,0.4946591,-0.08532618,-0.54858124,0.38613042,0.24478726,0.30906627,-0.5789948,-0.15829805,0.27365673,-0.019626213,0.34330443,-0.103215784,-0.5537952,0.5263866,0.33278057,-0.21618608,-0.41724136,0.14810224,0.28536257,0
image_2.png,0.22743537,-0.24184412,-0.20558688,0.30434912,0.17753986,0.4487263,-0.036107432,-0.26126346,-0.2723554,0.28571916,0.21844944,-0.04893673,0.15844205,0.09771044,-0.0016335255,-0.3060491,0.15740317,0.01085583,-0.1715705,-0.007564863,0.5023207,0.29073086,-0.2467475,0.1728872,-0.5450203,-0.18714876,-0.06427438,0.042437673,-0.18109627,0.050996445,0.27384156,0.4844548,0
image_3.png,0.05016972,-0.17003231,0.36068866,0.9299806,0.3899862,0.3575652,-0.07754338,0.021010946,0.5214593,0.29033116,-0.1339571,0.1068846,0.54112536,0.06694009,0.18798357,-0.3111815,-0.15794125,0.14816874,0.26200554,-0.92369866,-0.2277707,0.3555835,0.14722022,0.5636146,0.40299508,-0.37022462,0.25203976,0.29882246,-0.6378083,0.21082185,0.10597911,-0.19526199,0
image_4.png,-1.1965503,-0.32872823,-0.23964384,1.5273141,0.6663174,-0.15933411,-0.7666913,0.5721088,-0.6006882,0.4325397,0.8377161,0.5681402,-0.7545889,0.93805736,1.4361972,-1.2554162,0.20427161,0.34548452,0.57560635,-0.80935895,-0.565331,1.2193189,1.1758631,-0.43432721,-0.0039457856,-0.44010028,0.89436233,0.7066513,-1.239366,0.5328989,0.4840125,0.78760755,0
image_5.png,-0.1389039,0.2969406,-0.32609457,0.42539808,-0.29831368,0.12661035,-0.10566484,-0.299229,-0.5427297,-0.14079951,0.64571035,0.19960271,-0.3531967,-0.056116913,0.31617573,-0.16540793,-0.07797065,-0.45757988,0.7876231,-0.48209506,0.6354486,-0.0075364457,0.34246156,-0.3401297,-0.40280324,-0.40773478,0.27296135,0.68513685,-0.031707987,0.029132163,0.2608016,0.56457293,0
image_6.png,-0.33727506,-0.034213826,0.030619236,0.3798562,-0.70833284,0.034563474,-0.86422545,1.2595484,-0.9882732,0.42144495,-0.66654295,-0.33072194,0.28085437,0.17271355,0.55344963,-0.2222427,-0.08306168,-0.014285354,-0.4658569,-0.19132468,-0.18799055,-0.06254003,-0.2574087,1.2736554,-0.27746028,0.06061496,0.5749827,0.45678073,-0.682511,-1.0776652,1.2177503,1.4467292,0
image_7.png,0.028933497,0.049907003,-0.15215695,0.1527972,-0.12252687,0.1905103,-0.015955908,-0.22276372,-0.021629363,0.043459844,0.26801726,0.043393288,-0.057230163,-0.07044565,0.14386578,-0.23517421,-0.05116304,0.03506134,0.6075982,-0.21754622,0.21144319,-0.14122821,0.16819884,-0.0738974,-0.20858751,-0.16660346,0.022134416,0.34247774,0.11496847,-0.09688304,-0.010638001,0.012118992,0
image_8.png,-0.02133617,0.097817674,0.039196335,1.1786069,0.67330843,0.061542895,-0.11247032,0.41813594,-0.09708537,0.26997575,0.40016732,0.018927168,0.4324717,0.06452248,0.3302696,-0.23822364,-0.15872401,0.29895583,0.31272036,-0.53798676,0.44902918,0.30273694,-0.0444511,0.06467987,-0.14812095,-0.63016695,0.06758913,0.41490716,-0.6162695,0.28726634,-0.36982363,0.7671487,0
image_9.png,-0.7881474,-0.45788494,0.39672235,1.8904394,-0.038264945,-0.014635784,-1.1327354,1.4410961,-0.472273,0.23677939,-0.18244177,0.21464925,0.028079526,1.2991711,0.8294292,-0.9530122,0.12966926,0.1449694,0.035152078,-1.1732476,-0.12202953,1.2283556,0.023233358,0.3637473,-0.14295514,-0.8651015,0.9283412,0.6138508,-1.042112,-0.04346225,0.66906476,1.1156151,0
image_10.png,0.10826688,-0.017504334,-0.3266336,0.9494412,0.32647067,0.15697825,0.36318022,0.02550217,0.15411311,-0.2433231,0.059013527,-0.54291314,-0.1179867,0.21120942,-0.2816352,-0.788961,0.6011934,-0.37155473,-0.06543311,-0.79651827,0.20242867,0.9082638,-0.21239783,0.2910275,-0.10974877,-0.4880089,1.0281578,0.38973388,-0.51342833,0.32852018,0.1772672,0.63544685,0
image_11.png,0.1252369,-0.15158753,-0.022898564,0.22746022,0.058235046,0.2766802,0.07222258,-0.26548362,-0.107586995,0.09294507,0.37218475,-0.18839566,0.068854675,0.052289195,-0.18905558,-0.14765476,0.061139334,-0.13953534,0.08354896,-0.23851477,0.20854324,0.2827115,0.01594048,0.05805398,-0.24396904,0.024981871,0.053124215,0.19050391,-0.27078444,0.19084848,0.108806334,0.20792168,0
image_12.png,0.2925011,0.2630776,0.026665691,0.74252075,-0.14165181,0.12764189,-0.1228846,-0.21796541,0.063523516,-0.5181777,-0.2276251,-0.57948816,-0.255362,-0.06041941,-0.029992374,-0.8639657,0.6739328,-0.43762442,0.0036367031,-0.8576284,0.71383494,0.42392725,-0.099198334,0.8263923,-0.47609517,-0.4103311,1.2021714,0.6770064,-0.7006496,0.73868465,0.6940327,0.6350084,0
image_13.png,-0.16017967,0.07434627,-0.01904215,1.1596375,0.31649116,0.26264995,-0.03386715,0.41505384,0.018907553,0.35893688,0.44699708,-0.098394275,0.15689656,-0.03605586,0.23556045,-0.4554803,0.027595064,0.49713776,0.7897248,-0.668553,-0.23750599,0.47831765,0.6639956,-0.077119164,-0.08790142,0.07973934,0.16231988,0.44783098,-0.5305843,0.3158524,-0.109292254,0.36568755,0
image_14.png,-0.6775193,-0.22001308,-0.103317305,1.4053682,0.515673,0.27909482,-0.48953715,0.09412934,-0.31510597,-0.04414208,-0.2900048,-0.62896204,-0.08547831,0.39631224,1.1656443,-1.9583623,0.49217346,-0.23259667,-0.23538491,-0.79511034,1.2007551,1.3043118,-0.3929151,0.74140453,-0.7123883,-1.222021,1.0787443,0.94120634,-0.7971756,1.1111937,1.1030563,1.1991534,0
image_15.png,-0.21542083,0.0962816,0.24026038,1.3328362,-0.8368974,-0.121902004,-0.8130511,0.60411215,-0.35611647,-0.5093436,-0.64694136,-0.28483602,0.0063952385,0.38014483,0.16484979,-0.53270155,0.20331037,-0.8083198,-0.05026084,-1.5143483,0.75291,0.7424863,-0.21816318,1.0275846,-0.27377027,-1.0811714,1.4780588,0.9941359,-0.84322494,0.50227296,1.3343486,1.0355946,0
image_16.png,-0.3697013,-0.39705494,-0.21817698,1.4997816,0.40692073,0.3110598,-0.7334712,0.5106682,-0.0672981,0.44150493,-0.1557193,-0.20016183,0.32215616,0.4698846,0.7192424,-1.423824,0.38968226,0.4305173,-0.16796027,-0.72158384,0.036736287,1.3322735,0.042680796,0.43662047,-0.6259303,-0.5777659,0.7115255,0.60331184,-0.48694313,0.34287697,0.4065355,0.82663286,0
image_17.png,-0.16797608,-0.11583025,0.08272759,0.40696502,0.38574672,0.34870735,0.0015361854,0.198247,0.124456346,0.37225565,0.1870297,-0.23037918,0.32066098,0.14756812,0.23497409,-0.4819215,0.035010573,0.34682882,0.2675977,-0.38708705,-0.3450882,0.29750466,0.30665442,0.18540885,0.046408206,0.09393992,0.16034877,0.31123543,-0.33669645,-0.12116665,0.11012744,0.07109437,0
image_18.png,-0.20563315,-0.07650435,-0.47726622,1.0586469,-0.7081189,0.27854058,-0.804403,0.6244746,-0.65490216,0.19128162,-1.0313691,-0.29308507,0.26651627,0.08609565,0.64467025,-0.9864498,0.29896837,-0.30064002,-0.6634154,-0.4769179,0.29655284,0.8551012,-0.36250818,1.3197469,-0.6456533,-0.4297473,1.0884099,0.64556694,-0.2662876,-0.41868436,1.4811509,1.4164808,0
image_19.png,-0.015474359,-0.3529522,-0.06400178,0.85630363,0.71987283,0.521994,0.04841,0.03472508,-0.10094972,0.40142205,0.59404576,-0.5193369,0.24868563,0.3040788,-0.12417361,-0.67835885,0.22367817,0.025184076,-0.17711979,-0.64096445,0.2827419,0.9564811,-0.13364497,0.3125079,-0.32772183,-0.3827366,0.34065053,0.43620706,-0.8691929,0.4375417,0.29919714,0.7835983,0
image_20.png,-0.13206291,-0.2745606,-0.8049624,0.059891272,-0.24500777,0.82745486,-0.3006116,0.16033208,-0.31776774,0.9849641,-0.5065599,0.2231007,0.047654446,-0.39974895,0.4620797,-0.6432315,-0.4235815,0.4037322,-0.10763385,-0.37333298,-0.47773495,0.26095292,-0.32843807,1.4328078,0.0072489516,-0.3490247,0.012426724,0.60394734,-0.0767764,-1.5531172,1.1820288,0.7987695,0
image_21.png,-0.012134204,-0.070558645,-0.65052193,-0.01589626,0.13933317,0.5433829,0.3735261,-0.00867817,-0.298736,0.28753355,-0.34391403,-0.43021488,-0.22354919,-0.14533448,0.21311364,-0.7403571,0.41540864,0.49655843,-0.022293353,0.02900879,0.25984067,0.10905962,-0.5659543,0.68128383,-0.32510942,0.017785821,0.051791705,0.03506984,-0.17439626,-0.28626496,0.5325094,0.3231043,0
image_22.png,-0.31680462,-0.04402802,0.37588346,1.2565687,-0.28425133,-0.05710025,-0.84073734,0.70103043,-0.424609,0.31637627,0.075215384,0.24722987,0.2914646,0.5109945,0.5259829,-0.40767112,0.010601784,-0.030407395,0.0227902,-1.0375452,-0.26075643,0.7320429,0.04524386,0.7340576,0.076046616,-0.3616406,0.44245192,0.68421644,-0.9822395,-0.3884804,0.252287,0.8212552,0
image_23.png,-0.17203297,0.051019672,-0.56619847,0.34676063,0.0575965,0.015946487,-0.189004,-0.247921,0.03502656,0.010478082,-0.2630806,0.21095568,0.0045565777,0.23363061,0.62136066,-1.1158687,0.38091058,0.013880964,-0.017868549,-0.32384637,0.1346746,0.5414979,0.26146615,0.49504218,-0.09190729,-0.59662706,0.87092304,0.5099782,0.121438645,-0.29175928,0.6548089,0.37731785,0
image_24.png,-0.22151151,-0.15761264,0.008116249,0.75950736,-0.059983492,0.19201243,-0.54870737,0.5621557,-0.23930942,0.23746137,-0.10427478,0.013361584,0.1753905,0.41790956,0.31949815,-0.44508505,0.037977166,0.100161694,0.06884965,-0.4768355,0.059038866,0.44169316,-0.119856894,0.35691354,-0.27233785,-0.45899558,0.31542295,0.43163615,-0.26566184,-0.3584655,0.34197545,0.64878017,0
image_25.png,-0.16034208,-0.15007806,0.26007614,0.5228137,0.30904528,0.24697816,-0.14967258,0.15563406,-0.21547177,0.023873245,0.4245835,-0.56491375,0.33655185,0.49919796,0.089622505,-0.5739214,0.17871101,-0.123212144,0.24022567,-0.5872658,0.71520275,0.32425666,-0.20348358,0.12730454,-0.4236275,-0.59150475,0.36654258,0.5579764,-0.47972852,0.25887552,0.25114003,0.54193574,0
image_26.png,-0.1567938,-0.30190033,0.21091096,1.175484,0.49502,0.02150802,-0.57710266,0.4263197,-0.28861254,-0.17408842,0.005915628,-0.8655104,0.11671061,0.6672864,0.34485567,-1.5004674,0.5943511,0.033496693,-0.26424906,-1.012606,1.2127806,1.0284135,-0.50077945,0.8145289,-0.927522,-1.1135826,1.2661309,0.87998503,-1.0960759,0.98937714,0.7369152,1.2999791,0
image_27.png,-0.39215603,-0.22273749,-0.31957877,-0.036668397,-0.76450604,0.35141373,-0.5468147,1.197284,-1.2156452,0.5562521,-0.7998668,-0.64034706,-0.034990415,-0.2715171,0.49510527,-0.1852358,-0.39236814,0.34342086,0.041525077,0.16151194,0.14347418,-0.4248787,-0.40901634,1.2624569,-0.59091395,0.28595227,0.15193161,0.33446386,-0.29861248,-0.9945514,1.515013,1.3433053,0
image_28.png,-0.009006872,-0.0077797147,0.13437952,1.2043942,0.29829237,1.1235726,0.05350752,-0.2774855,0.32371402,0.5727221,0.44224,0.6825277,0.46571976,-0.040248927,0.71287304,-0.42196462,-0.6014955,0.20057014,1.0499378,-0.9333447,-0.06650957,-0.014453718,0.3799723,0.111089215,0.27050173,-0.31070074,-0.4166119,0.36893556,-0.34503138,-0.33575183,0.044492606,-0.11533519,0
image_29.png,-0.16549668,0.028485432,-0.33701044,0.184293,0.2358172,0.2616733,-0.130992,-0.22801171,-0.26555708,0.32474136,0.16243917,-0.38101894,0.19718985,-0.1187588,0.4265865,-0.859389,0.23999375,-0.0066055595,-0.29399252,-0.13264044,0.38304225,0.50219744,-0.2420341,0.43400759,-0.42518476,-0.35014233,0.16105323,0.56501216,-0.13920857,-0.041213784,0.35369176,0.6461634,0
image_30.png,-0.046016026,0.029757868,-0.2701422,0.23128168,0.271458,0.09564638,-0.32839075,-0.20849356,-0.23635751,0.37037712,0.2635528,-0.22059733,0.19644661,-0.07874315,0.37581605,-0.8240106,0.31347474,-0.03526206,-0.5345478,-0.11148946,0.23140922,0.5218968,-0.28908253,0.43078467,-0.4657143,-0.4228243,0.17921177,0.55928284,-0.26121655,-0.17759907,0.08595674,0.80958414,0
image_31.png,0.029072272,-0.036484834,-0.47785768,0.064247325,0.04182274,0.30031356,-0.048630696,-0.03341489,-0.063226774,0.28361753,0.013314284,-0.039011355,-0.07983995,0.021581845,0.120036244,-0.651787,0.23406056,0.26753098,0.030369347,-0.21136424,-0.006826794,0.15610337,-0.12255771,0.49440178,-0.18778688,-0.32540095,0.2376048,0.3479167,-0.08811174,-0.51009965,0.36698553,0.41584107,0
image_32.png,-0.018504182,-0.09903924,-0.3607396,0.34281132,0.17218368,0.47322232,0.054671817,0.039445657,0.08219972,0.16441935,-0.2925962,-0.33008707,0.13783404,0.11253905,0.1607642,-0.7731247,0.27303088,0.19971009,0.084853835,-0.4722727,0.32671165,0.27832183,-0.3852384,0.7196158,-0.1739951,-0.6124416,0.43931124,0.3901171,-0.17773424,-0.20095298,0.61843985,0.3097839,0
image_33.png,-0.6749743,-0.14243855,-0.46579337,0.9704696,-0.47059914,-0.24338095,-0.30464143,0.10829041,-0.88140213,-0.19679274,-0.2428183,0.08769424,-0.6632823,0.08526271,0.8330777,-0.8380949,-0.30343604,-0.7420899,0.11982353,-1.1571248,0.4345523,1.3520955,-0.3233048,0.5732481,-0.069779545,-0.92737484,1.1229795,1.0727049,-0.31259272,-0.10064709,0.8628601,1.0384383,0
image_34.png,0.05260314,-0.06009889,-0.13869797,0.025452608,-0.10466014,0.103707075,-0.0020333945,-0.26252195,0.031097494,0.089590415,0.14729573,-0.01339094,-0.057993732,-0.16941193,0.002791526,-0.1531593,-0.06409599,0.00490355,0.2879652,-0.0707453,0.057905056,0.041878268,0.19283901,-0.04257304,-0.14562868,-0.0022478746,0.02171594,0.21875717,0.15190268,0.07843783,0.041391913,-0.055815537,0
image_35.png,0.0071588405,0.3071749,-0.5779132,1.6312916,-0.09755946,-0.12727933,-0.20860495,0.101452745,0.19799829,-0.5979185,-1.1759558,-0.5468354,0.47881588,0.21193999,0.50788796,-1.6741873,0.91766834,-0.5355378,-0.42543766,-1.0048888,1.1163788,1.3681078,-0.20203555,1.1222943,-0.49996042,-1.3378835,2.0662467,0.90515995,-0.16530702,0.723458,1.2287437,1.1544077,0
image_36.png,-0.118266545,0.04989928,0.07494584,0.21604086,0.013207279,0.28086743,0.10522318,-0.19001098,-0.28310013,-0.16901574,0.269256,-0.8018553,0.055499118,-0.08960808,-0.003966014,-0.407186,0.1777245,-0.4746498,-0.18549678,-0.56940156,0.2771817,0.5119525,-0.21084562,0.33925328,-0.26229605,0.17895962,0.43692258,0.51157963,-0.52421063,0.41070902,0.2637724,0.36807668,0
image_37.png,-0.19126484,-0.04844628,0.23147695,1.3277645,-0.07886252,-0.0430393,-0.77047265,0.66605234,0.07406454,0.02502095,-0.75697,0.17560785,0.15795387,0.48003322,0.8260726,-1.0034537,0.34172687,0.2650587,0.04815622,-0.93296105,0.15104024,0.35793495,-0.16847096,1.0347769,-0.05152906,-0.86777437,0.91927016,0.49044073,-0.86642396,0.07715666,0.599799,0.5481534,0
image_38.png,0.0732478,-0.3100192,-0.010736851,0.7105868,0.32552,0.3389585,-0.36604804,-0.12739629,0.03411352,0.2168599,0.09252114,-0.2935657,0.40676403,0.22528802,0.12520257,-0.8290661,0.16883546,0.026265167,-0.07756722,-0.5973762,0.384801,0.88165855,0.0052598296,0.5338314,-0.5254821,-0.4485159,0.5282097,0.60099447,-0.25590107,0.22698697,0.40609568,0.5386164,0
image_39.png,-0.3255523,-0.36392102,0.5354601,0.73950726,-0.058566242,0.40811726,-0.7208989,0.17254539,-0.09481299,0.2694714,-0.0019565418,0.10214031,0.3442851,0.53761303,0.7608602,-0.75658804,-0.23282477,0.19026802,0.58165145,-0.8703021,0.46582273,0.046973065,-0.2068768,0.5587609,-0.25017983,-0.766676,0.09451087,0.57938707,-0.4651788,-0.085231915,0.45158026,0.08123665,0
image_40.png,-0.16542257,-0.19342147,0.36282992,0.22404203,-0.0420359,0.5939596,-0.17638852,-0.063850395,-0.007269853,0.3209858,0.20508786,0.37748787,0.14951423,0.18523434,0.55163044,-0.15164275,-0.47433367,0.23791578,0.75531083,-0.32426026,-0.009163211,-0.46701762,0.1806529,0.09747226,0.08940537,0.0028207365,-0.42229578,0.09126437,-0.19573382,-0.36144984,0.17647988,-0.29375494,0
image_41.png,-0.35949045,0.05118656,0.17799047,1.0524262,-0.3052454,-0.030012896,-0.5557912,0.57730395,-0.33439866,-0.049346164,-0.17464633,-0.3284817,0.22399335,0.27588052,0.44753033,-0.6832175,0.14942223,-0.0018286712,0.21863955,-0.9576666,0.43204784,0.54571503,-0.12431727,0.5697959,-0.22966707,-0.5155028,0.61268413,0.6521045,-0.55833095,0.34264156,0.49731097,0.57539856,0
image_42.png,-0.3376027,-0.3558736,0.64568543,0.58114177,-0.16356604,0.53156036,-0.6258074,0.29411843,0.000380165,0.3289979,-0.07022883,0.27662352,0.26524743,0.4866831,0.6529075,-0.3718999,-0.37481222,0.315308,0.70291543,-0.8616265,0.08878596,-0.31998655,-0.16123323,0.54023457,0.09280137,-0.48106518,-0.21763861,0.30802608,-0.59271365,-0.23461702,0.3733109,-0.27961534,0
image_43.png,-0.3577063,-0.16415586,-0.28895548,0.43575308,0.33385527,0.39846945,-0.20495386,0.14541553,0.07872475,0.71516955,0.25129974,0.37453306,-0.13709493,0.07006036,0.62507963,-0.5505391,-0.07238276,0.6449507,0.5604805,-0.6025012,-0.87080646,0.21374778,0.73407,0.387482,0.30321574,-0.105124,0.25950444,0.48304486,-0.7023903,-0.38823363,0.5286198,0.0108842,0
image_44.png,-0.08573594,0.12448208,-0.57588303,0.62443036,-0.28889462,0.4037622,0.10512909,-0.33781567,-0.41909724,-0.15423703,-0.17033012,-0.59669316,-0.035488322,-0.25174865,0.22690383,-0.77156794,0.5569415,-0.4632974,-0.53478724,-0.2064972,0.31183243,0.9179891,-0.08383964,0.25480747,-0.5197241,0.3723172,0.57809865,0.177839,-0.1438675,0.65744156,0.59255904,0.5006684,0
image_45.png,-0.115890265,-0.010489986,0.12746212,-0.07942321,-0.21963458,0.095092714,-0.2621631,0.109963395,-0.16659784,0.03896595,0.10401817,0.0687208,-0.1659948,0.08536521,0.27900952,-0.113861844,-0.11167111,0.19743383,0.6477707,-0.25322175,0.16757666,-0.61933994,0.08200365,0.18446665,-0.10979715,-0.20373295,0.008305833,0.24743219,-0.21688627,-0.22866386,0.21374485,-0.030699378,0
image_46.png,-0.4749927,-0.40610084,0.44797757,1.9073027,-0.62841,-0.17229435,-1.3815677,0.50656646,-0.495008,-0.032293692,-0.497974,0.5159717,0.12700853,0.92073333,0.9389191,-0.91099507,0.023905255,-0.7145449,-0.7170743,-1.6279039,-0.04863279,1.7711282,-0.36733556,1.0610135,-0.031119497,-0.92110074,1.2421606,0.83419913,-1.0914886,0.031183027,0.76782596,0.9190584,0
image_47.png,0.019022528,0.029596172,-0.2640663,0.04220795,-0.2054588,0.18336518,0.07306706,-0.31252205,-0.09277884,0.04695707,0.20157702,-0.0016702608,-0.17580497,-0.25042108,0.05259832,-0.14291967,-0.10131603,-0.061923668,0.44524866,-0.19586062,0.123580724,0.0015045053,0.14441758,-0.041946765,-0.16332524,-0.025079455,0.020742796,0.32559913,0.1548563,-0.010190599,0.07097446,-0.0073766992,0
image_48.png,-0.3651017,-0.17463124,-0.25822836,2.0897129,0.48315254,0.41081554,-0.52548295,0.56486475,0.24164516,0.60577035,-0.38815844,0.3613634,0.49508092,0.30357543,1.0025282,-1.216293,0.14597924,0.18463023,-0.28383023,-0.9436634,-0.56354624,1.3632802,0.061037093,0.5865382,0.19468696,-0.68314767,0.67998165,0.46062884,-0.6037515,-0.10193405,0.15576336,0.72041047,0
image_49.png,0.20293912,0.098408386,0.3952874,1.6132623,0.8855714,0.70889753,0.32059306,0.29739872,0.60483164,0.4886604,0.04999908,0.46304962,0.5270387,-0.31147328,0.46781468,-0.13026753,-0.5718924,0.67034537,0.83094877,-1.2937455,-0.11063544,-0.08629514,0.03536255,0.61006314,0.7319033,-0.4821931,-0.22910106,0.123598106,-1.1704218,0.29258436,-0.36452737,-0.07782663,0
image_50.png,0.34575704,0.33671132,-0.03239847,0.59656614,0.0038956364,-0.02547144,0.15966602,-0.3623787,0.12178561,-0.2955617,0.08454606,-0.07206785,-0.032122374,-0.53024495,-0.06469172,0.010025388,-0.12803459,-0.29442105,0.52050585,-0.83595026,0.6267103,-0.056336824,-0.19597754,0.35578874,-0.030330552,-0.5429133,0.3621288,0.54355913,-0.3045619,0.45008838,-0.2225338,0.14884356,0
image_51.png,0.39626157,0.2809191,-0.18100908,0.9590254,0.32985356,-0.006753587,-0.24318798,0.13315932,0.31204522,0.024049046,-0.07122081,-0.20382836,0.5543376,-0.20084918,0.03152453,-0.47916892,0.2709345,0.019212909,-0.09804507,-0.67196965,0.16631941,0.38450605,-0.24922796,0.5326703,-0.28161114,-0.6731869,0.62139314,0.6001544,-0.21852885,-0.13548145,-0.4671148,0.6477136,0
image_52.png,-0.62664807,-0.29945728,0.3062206,0.9161536,0.25205997,0.27749825,-0.61049783,1.1383761,-0.073941514,0.4898136,-0.072327964,0.46643308,-0.13027565,0.9916831,0.7703739,-0.55002165,0.19995311,0.8501078,0.5391626,-0.44150782,-0.7794582,0.018150855,0.5580515,0.20348316,0.25230417,-0.08197417,0.20437682,-0.009028588,-1.011592,-0.40251067,0.49264026,0.2132612,0
image_53.png,0.0010968407,-0.14408042,0.20115303,0.7165963,0.10469343,0.2551192,-0.14908805,0.18470864,0.022336438,0.06567495,0.22763148,-0.10964964,0.25538355,0.34818062,0.00046329052,-0.26670712,0.05621915,0.03326798,0.46011496,-0.53517354,0.31008705,0.14755802,-0.045519352,0.08296625,-0.20170695,-0.4226415,0.14451213,0.284776,-0.36703652,0.09773573,0.0060390574,0.2494882,0
image_54.png,-0.29043913,-0.33480465,-0.08564591,0.39102772,-0.40509847,0.22223075,-0.8675339,0.7083563,-0.8032346,0.59092987,-0.459239,-0.19376464,0.11030353,-0.03279258,0.5583354,-0.5281591,-0.3075976,0.37728804,-0.19631548,-0.20995949,0.2502314,0.2746067,-0.45769382,1.0875499,-0.62903583,-0.21424733,0.056817215,0.51188445,-0.30235636,-0.5630131,0.9563959,1.0872514,0
image_55.png,0.06602166,-0.073451385,0.19431224,0.24707597,0.3675404,0.22748905,0.057300393,-0.20377414,-0.083495274,0.08257445,0.42636544,-0.3186855,0.19875033,0.08858181,0.022371106,-0.24591047,0.033423852,-0.08440081,0.096664056,-0.32160097,0.35412794,0.27852035,0.04821013,0.10861085,-0.23218898,-0.07124333,0.14976001,0.33665088,-0.43418103,0.3247086,0.09415209,0.2592689,0
image_56.png,-0.4776567,-0.4612561,0.39110214,1.1969047,0.49194548,0.8410359,-0.6074608,0.22954947,0.2655738,0.93296546,0.2999202,0.64143324,0.55520695,0.4627883,0.8836657,-0.6761196,-0.48173302,0.5603197,0.48060453,-1.2769495,-0.8729243,0.615376,0.4103654,0.5918438,0.4897398,-0.32306343,-0.12659535,0.49046385,-0.91043913,-0.49752948,0.26139992,-0.17250921,0
image_57.png,-0.14724608,-0.19186816,0.25966015,0.5246565,0.16897514,0.4243097,-0.157279,0.17237945,0.1625955,0.24491377,0.13181928,0.23148057,-0.0067028366,0.3021636,0.2819092,-0.24121849,-0.0741727,0.37522566,0.5650007,-0.37351453,-0.27685687,0.0811397,0.4681838,-0.07314948,0.043173388,0.09831109,-0.037630424,0.074781686,-0.3699256,0.0956009,0.17217785,-0.19408354,0
image_58.png,-0.47564286,-0.14552304,-0.32695034,0.8056536,0.4748767,0.02599401,-0.3943252,0.739188,-0.3833917,0.42883626,-0.594956,-0.33112255,0.06944644,0.03965414,0.9458632,-1.0758398,0.059511367,0.38331857,-0.54721713,-0.7154542,0.012660182,0.74800247,-0.8936532,1.2161752,0.010861418,-0.8445959,0.65140593,0.6527699,-0.735194,-0.4140321,0.31977046,0.965956,0
image_59.png,-0.062560745,0.24305831,-0.6620571,-0.28721195,-0.26149252,0.023660947,-0.20140144,-0.009330871,-0.18602696,0.3621334,-0.2817044,-0.22871394,-0.10454829,-0.49434873,0.3657899,-0.64371175,0.28716457,0.35512608,-0.14994168,0.23100866,-0.105548985,-0.19077031,0.070601985,0.65815383,-0.27181605,-0.041647132,0.24124983,0.40262088,0.06740826,-0.36104515,0.6452289,0.4316612,0
image_60.png,0.5192347,0.48520815,0.04778896,0.688178,-0.20506455,-0.23737285,-0.038518887,-0.08289779,0.26085514,-0.22679478,-0.47448164,0.33238,-0.033326834,-0.6917555,-0.13731395,0.4948149,-0.043354664,0.044625957,0.55716336,-1.1846814,-0.0332784,-0.1478946,0.2789645,0.9533567,0.4664907,-0.275365,0.6334587,0.4839326,-0.7207697,0.34807163,0.05439198,-0.19361444,0
image_61.png,-0.41575572,-0.24342193,-0.080984436,0.062250856,0.57006913,0.3908314,-0.15610136,-0.033955656,-0.045068827,0.55269367,0.27281827,0.19408834,0.31710556,0.37643135,0.64173585,-0.48667496,-0.15000188,0.222065,0.018549092,-0.15234342,-0.21782884,0.19582438,0.088445626,0.17126733,0.16641326,-0.3591083,-0.08023977,0.27574134,-0.20115209,-0.5606793,0.25779313,0.089925945,0
image_62.png,-1.4003035,-1.1396933,0.3687427,2.7094715,0.45080644,0.08360289,-1.1022545,0.35028794,-0.3304426,0.87557447,-0.0077849375,2.319361,-0.3428225,1.5269855,2.2046492,-0.6509358,-0.9905668,-0.43150547,0.11403322,-1.710294,-1.4539138,2.220469,0.8042104,0.059478648,1.3794016,-1.0758308,0.8171824,0.47567728,-1.5230318,-0.2388834,0.69776326,0.08489436,0
image_63.png,0.35729793,-0.2435472,0.24095134,1.5609559,1.9455292,-0.21323435,0.15887864,0.42941323,0.30833712,0.16513498,0.06133408,-0.5412343,0.58267134,0.009555177,0.29114482,-0.6502647,-0.12015576,0.43896717,-0.5202997,-0.9060426,1.4369605,0.54362977,-1.0733514,0.9439486,-0.17021985,-1.9324535,0.8165561,0.43652436,-1.804079,1.526084,-0.22538674,1.2887766,0
image_64.png,0.00042303072,0.13681886,0.40414685,0.96582013,-0.22814254,-0.0414777,-0.77152485,1.1355414,-0.48275143,-0.559243,-0.4611094,-0.97336406,-0.40547544,0.5230773,0.0319168,-0.9337743,0.8294254,0.40078536,0.42625856,-1.4795731,1.2361989,0.029060123,-0.62917364,1.195837,-0.97534895,-0.9528537,1.3612052,0.8747904,-1.3940147,0.7829564,0.9747902,1.1066154,0
image_65.png,-1.1083852,-0.8511077,-0.08270777,2.2208617,1.2993517,0.8553721,-0.3552152,0.4205171,0.18745328,1.1680423,0.19556469,0.92298645,0.06851894,0.80212766,1.7147741,-1.4508786,-0.55518687,0.36254287,0.17092656,-1.2302223,-1.0598675,1.8979424,0.43353295,0.06428436,0.7197931,-0.90952414,0.35916153,0.5238918,-1.0088799,-0.115985796,0.43080714,0.36275932,0
image_66.png,0.29398918,-0.06601569,0.25172865,1.3747529,0.6252493,0.003340127,-0.24662314,0.33423892,0.3369011,0.2937642,-0.027356857,0.1387769,0.4159848,-0.097213976,0.11147995,-0.23966606,-0.07281846,0.4094059,0.032667927,-0.8989618,0.03284967,0.48988652,0.052760627,0.6605779,0.10067578,-0.5233916,0.39796868,0.28765345,-1.0750307,0.63336825,-0.15171702,0.46678093,0
image_67.png,-0.19852532,-0.1483495,0.26240677,1.7754724,0.56749994,-0.39177784,-1.0654362,0.9513113,0.2775818,-0.14041792,-0.8977841,-0.5927245,0.12004242,0.56877565,0.65224135,-1.7276192,0.9033358,0.2044463,-0.974562,-1.5439105,0.001124211,1.7278193,-0.60163856,1.4523894,-0.32885835,-1.1617569,1.8909669,0.97053736,-1.3180127,0.67017853,0.35668468,1.0757045,0
image_68.png,-0.30242783,-0.13733874,-0.895575,1.0214574,0.5501642,0.35096797,0.14794414,0.5192077,-0.13236773,0.124627665,-0.91057986,-0.61368954,0.4046136,0.46009615,0.7220204,-1.5670563,0.5748014,0.26397437,-0.10059631,-0.5764624,1.1606781,0.71736634,-0.62831545,1.1270097,-0.38346198,-1.6802467,1.3858393,0.6300393,-0.26431084,0.082062684,1.5590123,1.1323918,0
image_69.png,0.18913947,0.62428856,-1.5670208,2.0859327,0.29224637,0.5321767,1.3917853,0.4304349,0.43948737,-0.43870023,-1.1618912,-0.04550264,1.3322182,0.30937833,0.2855996,-0.66496855,0.6258869,-0.9990868,-0.565955,0.19369936,0.6150754,0.757106,0.110648595,-0.057527553,0.53680843,-0.80416614,1.5682452,-0.6319097,0.5959517,-0.15357982,0.9963032,1.2122889,0
image_70.png,-0.19385774,-0.31368542,0.25095952,1.3545384,0.5202225,0.28976926,-0.47685462,0.64472085,0.050566424,0.371714,0.13284886,-0.37843543,0.60802937,0.5855127,0.27184016,-0.8591657,0.16879237,0.24448349,0.18648182,-0.96937835,0.3999209,0.5828134,-0.24296506,0.61585164,-0.24102005,-1.0275168,0.5446173,0.642533,-0.92161524,0.22085717,0.29975128,0.8112338,0
image_71.png,-0.19906817,-0.16159238,-0.06672643,0.34329608,-0.20771442,0.40616027,-0.43159297,-0.08513064,-0.08995216,0.68865424,0.24276076,0.54501206,-0.023706501,-0.2186509,0.54911095,-0.1711582,-0.4875732,0.35863063,0.6627493,-0.6559328,-0.54559076,-0.08208011,0.5124707,0.56332505,0.22515528,-0.14039037,-0.14097074,0.55569303,-0.5356132,-0.45923203,0.48979333,-0.026271945,0
image_72.png,-0.21305807,-0.50285155,-0.05850323,1.7074738,0.8317105,0.40475848,-0.7212392,1.087889,-0.09986943,0.6978224,0.31020314,-0.32651716,0.5737462,0.82939,0.2525982,-1.100393,0.34240812,0.7952581,0.050140034,-0.8831814,0.20952618,0.9960181,-0.10960538,0.5014929,-0.6375107,-1.0193402,0.580233,0.62447953,-1.0632037,0.16088153,0.28921974,1.3021247,0
image_73.png,-0.33108363,-0.3807276,0.19806948,1.7341316,0.57661045,1.2421463,-0.30804518,0.29831496,0.52139693,0.98976386,0.26255506,0.34762532,1.038337,0.46914285,0.64904225,-0.8357032,-0.4262851,0.3539991,0.7115402,-1.2303631,-0.41507903,0.7993408,0.37977505,0.31565464,0.27904943,-0.74207205,-0.08791094,0.62548,-0.3949403,-0.45369968,0.4139963,0.114151485,0
image_74.png,0.13820519,0.31324607,0.80773956,1.5348167,0.855319,-0.014698009,-0.15683706,0.52707535,0.5965087,0.23526864,0.06724455,-0.24897864,0.6205444,-0.16034776,0.36339206,-0.3684932,0.13813569,0.41834515,0.22811042,-1.1851401,-0.19118384,0.18615563,0.09132132,0.7522215,0.43732545,-0.34811798,0.38386026,0.4504487,-1.559502,0.76995647,-0.5054808,0.23270777,0
image_75.png,-0.036050078,-0.28476518,0.24415138,1.1450355,0.60189795,0.20797321,-0.21046087,0.53065234,-0.03685849,0.23790564,0.25690472,-0.16984068,0.45057836,0.6387094,-0.007056221,-0.33757675,0.12550919,0.03596484,-0.11253238,-0.6692229,0.36031878,0.6300907,-0.17404799,0.25509152,-0.13743377,-0.746255,0.43699086,0.28058794,-0.95857024,0.33979312,0.23551574,0.80563354,0
image_76.png,-0.0052801543,0.31711987,-0.8052299,0.09668316,-0.3052045,-0.06974323,-0.75856906,-0.20237383,-0.0667067,0.50626534,-0.06506957,0.4686311,0.07866532,-0.08739237,0.91214925,-1.1632633,0.48434287,0.30409622,-0.12993382,-0.17822406,-0.48679718,-0.13150957,0.5788395,1.0194476,-0.20716718,-0.55398095,0.89975446,0.83075035,-0.31602365,-1.0234871,0.8485882,0.73741925,0
image_77.png,-0.11762767,-0.08452587,0.028529832,0.46894547,0.69428116,0.31134853,0.06508889,-0.16089177,-0.40733364,0.13148,0.83514214,-0.6709986,0.37367922,0.2832629,0.2017068,-0.5925366,0.048530452,-0.2633513,0.13031167,-0.44579482,1.0955846,0.3733915,-0.20456694,0.05617983,-0.5396251,-0.75321656,0.34477878,0.7282722,-0.6164734,0.49116284,0.2743841,0.8994623,0
image_78.png,-0.09451868,-0.11963294,0.03309634,0.29960483,-0.087206446,0.15013333,-0.03812247,-0.007943179,-0.2832567,-0.12506498,0.101060815,-0.46618047,-0.12763417,0.1581782,0.026444994,-0.46563205,0.16458207,-0.3509895,0.006823387,-0.3838171,0.27809495,0.49224752,-0.0606363,0.24992812,-0.3113105,-0.039620526,0.5402101,0.43168628,-0.31833088,0.16080858,0.4154766,0.49820432,0
image_79.png,-0.12628934,-0.16634852,-0.57148737,1.0702423,0.22349215,0.39436975,-0.23612987,-0.004575284,-0.31950793,0.02062703,-0.42988974,-0.6686085,0.25186694,0.2505933,0.5612589,-1.4653919,0.8474991,-0.18304844,-0.8245736,-0.16478676,0.8637588,1.1174345,-0.3658986,0.546268,-0.94367844,-0.50897944,0.97432184,0.27806145,-0.4208504,0.84133345,0.98524886,1.0941705,0
image_80.png,0.09920097,0.06710976,-0.3207452,0.11612739,-0.09769968,-0.057420395,-0.40251252,0.3605996,-0.028494041,0.45043984,-0.0213705,-0.22505155,-0.08451455,-0.19057703,0.047006544,-0.44491398,0.4068889,0.6620632,0.33088943,-0.7034584,-0.53587496,-0.15594395,0.049293287,0.9817512,-0.11948575,-0.33625314,0.5596967,0.72933364,-0.7450621,-0.594137,0.22257249,0.32647118,0
image_81.png,0.0027725105,0.16149844,-0.8971411,0.7428144,0.050506555,0.17446382,-0.07997165,-0.5545432,-0.063750185,0.086304344,-0.28406987,-0.23172046,0.048768952,-0.43716645,0.47019917,-1.1728088,0.5789582,-0.2339419,-0.5473363,-0.2777767,0.3877576,1.0915986,-0.16350609,0.49917072,-0.51935184,-0.4802393,0.6852275,0.5402712,0.084180646,0.41349083,0.4118517,0.65836674,0
image_82.png,0.058839224,-0.04420368,0.22414081,0.7909004,0.28514493,0.27595285,-0.28832862,0.1915104,0.41290402,0.4058651,-0.12747146,-0.12812856,0.61236537,-0.008195504,0.07769671,-0.33778277,0.06901387,0.2721345,0.21333747,-1.1553185,-0.38351077,0.4035359,0.16624829,0.88657683,0.26774067,-0.4582733,0.4946848,0.65511996,-0.771848,-0.052424468,0.2654804,-0.010722728,0
image_83.png,-0.23675166,-0.62079865,-0.426793,1.797592,0.64818287,0.67460304,-0.89503527,0.080286555,0.40417528,0.61281997,-0.5488858,-0.1423386,0.62276876,0.44670418,0.9002258,-2.2365947,0.36753488,0.53407484,-0.28361022,-1.4317042,0.20911813,1.9980636,-0.15633044,1.2746565,-0.661164,-1.3574884,1.2293408,1.1551547,-0.3845974,0.23040923,0.94621754,0.7825603,0
image_84.png,-0.31048366,-0.24927782,-0.39600945,1.787319,0.50110954,0.052941527,-0.984067,0.39264545,-0.1258512,0.023884721,-0.24741742,-0.48234463,0.2689161,0.7140615,0.8147875,-2.227108,0.7857138,0.10984846,-0.24158072,-1.2572924,0.93097216,1.7696459,-0.15974309,0.94584423,-1.0779837,-1.5927385,1.7483077,1.3953464,-0.5924209,0.5228528,0.87961173,1.6075618,0
image_85.png,-0.2484621,-0.20175143,0.27333662,1.4401911,0.4572433,0.47507748,-0.32777283,0.3750604,0.4023059,0.537497,-0.21384151,0.5525227,0.37214872,0.24502331,0.76436156,-0.5983279,-0.30228755,0.41799322,0.44077563,-1.3702873,-0.50447357,0.4316041,0.19917554,0.8618995,0.6624147,-0.724857,0.3937585,0.4363228,-1.1035012,-0.09519705,0.3636284,0.010890052,0
image_86.png,-0.42569762,-0.085294776,0.32473096,2.036828,0.5295521,0.57403314,-0.2409693,0.89027375,0.21224368,0.32044137,0.300757,0.3915095,0.105846606,0.610399,0.8066993,-0.8094498,-0.10916114,0.6561283,1.3175163,-1.0995686,-0.00069296337,0.19397463,0.43679237,-0.23304199,0.101990715,-0.6220719,0.11059464,0.29237077,-0.8674632,0.2968165,-0.13960731,0.3350752,0
image_87.png,-0.18092439,0.19835883,-0.40913197,0.21475403,-0.027743923,0.078504324,0.6665794,-0.1953981,-0.447045,-0.5672841,0.24440908,-0.5045112,-0.43129224,0.0029216781,0.13342094,-0.3328066,0.016037134,-0.7002397,0.32882616,-0.53604203,0.418162,0.49100626,-0.14669357,-0.20973931,-0.04480807,-0.07492361,0.83354664,0.5095874,0.021732721,0.039112557,0.11417332,0.39264786,0
image_88.png,-0.19957799,-0.0070281886,-0.45615122,0.45371068,-0.007769665,-0.08081426,-0.82691884,-0.16993909,-0.14392963,0.21936144,-0.015555748,0.16795966,-0.080614164,0.23437816,0.8462735,-1.3832291,0.46915317,0.14130063,-0.0067388024,-0.57998025,0.17826116,0.4053335,0.34060976,0.8677227,-0.50061053,-0.9193253,1.0803322,0.9916154,-0.5175762,-0.1918804,0.9150243,0.8256297,0
image_89.png,-0.20599936,0.13143319,-0.20791331,0.36353472,-0.2672407,0.23416846,0.18684235,-0.32869714,-0.35842535,-0.22785601,0.32084414,-0.23854722,-0.2838374,-0.25893748,0.060748786,-0.14464673,-0.24019392,-0.67268956,0.32756585,-0.75562125,0.31792048,0.5091535,-0.093136705,0.03636557,-0.041365296,-0.13868651,0.3035214,0.65245515,-0.12659293,0.1589608,0.18249217,0.31359527,0
image_90.png,-0.5707428,-0.6104473,0.6096784,0.79279673,1.1590805,0.27498806,-0.022209177,0.0061159953,0.4886498,0.5685406,-0.394859,0.7209587,0.7241196,0.7458142,1.0582281,-0.24335384,-0.5628276,-0.23765086,-0.5348257,-0.564437,-0.47266272,0.70116353,-0.47613984,0.25666958,1.1099882,-1.0228314,0.01793713,-0.04733309,-0.5443329,-0.39736032,-0.067544766,-0.4293551,0
image_91.png,0.1295169,0.06835739,-0.24863125,-0.07539846,-0.070951015,0.046564244,-0.258269,-0.1271459,-0.10070081,0.24433553,0.10938122,-0.10656705,-0.006382811,-0.24275553,0.08268919,-0.3778935,0.17864221,0.11078177,-0.17322974,-0.05566342,-0.097516194,0.06533466,-0.053487238,0.3648641,-0.31547713,-0.05940841,0.12641294,0.3667014,-0.06546881,-0.32154807,0.040264156,0.37642407,0
image_92.png,-0.058503564,-0.08236566,0.04533622,1.0463356,0.10550672,0.1187054,-0.4592188,0.60528004,-0.21822578,0.29385403,0.11106109,-0.11219663,0.11714552,0.17344728,0.1572005,-0.37340713,0.14566636,0.3495722,0.16620344,-0.60846215,0.07379236,0.4194046,0.14082089,0.4257946,-0.3087861,-0.25289404,0.34801236,0.379146,-0.8416098,0.3070847,0.30143243,0.7499044,0
image_93.png,-0.22952597,0.27655652,0.6580161,0.6209822,0.26293936,0.04826709,-0.3184302,0.5311087,-0.57409745,-0.13774963,0.65754175,-0.4972573,0.18742639,0.51467586,0.3356263,-0.32403144,0.18665956,-0.047588818,0.313111,-0.47540575,0.9012967,-0.043556426,-0.066383824,-0.023758058,-0.5025579,-0.20592898,0.13737278,0.5122192,-0.90119433,0.42965874,0.07953849,0.9047779,0
image_94.png,0.10183782,0.026847847,-0.029201522,0.67947054,0.1731931,0.30124095,-0.07329368,-0.06396444,0.15532759,0.21379712,0.27418122,-0.06341983,0.39944497,-0.1030765,-0.03733229,-0.15087387,-0.0813075,-0.024671374,0.28886858,-0.44689482,0.09771159,0.31364694,0.1895037,0.058395192,-0.12284431,-0.25304395,0.057888504,0.3986873,-0.113153376,0.12690707,-0.08003402,0.22548077,0
image_95.png,-0.48514968,0.12375526,0.1253249,1.7322177,0.77141833,-0.4437671,-0.28665566,1.3209373,0.2641117,0.3784115,-0.75259244,-0.058924243,0.6179611,0.17868343,0.5247025,-0.1684015,0.055241063,-0.08251447,-0.8138867,-1.2206082,-0.7766603,1.076627,-0.7274684,1.0402113,1.0785509,-1.1715541,0.84994525,0.4870889,-1.2195861,-0.2696152,-0.2765389,0.7732354,0
image_96.png,-0.34905437,-0.16268274,0.042033,1.8082075,0.47748315,0.36894923,-0.3863697,0.6973472,0.15431532,0.44414407,0.2428338,0.09270234,0.34993398,0.50617605,0.43192524,-0.75974894,0.12756401,0.33437416,0.5823854,-1.0335778,-0.2692411,0.9057757,0.39496377,0.098870866,-0.0037715812,-0.610432,0.44749343,0.59023964,-0.756983,0.13956445,0.028852781,0.60254425,0
image_97.png,-0.27302712,0.10275146,0.006978176,-0.41847914,-0.11360732,0.104262404,-0.4684209,-0.1432625,-0.09340156,0.1002564,0.18255997,0.48055655,-0.13788778,0.3595219,0.7369883,-0.587273,0.14502913,0.3393024,0.28338826,0.08820025,-0.050545454,-0.7447643,0.35283253,0.25405446,-0.0014678007,-0.07509276,-0.06796399,0.042330537,-0.18135723,-0.51794344,0.41315606,-0.108972415,0
image_98.png,-0.30532065,-0.17967756,-0.27719593,0.7098349,0.41122153,0.5659045,0.0063816067,0.17500156,-0.12882775,0.4027395,0.27640522,-0.4981585,0.31878904,0.08102603,0.21728693,-0.6967395,-0.0032562378,0.08197582,0.14002961,-0.7976254,-0.03979716,0.8005406,-0.0804007,0.37617394,-0.11445628,-0.32634687,0.3378467,0.68074846,-0.39048666,-0.0999924,0.2853944,0.4957127,0
image_99.png,0.07987379,-0.21737513,-0.41183338,-0.13841827,-0.053561516,0.22059885,-0.4133362,-0.41943103,0.35253495,0.36611888,-0.46429253,0.61816585,-0.020830862,0.14293212,0.4865991,-0.7494452,0.14880411,0.44134283,-0.11288157,-0.44731405,-0.6491724,0.26067317,0.39774522,0.9849793,0.21701749,-0.30599505,0.6858719,0.36754334,-0.1605635,-0.6810843,0.8623637,-0.2945998,0
image_100.png,-0.18444595,0.26293924,-0.23605245,0.37541294,-0.15581858,-0.26172057,-0.53090125,-0.07624307,-0.24616535,0.024670325,0.12383513,-0.08073191,-0.048418015,-0.013517708,0.637001,-0.79194283,0.30636066,-0.033448778,0.23340033,-0.7570352,0.10788826,0.17349574,0.087531485,0.6361312,-0.26415607,-0.62213475,0.8565039,0.9940052,-0.50511533,-0.22955622,0.27732065,0.5198266,0
image_101.png,0.14636178,-0.10134533,0.165969,1.6155001,0.48885766,-0.055134516,-0.5167326,0.30175957,0.28560013,0.24036863,-0.06324697,-0.090134464,0.77328724,0.060950838,0.09344277,-0.3486553,-0.09814292,-0.22898775,-0.123701625,-1.3278949,0.4204633,0.7548887,-0.21538222,0.8891202,0.023606407,-1.4381287,0.8986357,0.8891105,-1.0389316,0.5441504,0.22849162,0.84300774,0
image_102.png,0.104750365,-0.09680029,0.32816654,1.0022583,0.58906776,-0.087007806,-0.01984105,0.5804443,-0.17108275,-0.09255189,0.26706597,-0.24668245,0.07233411,0.41968575,0.01651389,-0.19507053,0.014205481,0.21823591,0.29779375,-0.86354196,0.8654147,0.06765004,-0.64916646,0.35623497,-0.14715858,-0.96879464,0.4008347,0.28869116,-1.1073312,0.50891906,-0.20671517,0.71167314,0
image_103.png,0.08823217,0.35705313,-0.18816167,1.2542996,-0.15789327,-0.13331622,-0.40140393,-0.097232714,-0.12546828,-0.60057867,-0.6038208,-0.8109232,0.26132947,0.24951744,0.5303315,-1.668592,1.136028,-0.6752309,-0.76212174,-0.8312023,1.0537463,1.163795,-0.380057,1.0142831,-0.79166186,-0.8361531,1.8162444,0.89627695,-0.63176554,0.7914099,0.8741693,1.2349594,0
image_104.png,-0.036542844,0.090583056,0.29424533,0.33423245,0.21790391,0.28585854,0.03425699,-0.2470746,-0.15726386,0.026309036,0.5483855,-0.5538347,0.5268505,-0.0016673154,0.087290674,-0.20533691,-0.11678203,-0.38388214,0.18702905,-0.5575311,0.55939144,0.16228755,-0.101103514,0.17173761,-0.20083067,-0.22769955,0.13081013,0.630418,-0.4163936,0.2667076,0.04040287,0.31664634,0
image_105.png,-0.012552429,-0.21168333,-0.22888191,0.3106521,0.06248234,0.16808312,-0.26804575,-0.041367754,-0.022835946,0.28644204,-0.08204107,0.16776928,0.01904832,-0.036357794,0.26085567,-0.34151602,-0.12999533,0.26360038,0.15083766,-0.34072113,0.043706883,0.26340014,-0.15852648,0.37770164,-0.1485164,-0.4386277,0.08512662,0.32998833,-0.0081549045,-0.19609125,0.102623,0.1011149,0
image_106.png,-0.121892065,0.0644918,0.435238,1.2421103,0.45884287,0.14060889,-0.5428823,0.35897774,-0.15990214,0.41050088,0.764545,-0.42424333,0.89966625,0.29734582,0.2681006,-0.45642385,0.10681605,-0.15282658,-0.003475971,-0.78694916,0.25222495,0.5586865,-0.010668774,0.28147483,-0.31180808,-0.54356664,0.20662047,0.8265762,-0.93629766,0.14762436,-0.27334222,0.9638462,0
image_107.png,-0.010833213,0.4214101,0.83960503,0.4979356,1.0453525,0.014375451,0.30195278,0.14255479,0.07690145,0.022956487,0.6028027,-0.6194784,0.92841095,0.17148255,0.40714982,-0.05991698,-0.002582817,-0.18458116,-0.027124759,-0.37011644,0.6428858,-0.19972551,-0.5582673,0.107910216,0.16944277,-0.45175117,-0.14004087,0.3776227,-0.9010156,0.14322229,-0.79717684,0.40861756,0
image_108.png,0.13995104,0.055614926,0.2691359,1.0967901,0.76590693,0.26854804,0.11417158,0.07260547,0.21979114,0.14077458,0.52002233,-0.013353487,0.5365965,0.16380279,0.22148246,-0.20265433,-0.12386894,0.10350489,0.35628656,-0.5825834,0.3543175,0.28508753,-0.032227222,-0.15638474,-0.057422806,-0.45684794,0.026854241,0.24479063,-0.57811946,0.36334103,-0.54817575,0.30932912,0
image_109.png,-0.09764938,0.33228755,-1.0373907,0.34331354,-0.27582896,0.1642347,-0.42544714,-0.15030289,-0.23475617,0.2325033,-0.74369025,-0.36469346,0.28692058,-0.2663996,1.0063087,-1.7018951,0.7863207,0.37460417,-0.30147266,-0.0399925,0.5822019,0.20079395,-0.021503301,1.2127539,-0.74585336,-0.6488767,1.0171866,0.7383955,-0.002620808,-0.12529492,1.3277813,0.8695432,0
image_110.png,0.21041922,0.2640717,0.40930152,0.38526547,0.5804239,0.19976671,0.16707154,-0.38336185,-0.04416339,0.015386829,0.74805194,-0.4634531,0.7532787,-0.08928026,0.11254988,-0.06495821,-0.12639566,-0.3966125,-0.049848136,-0.36378384,0.66207343,0.09852338,-0.16446382,0.018757544,-0.17685731,-0.16916984,-0.01850315,0.47280306,-0.47283083,0.32597375,-0.4328264,0.39540997,0
image_111.png,0.032743964,0.17622936,0.3661819,0.11263993,0.093300596,0.19415165,0.09328031,-0.22039016,-0.013887167,0.014343991,0.47195128,-0.45848882,0.51962966,-0.04715506,0.014243408,-0.037120767,-0.050885543,-0.24514967,0.24108145,-0.33847082,0.28275102,-0.09623117,-0.008322536,0.033480138,-0.067100115,0.054954488,-0.06531465,0.4069879,-0.24183187,0.10187923,-0.20459972,0.0005137527,0
image_112.png,-0.114769526,0.15764764,0.5783,0.4521329,0.36416516,0.20561641,-0.04745046,-0.031095218,-0.3747824,-0.1566439,0.7536347,-0.37323368,0.4851751,0.52940017,0.22231002,-0.107843116,-0.020555843,-0.57724184,0.13272499,-0.3313395,1.0080472,0.05602534,-0.16840903,-0.23991552,-0.32040572,-0.42037418,0.070903115,0.44670093,-0.5180829,0.28847027,0.036009837,0.64404386,0
image_113.png,0.3027525,0.2855892,0.39136457,0.20321995,0.7228708,0.07245722,0.32313687,-0.47510844,0.022581741,-0.094330624,0.52341914,-0.27193746,0.4292582,-0.24081783,0.2475986,0.00043395223,-0.198887,-0.20645416,-0.03246736,-0.16108707,0.7769243,-0.052940287,-0.3167041,-0.013987437,-0.1376212,-0.17379604,-0.11465656,0.25914901,-0.3884615,0.46155012,-0.5723801,0.20251837,0
image_114.png,0.20661686,0.2524638,0.5228589,0.5026084,0.5424689,0.0012970344,0.15154979,0.057986937,0.07591013,-0.09883805,0.3999465,-0.6284111,0.45592964,0.019483592,-0.10825474,-0.053844,0.13863692,-0.21584044,0.029202648,-0.9244406,0.43215272,0.058431726,-0.39877743,0.54259515,0.10740801,-0.43550596,0.42588332,0.5676534,-1.0716552,0.34005153,-0.26096523,0.34125584,0
image_115.png,-0.43175772,0.23347719,-0.22351116,0.9156533,-0.09784104,0.0037964827,0.10645503,-0.07828858,-0.7057284,-0.7735805,-0.14600947,-1.0057234,-0.15896021,0.5555613,0.6793812,-1.266486,0.9597466,-1.1746264,-0.8508021,-0.6130704,0.7502851,1.4172838,-0.08825994,0.27487883,-0.4657229,-0.107850164,1.8392112,0.53913033,-0.801037,0.992915,1.1326809,1.03234,0
image_116.png,0.12836272,0.006699098,0.41816765,0.97644025,0.37394014,-0.036636256,-0.4373949,0.07064966,-0.074669674,-0.113963425,0.24004242,-0.41840515,0.35460827,0.19883831,0.24603237,-0.6660144,0.12949806,-0.09597411,0.013389734,-0.9973187,0.8278328,0.5604573,-0.20983706,0.60303164,-0.481966,-0.7357762,0.7442703,0.79285,-0.89133364,0.7259356,0.14705834,0.7280493,0
image_117.png,-0.6596721,-0.322914,-0.3953612,0.6239542,0.4913458,0.369523,-0.12425263,0.124299735,-0.5360129,0.46418256,0.5481935,-0.065749474,-0.1019244,0.43066204,0.7303042,-0.8136705,-0.12878217,0.08115868,0.3877507,-0.41937804,0.17446047,0.87369627,0.31544507,-0.12450519,-0.22864619,-0.5075333,0.3719902,0.6984085,-0.23480326,-0.064769365,0.58872104,0.6614349,0
image_118.png,0.37295133,-0.232641,-0.2952071,0.89214337,-0.7593244,0.18290658,-1.1319036,0.5043095,-0.027675748,0.4092973,-0.95468694,0.34510547,0.48037022,0.1259854,0.20002748,-0.6936658,0.129892,0.2027824,-0.2661351,-0.68040335,-0.21746948,0.37025684,-0.011439625,1.464903,-0.48717138,-0.5724076,0.960786,0.6080854,-0.086705334,-0.9909884,1.0355468,0.90348315,0
image_119.png,-0.00053556554,0.23508728,-0.12445745,0.32804114,-0.47860366,-0.21081997,-0.7211536,0.26369148,-0.3778898,0.040817946,-0.27940327,-0.14219815,-0.17632349,-0.1703067,0.40671915,-0.6885402,0.286562,0.33708027,0.14723751,-0.6270534,0.5063193,-0.045887105,-0.25548154,0.97369415,-0.5451142,-0.59251714,0.5292069,0.78073186,-0.45083034,-0.010910281,0.5510868,0.6619555,0
image_120.png,-1.0964044,-0.8520408,-0.19371478,1.5892051,0.87541735,0.34313965,-1.1075791,0.288426,0.023951521,1.0771271,0.17992564,0.46240124,0.29108253,0.87845457,1.6972005,-1.9997077,-0.17959738,0.3701467,-0.18132508,-1.5919106,-0.92739356,1.755262,0.18996257,0.9567319,0.3188391,-1.376099,1.0838044,1.2450156,-1.1167326,-0.4860439,0.70083463,0.56545264,0
image_121.png,0.07896273,0.15302022,0.12551647,0.23035872,-0.1248158,0.28710112,0.13126005,-0.26229602,0.08292708,0.036767848,0.18473817,-0.24223237,0.369442,-0.22774242,-0.073123485,0.025853118,-0.104749925,-0.26884225,0.21529895,-0.40086794,-0.01960025,0.089601666,0.114338845,0.21882011,0.10926387,0.1941903,0.0031798212,0.329967,-0.1179164,0.004430496,0.003304227,-0.08026996,0
image_122.png,0.18029912,-0.12315315,-0.13347813,0.67510843,0.77606225,0.16275549,0.05372558,0.23612364,-0.11154462,-0.0045676096,0.08135383,-0.58540565,0.19315334,0.3238662,0.04571966,-0.7470846,0.44158566,0.1956898,-0.28269252,-0.26629183,1.01795,0.35774696,-0.45659333,0.42862287,-0.60864735,-0.806429,0.66567683,0.25225616,-0.77572244,0.67937106,0.40313685,0.995108,0
image_123.png,-0.1586426,0.047380846,0.20729433,0.91555166,0.3813062,0.49723843,-0.059587423,0.52682817,-0.13887608,0.19094199,0.5603631,0.05673193,0.28670052,0.59436965,0.18095478,-0.16510054,0.059247196,0.33485988,0.7666348,-0.27828616,0.22429761,0.07561594,0.42424324,-0.48956972,-0.27169022,-0.048378415,-0.15328515,0.13988276,-0.33484313,-0.01520453,-0.062882856,0.42949167,0
image_124.png,-0.1482474,-0.026227029,-0.57663363,1.4964994,0.06322847,0.109183244,-0.77363354,-0.012239788,0.08991991,0.18411109,-1.0537344,-0.24471615,0.60757226,0.012404066,0.8679394,-1.7888291,0.7574652,-0.1374721,-1.2358848,-0.8938004,0.037769604,2.006075,-0.39080828,1.2993902,-0.49288982,-0.69113654,1.3326104,0.8070075,-0.17322667,0.17577817,0.7037928,0.91326106,0
image_125.png,-0.10582753,-0.15805742,-0.10328852,1.2437285,0.4574076,0.3233958,-0.18387353,-0.0012741184,-0.02552812,0.06307424,0.13289715,-0.70439166,0.0785079,0.25781548,0.289544,-1.4763181,0.63053566,-0.16204126,-0.29102543,-0.93327355,0.3887866,1.2837496,-0.15255558,0.7634731,-0.5038977,-0.53968394,1.0804924,0.82520884,-0.969622,0.64473367,0.54024404,1.0270478,0
image_126.png,-0.34356636,-0.0912812,-0.5269614,1.1086873,0.1931677,0.3867902,-0.3443415,-0.5027803,-0.101827,0.6842231,0.7842228,0.9330167,0.059848834,0.07202173,0.8436053,-0.35550782,-0.3025561,-0.29778445,0.5586287,-0.9122718,-0.6441166,0.6757288,0.8823786,-0.0217985,0.27745935,-0.60210776,0.40615112,0.8351352,-0.60327685,-0.3819223,0.34852773,0.29112765,0
image_127.png,-0.06980388,0.622455,-1.0833637,0.68097264,-0.18746452,-0.023227386,0.61310035,-0.48509136,-0.44901025,-0.49469137,0.15038942,-0.22868274,-0.36510935,-0.3559914,0.4997181,-0.8893678,0.42091352,-0.8696124,0.073618606,-0.5616827,0.28854856,0.8031275,-0.08948211,-0.053753298,-0.0878778,-0.26557666,1.1286129,0.7086779,0.29697436,-0.32325968,-0.09546616,0.7984661,0
image_128.png,-0.24607669,-0.33792356,-0.06622217,1.6562119,1.3473811,0.039576426,-0.34436604,0.36553395,-0.16604686,0.15223414,0.42229685,-0.77558166,0.44236183,0.49218464,0.5211681,-1.513152,0.28670377,0.07773638,-0.37171978,-1.1001359,1.1575006,1.5731654,-0.5622118,0.50253654,-0.7498154,-1.5276252,1.0966305,1.023666,-1.0640359,1.0516837,0.11723908,1.5389922,0
image_129.png,0.60099936,0.02310451,-0.76572317,1.4056457,-0.5824293,0.33566806,-0.77091175,0.9790217,-0.18806228,0.029851079,-1.2720522,-0.4576273,0.49180353,0.18430345,0.011679792,-1.1281297,1.0499234,0.36885232,-0.7472572,-0.20898038,0.6577707,0.16309465,-0.22292812,1.3384671,-1.2018064,-0.5638935,1.4955002,0.019731209,-0.49575588,0.22019044,1.5621027,1.6094819,0
image_130.png,-0.38264692,-0.09515155,0.66712195,0.5154772,0.30393732,0.22110613,0.03551299,-0.23055209,-0.66785705,-0.4194262,0.5141807,-0.23020667,-0.05715717,0.68444437,0.4828459,-0.30419484,-0.1654326,-0.95718485,0.01614274,-0.41779128,1.2969562,0.63052285,-0.1465849,-0.26990634,-0.26985496,-0.33243898,0.3426332,0.3691466,-0.48409545,0.72502786,0.5839341,0.6552713,0
image_131.png,-0.2936623,-0.0138233965,-0.2780208,0.786941,-0.09434312,0.057700533,-0.8714119,-0.054558124,-0.1846037,-0.012298876,-0.90540045,0.22923163,0.28205884,0.44940367,1.502609,-1.8977045,0.4412526,0.2321184,-0.40398136,-0.65173316,0.6899081,0.58163136,-0.15721272,1.3898393,-0.48411357,-0.96223825,1.2512292,0.67777747,-0.32911614,-0.07628501,1.3176252,0.6983304,0
image_132.png,-0.08057762,0.0024106954,0.23378295,1.2232517,0.5933295,0.52389526,-0.19548744,0.2707556,0.15446147,0.47099268,0.5886296,-0.1541455,0.50928694,0.24515118,0.3010138,-0.6050997,0.07738526,0.28133598,0.37783346,-0.7941063,-0.15065631,0.684468,0.49011576,0.11512753,-0.15713294,-0.15524341,0.25175524,0.5955409,-0.78941303,0.21404043,0.054770317,0.51416045,0
image_133.png,-0.405485,0.26859978,-0.4473846,0.95329267,-0.14811863,-0.17330723,-0.63070816,-0.018489348,-0.7564256,-0.048876036,0.28693154,-0.1961723,0.11213069,0.30626827,0.92016345,-1.0895444,0.5606334,-0.6099648,-0.5540554,-0.3760095,0.6779572,0.83742255,0.088690564,0.20460004,-0.64766437,-0.6816307,1.0426344,0.7880489,-0.57107955,0.3960626,0.7243156,1.3304006,0
image_134.png,0.23572882,0.4751791,-0.86426127,0.67328715,-0.49310914,0.06406135,-0.035543937,-0.5820691,0.081267945,-0.31115294,-0.63976794,0.026070263,0.13577351,-0.13912964,0.54062015,-1.292474,0.8687823,-0.32845262,-0.3280465,-0.20774487,0.4756819,0.59793144,-0.044777293,0.58021754,-0.4254208,-0.4524906,1.0459752,0.41470784,0.38453978,-0.07145992,0.5447,0.46963724,0
image_135.png,-0.12669274,-0.15265654,0.16049156,0.94873244,0.69287205,0.27174723,-0.15222614,0.282262,0.12896422,0.33838555,0.28782138,-0.2360932,0.5277825,0.25023773,0.23713332,-0.46470904,0.02059644,0.042959955,-0.0995103,-0.4621494,0.036757566,0.67818576,-0.060343962,0.057117403,-0.114642285,-0.42707515,0.1821885,0.3657722,-0.45907256,0.15959507,-0.19426015,0.5239151,0
image_136.png,-0.36480635,0.15436484,0.31531954,0.47922692,-0.27240336,0.1053307,-0.6029073,0.3003737,-0.47738045,0.0009541645,-0.32539415,-0.5647148,-0.16570172,-0.06250427,0.5829922,-0.87405175,0.31765693,-0.06351128,-0.67121327,-0.91632915,0.107102886,0.8204639,-0.85046417,1.0335184,-0.2835927,0.01805603,0.3131325,0.660725,-0.7635299,0.1148763,0.29234886,0.5253891,0
image_137.png,-0.09254457,-0.090978764,0.04637402,0.09019553,0.14281006,0.22106425,0.022373704,-0.21075027,-0.41228184,-0.0071373344,0.457349,-0.6488301,-0.22803232,0.062248,0.04185968,-0.5721108,0.2920719,-0.11126291,0.09244981,-0.42754322,0.452427,0.4136077,-0.04998796,0.30846006,-0.4622818,0.029090455,0.37847072,0.5222581,-0.61528534,0.45145467,0.41943645,0.44501352,0
image_138.png,0.24786508,-0.1932293,0.68754184,1.4200969,0.65580255,0.083823025,-0.3416029,0.09983648,-0.21262693,-0.25030082,0.27048066,0.0030654261,0.36334965,0.6109083,0.3604133,-0.3284234,-0.26885897,-0.53560597,-0.09054908,-0.8560735,1.822581,0.22642322,-0.85569483,0.35280308,-0.484404,-1.6307338,0.5651406,0.4184459,-1.1107587,0.9801345,0.23808634,1.1192603,0
image_139.png,-0.2211051,-0.05627954,0.31394276,1.2563268,0.2951869,-0.30118832,-0.502397,1.110243,-0.083668135,-0.114716716,-0.5294416,-0.27681813,-0.23482546,0.3161434,0.37322253,-0.6187571,0.22958098,0.5142796,0.05374221,-1.3347571,0.32435906,0.40509918,-1.0807649,0.9277751,0.049846765,-1.0735726,0.64703155,0.447078,-1.069065,0.28656703,-0.3001819,0.50093704,0
image_140.png,-0.35547215,-0.09797361,-0.4783488,0.72191435,-0.4129036,0.18443255,-0.9899145,-0.22640689,-0.3977792,0.7483877,-0.09876604,0.7604783,-0.029773824,-0.20366827,1.245081,-0.8884413,-0.25809008,0.13473213,0.09393006,-0.5872764,-0.23067811,0.36256585,0.298038,0.9420824,-0.18959141,-0.6556462,0.3176371,0.8891319,-0.4555272,-0.51307344,0.955502,0.61194396,0
image_141.png,0.00918654,-0.22881776,0.21637028,1.3459475,0.2749587,-0.13064809,-0.5991299,1.1156846,0.5522808,0.26858142,-0.7013118,-0.5295942,0.71513116,0.52088207,-0.2513399,-0.63956267,0.62409204,0.06583795,-0.75640875,-1.2906642,-0.88392806,1.1343744,-0.5639199,1.188258,0.29715526,-0.81450915,1.157925,0.5737504,-0.96725035,-0.44346505,-0.023423545,0.6087042,0
image_142.png,-0.36336192,-0.5109281,0.21802455,1.6134979,0.7062234,0.9892624,-0.61467445,0.27126744,0.26548496,0.667898,0.12489029,0.021243531,0.7161432,0.8046931,0.915595,-1.5734214,0.04358069,0.34308362,0.20673454,-1.1270099,0.0130275935,1.2166446,0.15044586,0.514289,-0.3305642,-0.7895593,0.5303948,0.76582813,-0.5607835,-0.13633765,0.6356595,0.5709147,0
image_143.png,0.08714066,0.5427872,-0.95106864,1.3522018,-0.2536321,0.04330161,-0.4558283,-0.37057987,-0.2989199,0.07426779,-0.46919942,0.001194015,0.6714566,-0.4468725,0.8634297,-0.9959754,0.74220395,-0.40451643,-1.0092986,-0.15778615,0.4531707,1.0599282,-0.034125786,0.45949525,-0.64788103,-0.35916638,0.7981924,0.3623148,-0.013286861,0.51942724,0.39896783,0.9398049,0
image_144.png,-0.80119795,-0.73058105,-0.124590516,2.029087,0.9962158,1.0354801,-0.51372993,0.38206014,0.31586763,0.9823082,-0.2524286,-0.009232786,0.19019614,0.31059748,1.2591366,-1.9851912,-0.10863845,0.5770655,-0.23053657,-1.5868108,-0.7925965,2.295372,0.18556869,0.8295308,0.11360646,-0.5796923,0.7523658,0.84859306,-0.93426555,0.39289612,0.8341318,0.44943032,0
image_145.png,-0.14925206,-0.045629106,0.13494267,0.50135857,-0.28374135,0.22714716,-0.74575895,0.12463474,-0.13528,0.4259994,0.30509195,0.19251996,0.28669816,0.26473275,0.49447304,-0.43254063,-0.05799089,0.06414057,0.5608313,-0.6763575,-0.022750001,-0.15458645,0.20493315,0.51190436,-0.23986565,-0.6681454,0.24629608,0.829139,-0.51002395,-0.6039094,0.42604315,0.41956654,0
image_146.png,-0.011937959,-0.18035083,0.48697448,0.990337,0.7274183,-0.1014051,-0.34272265,0.51235104,-0.059351213,0.3808166,0.43042362,-0.070615195,0.73954695,0.52565014,0.20597437,-0.07689676,-0.02321615,0.15865701,-0.21223652,-0.51641226,0.30569518,0.18090484,-0.3177908,0.31380147,0.05087184,-0.7730211,0.12445031,0.22400114,-1.1756303,0.2638047,-0.2798958,0.66097105,0
image_147.png,-0.56159073,-0.03326615,0.3599919,1.5810499,0.41298035,0.13429892,-0.4278105,0.7969133,0.23117876,0.19667654,0.11034697,0.78640324,-0.35105616,0.7505214,0.8217924,-0.5050644,0.18173021,0.6038097,0.917411,-0.8913695,-0.88437647,0.4953747,1.2018013,-0.25568202,0.48780015,0.026563391,0.47633672,0.111686274,-1.0741794,0.3423494,0.15253569,-0.050044246,0
image_148.png,-0.037538562,0.1524467,0.20099238,0.36685497,0.18599677,0.18556093,0.07564451,0.010284326,-0.038319554,-0.020833872,0.374814,-0.7556581,0.27027392,0.017816883,-0.066702016,-0.37986407,0.26886025,-0.27161515,0.09608486,-0.85625196,0.12872596,0.27749074,-0.25189546,0.48191887,-0.047978528,-0.2362537,0.46969447,0.7042481,-0.7447209,0.07049184,-0.0028986682,0.32966697,0
image_149.png,-0.74457955,0.24506843,1.2454387,1.6839653,-0.746411,-0.14874882,-1.1054988,0.8795647,-1.1767093,-0.6668211,0.57426566,0.8716994,-0.54196346,1.3627424,1.2782702,-0.120153144,-0.34992796,-0.62179327,1.2547314,-1.0433366,1.5304159,-0.38688207,-0.038751896,-0.57355,-0.35943106,-0.89251924,0.08941737,0.413061,-1.0034539,0.43240806,0.29469806,0.8921739,0
image_150.png,-0.17846642,0.4830254,-0.5554408,1.9066639,-0.6409413,-0.13732107,-0.33124715,0.27488196,-0.4262047,-0.8310436,-1.3879786,-0.21894062,0.82617384,0.6677688,1.1309884,-1.4187006,1.0386579,-1.2729849,-1.332249,-0.2001198,1.3190502,1.2625798,-0.30326837,0.49506325,-0.5900807,-0.8411774,1.9774369,0.07405475,0.024912355,0.7051264,1.4329461,1.4521853,0
image_151.png,-0.20465803,0.7339729,-1.4791439,0.8199393,-0.52199817,0.2468603,0.14354897,-1.2409214,-0.45688972,0.02684968,-0.5278024,0.61134255,0.43158892,-0.40423766,1.5000902,-1.1790326,0.8640231,-0.5676552,-0.69590783,0.34835088,0.5903238,0.66102844,0.35279253,0.26556018,-0.15146363,-0.15014172,0.5420401,-0.046897605,0.3543852,0.37742314,1.0194908,0.22905461,0
image_152.png,-0.40363476,0.009271332,0.12068459,1.513155,0.7457667,0.33317366,0.057915874,0.5635656,-0.1002303,0.2127053,0.5399729,-0.21000962,0.3098736,0.38843703,0.35888457,-0.4734971,-0.05566268,-0.20962934,0.16451219,-0.73049855,0.17477423,0.91176784,-0.08994688,-0.28904572,0.058962196,-0.55405045,0.193495,0.44040674,-0.6316316,0.24863759,-0.30174395,0.8690796,0
image_153.png,-0.014982731,0.11368717,0.039071545,0.57484126,-0.05749604,0.09896438,-0.059369504,-0.025727212,-0.07179043,-0.15498976,0.021751914,-0.038345654,0.13064191,0.12059786,0.13743263,-0.24652806,0.051478207,-0.34279412,0.11333193,-0.43950877,0.3752288,0.27454695,0.023367623,0.15084189,-0.047955543,-0.29408017,0.38395536,0.30315983,-0.17396736,0.16640805,0.22973981,0.33363998,0
image_154.png,0.36594296,-0.1368411,0.2106606,1.3515065,1.317668,0.15125774,-0.042074442,0.13243179,0.3973643,0.22915304,0.24498446,-0.33115616,0.9015624,0.20982979,0.08904798,-0.541023,0.04129647,0.0031029365,-0.47781563,-0.6810298,0.777832,0.73057383,-0.49452537,0.51686513,-0.23733594,-1.2497768,0.59365755,0.47185734,-0.9925111,0.674122,-0.23782803,0.9992646,0
image_155.png,0.41015393,0.4405606,-0.22822182,0.21506113,-0.041955564,0.30271736,0.3515046,-0.16038986,-0.1551594,-0.35663927,-0.18537083,-0.9919949,-0.47195703,-0.26823997,-0.12714462,-0.7521702,1.0314806,-0.13998023,-0.09068082,-0.38967612,0.6434393,-0.16376802,-0.235197,1.0767034,-0.41723293,0.0067048515,1.0876904,0.3797987,-1.1080171,0.6828817,1.0063809,0.65732324,0
image_156.png,0.08139725,-0.34329322,-0.13540438,0.35520846,0.64161897,0.5041549,0.14793496,-0.17861138,-0.3151922,0.36415717,0.6155499,-0.28847414,0.5138469,0.32175484,-0.00998313,-0.21391472,-0.12535693,-0.07165945,0.053759925,-0.08893377,0.8333893,0.27581844,-0.18838422,-0.022413459,-0.43227488,-0.59162164,-0.001143297,0.25926065,-0.29211473,0.14508158,0.27819076,0.6405629,0
image_157.png,0.10356389,-0.12406548,0.128752,0.31076044,0.85691863,0.5903685,0.28373158,-0.30277178,-0.069636464,0.31031853,0.80103576,-0.37758592,0.8500771,0.4341637,0.121660836,-0.29423088,-0.022114689,-0.05137918,0.2680888,-0.080905825,0.90636575,0.010366306,-0.24372391,-0.104286976,-0.36192858,-0.63687587,-0.19234379,0.32845062,-0.32313392,-0.06925444,-0.104927406,0.462197,0
image_158.png,0.24122016,-0.34116375,-0.15387337,0.89487946,0.51917344,0.27671513,-0.113084465,0.25778982,0.25175685,0.25880006,-0.16338502,0.15350884,0.47543362,0.3602709,-0.070077926,-0.2506728,0.014183439,0.17102277,-0.15124781,-0.31589398,0.2703202,0.43534943,-0.2558533,0.3203996,-0.14653985,-0.8273123,0.32622734,0.04253783,-0.31799853,-0.003568818,0.14612368,0.5317809,0
image_159.png,0.3794921,0.08733339,0.087912984,0.5268831,0.2841343,0.20801243,-0.018411092,-0.3050189,0.046179976,0.14687867,0.46969956,-0.09276123,0.5384006,-0.14376421,-0.119993925,-0.0026229112,-0.06283914,-0.08317369,0.10584041,-0.35466272,0.4483014,0.1255981,-0.06952965,0.17578255,-0.27201214,-0.27240378,-0.030505417,0.33727032,-0.31789532,0.18408976,-0.2957727,0.34302053,0
image_160.png,-0.23990011,-0.3342062,0.17256111,0.8662591,0.62265724,0.10719472,-0.017491171,-0.02549792,-0.09651484,-0.11090725,0.11751025,-0.47818926,0.25791407,0.55978626,0.31816489,-0.85715336,0.15666093,-0.4607857,-0.22461325,-0.5966029,0.7486819,1.1118141,-0.32404056,0.162087,-0.30390754,-0.83596766,0.776831,0.55255026,-0.45635122,0.5519377,0.30392024,0.692718,0
image_161.png,-0.29658875,0.7005325,-1.2796763,1.0316027,0.21296449,0.64952743,0.9331479,-0.8116289,-0.1488349,-0.2914484,-0.7956647,-1.1223544,1.0321108,-0.30328038,1.0125126,-1.4063101,1.278617,-1.0242119,-1.1352742,0.42975318,0.91834956,1.2221458,0.15127009,0.42342895,-0.34738076,0.11567019,1.314026,0.03229496,-0.05187904,1.2252594,1.6341838,0.6823305,0
image_162.png,0.10262608,-0.13974,0.26290554,0.8455181,0.33762103,0.2587876,-0.19125992,0.10553638,-0.03837031,0.09566435,0.34312811,-0.19508803,0.415381,0.3478394,-0.024781909,-0.24512088,0.02970372,-0.16228767,0.10566377,-0.56778306,0.5973439,0.34365055,-0.19747888,0.20179442,-0.27104264,-0.62087864,0.24590527,0.3666666,-0.569239,0.31707996,0.101210654,0.555481,0
image_163.png,0.16377415,0.12472692,-0.2780685,0.7899109,0.34854227,0.20877707,-0.14947225,0.051973883,-0.14177246,-0.24247529,-0.3136589,-0.9648218,0.25400028,0.24583593,0.34659144,-1.5298438,0.9792424,-0.060070205,-0.39287516,-0.32060492,1.2584257,0.5126859,-0.32083005,0.8092852,-1.0120709,-0.7565827,1.3002886,0.6135038,-0.5703706,0.73775464,0.9465814,1.234017,0
image_164.png,0.04571093,0.15182345,0.4275484,0.010049754,0.005403173,0.16710396,0.09790456,-0.2648106,-0.11356045,-0.19299665,0.3694451,-0.6489349,0.065268464,-0.005031408,-0.008365934,-0.32914665,0.22533794,-0.20160143,0.23481296,-0.56851846,0.38150346,-0.040888537,-0.18190987,0.3783024,-0.16268133,0.14885876,0.2164911,0.45359534,-0.5968029,0.29963621,0.010178316,0.012595626,0
image_165.png,-0.141794,0.09882396,0.12931792,0.32688773,-0.15849285,0.23303853,-0.010089301,0.052743156,-0.49376887,-0.25282404,0.2711797,-0.6247254,-0.2673343,-0.015792258,-0.0336922,-0.30100894,0.08829072,-0.36630467,0.11481138,-0.6685242,0.6283875,0.27177736,-0.1877683,0.37912902,-0.29798567,-0.019862464,0.4046895,0.51303136,-0.68148607,0.56685,0.5408192,0.5863709,0
image_166.png,-0.18498848,-0.16745757,0.17624956,1.0638161,0.7450189,0.15949474,-0.25261834,0.36069867,-0.37609068,0.23839557,0.7744585,-0.44017634,0.4469309,0.5341501,0.25143117,-0.58728534,0.06600247,0.013968737,0.055232007,-0.64902794,0.74433523,0.660251,-0.11251841,0.021467067,-0.4796816,-0.7260823,0.3889186,0.6315099,-0.9207602,0.5272596,0.03124355,1.0624565,0
image_167.png,-0.13350248,0.20420413,0.8778714,0.11600758,-0.19318639,0.21010631,0.16008498,0.05167979,-0.11906258,-0.47470215,0.15479867,-0.28335118,0.12133911,0.46701324,0.13030231,0.22033425,-0.098716974,-0.67419,0.30087197,-0.5218489,0.59837794,-0.48977748,-0.6386156,0.08078779,0.28073248,-0.1849478,-0.091499574,0.08304548,-0.52024686,-0.07490064,-0.082046986,-0.1497692,0
image_168.png,0.25805554,0.09117818,0.28128812,0.86034673,0.4424721,-0.061036825,-0.13723199,0.39076632,0.34162527,-0.028446777,-0.049944617,-0.54859114,0.5334625,0.13118936,-0.26537302,-0.24562266,0.30340067,-0.09758433,-0.18351443,-0.99930686,0.19553597,0.35790774,-0.25274605,0.74222744,0.040759265,-0.78010803,0.8700487,0.58929414,-0.9959299,0.3742771,0.11064839,0.53632236,0
image_169.png,-0.39988154,0.3599212,-1.4035071,1.3212647,-0.16149515,0.30543014,-0.036905106,-0.49820855,-0.31099483,-0.043889843,-1.4774406,-0.5381876,0.5373191,-0.42996383,1.4732233,-1.9829353,1.1536373,-0.009024238,-1.0205778,-0.070408344,1.0701566,1.5175083,-0.49265456,0.904012,-0.802067,-0.5052147,1.0431844,0.28080347,0.25802755,1.2339628,1.2779564,0.4611966,0
image_170.png,-0.49281737,-0.029244876,0.0055482425,1.2633437,0.63875216,0.95739514,0.02270488,0.18541427,-0.038192965,0.6536805,0.5304298,-0.2959819,0.7140933,0.3376367,0.7785411,-1.0906638,-0.040937744,0.15434875,0.65066123,-0.66330135,0.30416572,0.61814225,0.49653676,0.12859927,-0.13427761,-0.47025523,0.15873928,0.72753555,-0.48035514,0.04660388,0.72839195,0.6811771,0
image_171.png,-0.28307453,-0.19018857,-0.17003606,1.5605023,0.84191,0.39452672,-0.061560467,0.6776037,0.28137583,0.45314556,0.17381302,-0.018601652,0.26093036,0.50690943,0.40701726,-0.9121683,0.25613737,0.4538625,0.29088095,-0.6001279,-0.18964335,0.8240909,0.2100961,-0.0094095105,-0.024122978,-0.67265755,0.4486889,0.32332858,-0.67704564,0.15292606,0.019449547,0.7192081,0
image_172.png,-0.26468578,0.45511812,-0.39628145,0.3824047,-0.22071868,0.6060451,0.07317765,-0.3543493,-0.60616475,0.024537906,-0.3201169,-1.276224,-0.19169465,-0.70301336,0.5184714,-1.1512827,1.0798475,-0.16253527,-1.033115,-0.52646774,0.1927995,0.9611667,-0.9250208,0.9736786,-0.6038161,0.71422875,0.22480074,0.39882022,-0.8468964,0.83665186,0.4174433,0.33237186,0
image_173.png,-0.3635086,0.4510301,-0.7500848,0.021572664,-0.36252078,0.23136103,-0.40206784,-0.95963675,-0.44653645,0.5167663,0.2943179,0.07313029,-0.115738586,-0.7120074,1.0332587,-0.9845661,0.31404126,-0.16470699,-0.15798968,-0.29285347,0.18603697,0.3569967,0.06106384,0.6168132,-0.3552783,-0.38276646,-0.0051707765,0.9938552,-0.24472186,0.004954406,0.6857698,0.3417578,0
image_174.png,-0.44081888,0.27607167,0.072635576,0.55736226,0.31388286,-0.4944479,-0.7323977,0.06970111,-0.34609893,0.3131588,0.5637091,-0.0118308645,0.2538318,0.07872997,1.0146097,-0.75294864,0.10256211,-0.2046453,-0.34672317,-0.68721664,-0.103455916,0.39680025,-0.07981699,0.52925515,0.024952965,-0.7707231,0.5757301,1.0482495,-0.91171044,-0.22645718,-0.21696176,0.8134993,0
image_175.png,0.1589479,0.071880676,0.20266351,0.36896333,0.0065833684,0.11028845,-0.04608179,-0.30507237,-0.092139214,-0.12514666,0.41783112,-0.47347862,0.013323298,0.012932325,-0.1231931,-0.3935204,0.3250792,-0.34261888,0.005405647,-0.60837024,0.2576019,0.43666327,0.017120589,0.34319413,-0.29940057,0.013178452,0.492034,0.5394641,-0.6459922,0.4035362,0.13273458,0.3482618,0
image_176.png,-0.3227625,0.3719843,-0.23853849,0.5932992,0.36546746,-0.36924273,-0.29908165,-0.13195027,-0.1237239,-0.07267203,-0.3194393,-0.6150122,0.19263548,-0.25591367,0.91081583,-1.2919383,0.49425545,-0.43360475,-0.8901764,-0.38296643,0.6947791,0.7807188,-0.7279811,0.80811393,-0.3014149,-1.0335333,0.8790037,0.89184,-0.45245275,0.4499491,0.25509962,0.9852751,0
image_177.png,0.14100952,-0.033857714,-0.06644969,0.23443015,0.10290189,0.2049586,0.22278343,-0.30532104,-0.056481585,-0.1883515,0.20019056,-0.48515052,-0.26796305,0.038061958,-0.15147588,-0.55844843,0.41527346,-0.2119182,-0.020187207,-0.37679216,0.22799182,0.49870032,-0.087968715,0.25698677,-0.27922174,0.11302395,0.5243607,0.28843784,-0.3935246,0.35045648,0.17531632,0.2592948,0
image_178.png,0.0791876,-0.22736202,0.010757687,0.4746567,0.5135974,0.27914384,0.09635369,-0.10763326,-0.101088755,0.044910204,0.4238997,-0.4063887,0.35130778,0.36052614,-0.083744675,-0.43400452,0.11067113,-0.120379895,-0.02010537,-0.37352058,0.6902378,0.48127046,-0.27786595,0.09168843,-0.38905156,-0.5338188,0.2936319,0.3305548,-0.40999913,0.2931256,0.07966172,0.5485209,0
image_179.png,0.18279125,-0.1276561,0.24204548,0.5194201,0.6279733,0.2676527,0.15392345,-0.19183584,-0.049141876,0.11161334,0.5444445,-0.27762666,0.5339625,0.17291911,-0.059105303,-0.041386664,-0.16544047,-0.18972029,0.039626535,-0.33790118,0.7818946,0.20707418,-0.23513757,0.036900546,-0.22326504,-0.5292498,0.036052134,0.26546124,-0.533837,0.4598133,-0.05701917,0.44454682,0
image_180.png,0.1556209,-0.105986595,0.15608971,1.1563752,1.0707434,0.2260367,0.371993,-0.09457383,0.29444227,0.14531784,0.17269607,-0.17353673,0.4956884,0.1139112,0.27105537,-0.45306852,-0.10936658,-0.15554523,0.04493368,-0.7481216,0.7982484,0.4024475,-0.44263545,0.4428303,0.20005487,-1.1453118,0.48641402,0.34483737,-0.85684407,0.62093973,0.017155526,0.52915704,0
image_181.png,-0.07371153,-0.2175082,0.5720517,1.6605698,0.588566,-0.11801814,-0.6413131,0.24531814,-0.025280101,-0.49323836,-0.09403391,-0.68699217,0.21757315,0.74981934,0.48220327,-1.417176,0.42502186,-0.68198043,-0.5017473,-1.4087063,1.3795556,1.2870935,-0.8849591,0.8165281,-0.6292941,-1.6534283,1.5444933,1.0167421,-1.1377237,1.0474488,0.36351416,1.2837036,0
image_182.png,-0.27921185,-0.10869508,0.34094998,1.046001,1.1708226,0.32407704,0.21191517,0.0998271,-0.36020172,0.26485825,0.95345646,-0.7877394,0.9786025,0.37459764,0.31710753,-0.3381578,-0.39141995,-0.6431021,-0.12305432,-0.7616586,1.3644191,0.52916896,-0.62993413,0.09146022,-0.14997761,-1.3624613,0.27987766,0.8366566,-1.0468996,0.625012,0.106532395,1.2464799,0
image_183.png,-0.81802374,-0.0681679,-0.53334314,1.1019258,0.100444324,-0.084972955,-0.51742697,0.48760825,-0.995866,0.24576043,0.10656919,-0.6401989,0.040923916,0.27247298,0.9538977,-1.1607273,0.31699425,-0.59847665,-0.77805036,-0.60752493,0.3299985,1.4597834,-0.3584074,0.4340556,-0.4939987,-0.7328061,1.0726306,1.022132,-0.69146705,0.1597082,0.75020957,1.6213285,0
image_184.png,-0.323873,-0.06208258,-0.39773494,0.59826314,0.19907555,0.46894783,-0.48661456,-0.29998642,-0.015336518,0.7018433,0.12823573,0.3448681,0.42911482,0.21442975,1.0930657,-1.2040597,0.061233405,0.15871835,0.1754609,-0.5284267,-0.029770505,0.26712802,0.32334316,0.7393624,-0.061278243,-0.8575654,0.4996371,0.8611892,-0.39912662,-0.5860571,0.9122648,0.4752087,0
image_185.png,-0.009848121,-0.17967847,0.1544996,0.6951263,0.4478715,0.5388285,0.06513272,0.039879046,0.23091188,0.34654844,0.2534286,0.08782416,0.44356713,0.14578272,0.17178783,-0.18866053,-0.24228583,0.27984738,0.48058152,-0.39823186,0.0490234,0.19046772,0.2191372,-0.09746405,0.011980827,-0.18845075,-0.17805193,0.13128993,-0.19988735,0.12996624,-0.04822476,-0.0557842,0
image_186.png,-0.18408133,-0.16357906,0.23474354,0.7565858,0.28735638,0.19480745,-0.44234198,0.37118736,-0.22360654,0.20330854,0.42337245,-0.4335709,0.28601322,0.3548689,0.15862453,-0.62595505,0.12425078,0.19583417,0.2118205,-0.74769145,0.3316491,0.5609556,0.009856215,0.24798733,-0.44874668,-0.35912102,0.32703063,0.6373839,-0.59176105,0.29422903,0.12677594,0.5996116,0
image_187.png,-0.16460979,-0.3306779,-0.15764464,0.53851616,0.6870353,0.3425673,0.24641924,-0.24117234,-0.16122635,-0.059573896,0.018371716,-1.1886804,-0.049787056,0.4202595,0.16697004,-1.5305158,0.96459305,-0.35459074,-0.7885943,-0.35870704,0.5626908,1.2792155,-0.20907933,0.7793765,-0.5716643,-0.24008101,1.2808397,0.4754556,-1.1060123,0.9547579,1.1388829,0.98503226,0
image_188.png,-0.45760033,0.15061425,-0.41276497,0.08435103,-0.18972665,-0.041095678,-0.41341543,0.39887258,-0.56626856,0.03447689,-0.6423832,-0.5593984,-0.40353295,-0.13834892,0.80776423,-1.1731293,0.43170112,0.21640234,-0.47303903,-0.106264636,0.6267768,0.28787315,-0.6382762,0.79086906,-0.5915177,-0.5467933,0.5591909,0.5152205,-0.19722122,0.16882639,0.96323323,0.842656,0
image_189.png,-0.5168722,0.15916292,1.1519811,0.66385937,0.10164685,-0.23343153,-0.4750896,0.21694994,-0.7692794,-0.36282346,0.6814011,-0.7556168,0.19033462,0.5699608,0.5161947,-0.45048758,0.055801366,-0.87670374,-0.28793347,-0.9261625,1.0384793,0.61609393,-0.3310016,0.26530692,-0.24352041,-0.2961972,0.49675694,0.82090944,-1.3000314,0.9209091,0.3240661,0.9165479,0
image_190.png,0.18531506,-0.11309951,0.036949918,0.56338286,0.32537845,0.33313903,-0.089585595,-0.12941594,0.23130414,0.22255564,0.26328954,-0.24200408,0.5048152,0.059310056,-0.09185132,-0.38171154,0.0678658,0.019313768,0.12022842,-0.5694816,0.10218089,0.45783147,-0.09148456,0.28570196,-0.19328196,-0.35512605,0.17992724,0.44815233,-0.17768162,-0.06153439,-0.1691562,0.19673735,0
image_191.png,0.0013241504,-0.07144656,0.014966072,0.93642396,-0.18133254,0.15767346,-0.638775,0.56564015,-0.30685455,-0.08383461,-0.5125692,-0.44424707,0.28956077,0.44473365,0.37036863,-0.95999014,0.6165277,-0.035220545,-0.47443536,-0.19722292,0.6194501,0.48013467,-0.22469342,0.5363252,-0.8371436,-0.28754285,0.8165706,0.2004028,-0.29761633,0.30506355,0.74313575,0.99779844,0
image_192.png,-0.3425451,0.19878091,-0.50137657,0.6467239,0.013705559,0.47401527,0.701227,0.24861114,-0.41378397,-0.5934274,-0.06940396,-0.24740544,-0.06817658,0.68719447,0.34861535,-0.4855213,0.2650834,-0.68398917,0.37793744,0.117623344,1.1062441,0.21634161,-0.1546748,-0.70783836,-0.2625037,-0.4333436,0.53433025,-0.1456356,0.43072364,0.023567792,0.64787054,0.70884645,0
image_193.png,0.015313441,-0.08928855,0.5905281,1.4655972,0.5117939,-0.12030901,-0.64119947,0.475015,-0.26660123,-0.16624847,0.31557092,-0.3114299,0.3464789,0.63064826,0.41213125,-0.7203014,0.090912715,-0.1189336,0.04916776,-1.0553292,1.4948493,0.33324206,-0.60091096,0.4859259,-0.62628675,-1.4688207,0.76290315,0.7151706,-1.2588313,1.0061444,0.20689376,1.1924448,0
image_194.png,0.035993226,-0.11255402,-0.663233,1.0401922,0.5399222,0.14257607,0.028561635,0.17675102,0.49343935,0.36243564,-0.5269983,0.59349644,0.32569668,0.29171118,0.43209788,-0.6135595,0.31991285,0.31158525,-0.20677955,-0.19179662,-0.5993239,0.74990106,0.23347789,0.27846178,0.33158448,-0.55153245,0.64619744,-0.020194082,0.003911224,-0.466223,0.07393988,0.2129589,0
image_195.png,-0.5114372,-0.20681211,-0.12847993,1.4314225,0.91069216,0.013215319,-0.2902199,0.5615298,0.19636562,0.6292109,0.33924943,0.71467215,-0.28774416,0.4503009,0.7401534,-0.5552746,0.16919868,0.7370323,0.29373366,-0.543584,-1.2559363,1.1051805,1.0193841,-0.30657,0.44418207,0.05575899,0.37124655,0.15624548,-0.89111274,0.18296823,-0.28851247,0.155724,0
image_196.png,0.17611633,0.12652732,-0.3943952,0.7235639,-0.22932146,0.20981161,-0.052396,0.6071309,0.00059320667,-0.30673614,-0.81194943,-0.5763059,0.012359681,0.07831104,-0.17248297,-0.54502547,0.590589,0.140582,0.038888164,-0.39967674,0.69902563,0.12066698,0.011996554,0.7323574,-0.49828103,-0.45793182,1.0849669,0.1761379,-0.3729296,0.64045215,1.272912,0.72459424,0
image_197.png,-0.03184954,-0.1903341,-0.20929329,1.0881046,0.47813144,0.3292427,-0.045661684,0.2716497,0.20750901,0.3269689,0.11086904,0.04734941,0.46595588,0.22850993,0.11904729,-0.45993015,-0.02912453,0.22956073,0.21938927,-0.5593937,-0.090165764,0.76126593,0.17597207,0.034513116,-0.059136275,-0.43484136,0.30531332,0.3057352,-0.14554699,-0.01703446,-0.06475676,0.3852252,0
image_198.png,-0.07154444,-0.410895,-0.34786704,0.4223563,0.58146214,0.58368266,0.19849962,-0.08877524,-0.19815555,0.3943861,0.35713774,-0.39231932,0.22742225,0.22848785,-0.09027951,-0.5439863,0.09685983,-0.0045045926,-0.1275336,-0.24770066,0.41287607,0.7153504,-0.27191287,0.1618633,-0.3373494,-0.43015203,0.0923373,0.2535643,-0.25907788,0.08144835,0.36052576,0.6121297,0
image_199.png,0.25352827,0.32207432,0.4901548,0.35088992,-0.069873646,-0.19851503,-0.20111595,-0.06290659,0.06750379,-0.35123688,-0.08521133,-0.5235014,-0.09252611,-0.16397718,-0.06062822,-0.2753768,0.46078858,-0.15987831,0.068915665,-0.9120206,0.25939122,0.08214792,-0.03700501,0.8994228,-0.058710042,-0.06806205,0.81057507,0.6078861,-1.0020757,0.62689334,0.24856481,0.14011541,0
image_200.png,-0.011719081,-0.24977447,-0.17734969,0.99349535,0.1070611,0.2679194,-0.56315327,0.18197452,0.022734948,0.1351632,-0.398552,-0.36155087,0.32844073,0.22524081,0.31284708,-1.2048751,0.36851192,0.2840508,-0.042956345,-0.87291795,0.5624773,0.9356588,-0.1543533,0.88950723,-0.67659587,-0.7807596,0.8744103,0.7379677,-0.34211677,0.37675408,0.7703485,0.67373353,0
image_201.png,-0.8066837,-0.60763395,-0.17599857,1.6437674,0.7372043,0.08247168,-0.24450539,0.8642135,-0.30478796,-0.08083613,-0.6635333,-0.4256606,0.11955408,1.4043853,0.8133736,-1.71294,0.69043636,-0.31680766,-0.59132826,-0.32642743,1.0110791,1.759491,-0.17928125,0.34527972,-0.44800776,-1.402463,1.5594454,0.36971992,-0.66186345,0.76015675,1.6121621,1.5987422,0
image_202.png,-0.08236667,-0.22938655,0.38033184,1.2406487,1.5852165,0.04787559,0.08282168,0.45571038,-0.29322487,0.034616027,0.64666855,-0.85236883,0.18755993,0.48323724,0.33594492,-0.83894384,0.089372166,-0.060817923,-0.6997574,-0.7702364,1.348895,0.97967935,-0.807125,0.321698,-0.4859257,-1.2123333,0.79200834,0.5106173,-1.7199389,1.4447994,0.18786022,1.5444878,0
image_203.png,-0.50773317,0.03180444,-0.39787623,0.09594842,-0.27824605,0.526795,0.34862596,0.16312206,-0.65587175,-0.084373094,-0.06481675,-1.0859581,-0.3924318,-0.4045532,0.017318962,-0.42448062,-0.04723044,-0.45074856,-0.040111624,-0.74491036,0.22332941,0.44977093,-0.40762854,0.7338258,-0.07288115,0.1577269,0.5242064,0.66012985,-0.6735222,0.29784805,1.0082033,0.64707756,0
image_204.png,-0.3127273,-0.08419566,-0.3796387,0.90533197,0.2903147,0.21831514,-0.35708076,0.07918969,-0.32286996,0.759167,0.50239,0.61873794,0.112937376,-0.09428285,0.66342324,-0.22216757,-0.49193877,0.23342292,0.41645664,-0.78825015,-0.23913157,0.467796,0.31720224,0.4242159,0.21847793,-0.69392025,0.04945811,0.74494666,-0.65051746,-0.38841122,0.26417515,0.614359,0
image_205.png,0.04708619,0.003180386,0.040232398,0.8791133,0.6180234,0.10910508,-0.13425797,0.27658916,-0.2379364,-0.075059064,0.32475966,-0.7601085,0.21028477,0.40823117,0.12997152,-0.97661537,0.5462023,-0.0010950906,-0.19878379,-0.678744,0.8797213,0.65798795,-0.29586354,0.5032291,-0.659381,-0.68692493,0.9211446,0.6570868,-0.97395784,0.59824973,0.35979477,1.1742907,0
image_206.png,-0.5622464,-0.25336045,0.08829794,1.6073601,0.34735912,-0.20657863,-0.6346373,0.57089484,-0.19595489,-0.13605142,0.036459718,-0.27230623,-0.23439872,0.5378584,0.6206219,-1.1646798,0.2910768,-0.05732993,0.185852,-1.2336179,0.27315152,1.4220726,-0.06670434,0.139931,-0.36372784,-0.88089097,1.0693382,0.859052,-0.679929,0.7364831,0.018905178,0.75729007,0
image_207.png,-0.11534627,0.058531296,-0.60869944,1.2097207,0.5031939,-0.0025603008,-0.09496876,0.76828593,-0.17456752,0.06276738,-0.81202507,-0.66266817,-0.0880226,-0.3179639,0.32697898,-0.7347224,0.33510754,0.03999649,-0.77937335,-0.46118748,0.8558628,0.64731777,-0.97720224,1.0110611,-0.29316673,-1.256607,0.9103915,0.33920407,-0.78949934,0.9143708,0.79776883,1.3217258,0
image_208.png,-0.3637057,-0.073339395,0.39092636,0.826551,0.47063595,0.5544396,-0.052086316,0.21068358,-0.29880458,0.28395313,0.78587204,-0.41531047,0.05134794,0.45473775,0.41164523,-0.70385367,0.15139821,-0.0469008,0.14088985,-0.7771111,-0.1689607,0.75056887,0.33014613,0.08058746,-0.093543574,0.25764292,0.31702945,0.5202918,-1.1266758,0.25209194,0.2947341,0.5785615,0
image_209.png,0.6822072,0.2649346,0.32604787,1.0771815,0.5034248,-0.23221953,-0.24476622,0.29145753,0.32133937,-0.36876726,-0.22615094,-0.26470357,0.3725422,0.088393115,-0.04565218,-0.36680335,0.34387168,0.056944393,-0.18140413,-0.9215886,0.90115786,0.019947756,-0.5094712,0.8572068,-0.34753302,-1.0286136,1.0473083,0.4356911,-1.056639,0.6609951,-0.06280764,0.77865756,0
image_210.png,-0.14416198,-0.14738627,-0.25590518,0.13082005,0.06443427,0.41923934,0.23265703,-0.19561893,-0.08736746,0.18883301,0.0798208,0.08892206,0.06584316,0.085848555,0.14647579,-0.2099207,-0.24254028,-0.16184692,0.36944255,-0.23192213,0.32340503,0.16704912,-0.1257887,0.05992157,0.068245135,-0.47179005,-0.044823185,0.25030836,0.26172048,-0.35827222,0.38494545,0.09828532,0
image_211.png,-0.11985644,-0.34920967,-0.16594179,0.7929966,-0.39875984,0.3171529,-0.85346466,1.432278,-0.49382138,0.5241655,-0.53984106,-0.3554094,-0.008923548,0.4934894,-0.012593427,-0.6103653,0.39425942,0.8319487,0.1021161,-0.3795031,0.031817324,-0.017354682,0.13435629,1.1081818,-0.618449,-0.32801598,0.6664531,0.3015226,-0.9633484,-0.14950377,1.545824,1.2481873,0
image_212.png,-0.1643644,0.3160777,-0.579316,0.9122517,-0.39915404,-0.103050284,0.83561677,-0.313473,-0.9627293,-0.9816931,0.20598045,0.22321787,-1.0471095,-0.22132774,0.7712759,-0.23033911,-0.58808374,-0.653457,1.5338517,-1.2122378,1.1686751,0.26129147,-0.38711458,-0.42342144,-0.047123354,-0.51172847,0.8741058,0.6719325,0.26579228,0.09563466,-0.40315416,0.25595117,0
image_213.png,-0.042138014,-0.044691533,-0.13809858,1.3819668,0.4387728,0.8269889,-0.01996611,-0.10961821,0.3358061,0.6027004,0.16961993,0.69531363,0.54544693,0.09772983,0.75244147,-0.64345425,-0.37414017,0.27025682,0.6555492,-0.90151745,-0.22491592,0.47538194,0.47095773,0.2994094,0.30077222,-0.49823096,0.097002424,0.43194997,-0.35239002,-0.36449292,0.2347203,0.15780678,0
image_214.png,-0.07450908,-0.297116,0.27863243,1.3149768,0.3467809,0.2090962,-0.55628806,0.6618831,0.22319052,0.30427575,-0.07913081,-0.099405415,0.29404837,0.4767886,0.14803693,-0.65474194,0.18464331,0.44443363,0.29960427,-1.2346886,-0.04852458,0.5882947,-0.034522146,0.7162908,-0.0457197,-0.8140469,0.6622944,0.5855069,-1.0331355,0.24033129,0.25719607,0.41978317,0
image_215.png,0.23627764,0.1252377,0.17308481,1.0182948,0.37916562,-0.0565407,-0.2632742,0.27960178,0.13609202,-0.17930436,0.09976873,-0.6348604,0.26822457,0.039935704,-0.20703071,-0.44570512,0.35786107,-0.24787992,-0.14292622,-1.1011215,0.5128991,0.5508298,-0.3449945,0.68561715,-0.29117882,-0.8609258,0.9657946,0.77367413,-0.9733178,0.59751713,0.06292257,0.82479537,0
image_216.png,-0.32607132,0.18354967,-0.15540601,0.15170847,0.15482588,0.031362068,-0.20351683,0.023630302,-0.52296996,0.26977786,0.40484005,-0.5615812,0.12667747,-0.19379175,0.51306576,-0.5357371,0.09495863,-0.27023935,-0.21186772,-0.30214134,0.24401519,0.27395475,-0.14723285,0.40248027,-0.30545282,-0.3141587,0.33887935,0.8016477,-0.57868254,-0.08469726,0.32013384,0.8896262,0
image_217.png,0.1375129,0.062018618,0.1318411,1.295907,0.34119287,0.39707285,-0.434577,0.29510573,0.41146913,0.40461916,0.20565607,-0.16210811,0.85483927,0.04139689,-0.012829987,-0.42578313,0.11385408,0.101981506,0.06938222,-1.1132362,-0.27739662,0.70366174,-0.07227221,0.5315925,-0.06309018,-0.58267194,0.27961603,0.7315563,-0.5290396,-0.20104676,-0.37013316,0.4271673,0
image_218.png,-0.29121268,-0.080895364,0.21117067,0.5893288,0.08639582,0.2529179,-0.35011473,0.4496475,-0.53318596,0.0659995,0.48553222,-0.5908403,0.2144887,0.47051156,0.068740636,-0.39697573,0.07318863,-0.21616581,0.25604331,-0.74517965,0.69482595,0.31061816,-0.09276252,0.2335913,-0.46667892,-0.58853847,0.4624316,0.75522935,-0.6794563,0.19070348,0.6039969,0.91274804,0
image_219.png,-0.6444021,-0.2567792,-0.27045685,1.4735425,0.464999,-0.049837172,-0.75396985,0.5238028,-0.21406215,0.19535135,-0.13645159,-0.44649443,0.08318736,0.4165762,0.71985865,-1.516932,0.3317685,-0.17470337,-0.57283753,-1.2672255,0.06594037,1.9757013,-0.34877646,0.6436023,-0.36670223,-1.1003869,1.2448912,1.1826446,-0.54187757,0.2393243,0.3808218,1.1682756,0
image_220.png,0.17838497,0.117698476,-0.20157298,0.42147094,-0.19421469,0.21651734,-0.024991065,-0.23134303,0.040278234,-0.039538454,0.098927066,-0.19227387,0.07841357,-0.3612635,-0.21994296,-0.014679368,-0.05341513,-0.35248405,0.26675624,-0.664532,0.12571773,0.23897392,0.05243833,0.3100844,-0.1343482,-0.26001194,0.36907914,0.56795335,-0.14092013,0.08993205,0.16511837,0.24279268,0
image_221.png,-0.13406436,0.15070237,0.36145884,0.46755755,-0.003048098,0.02930045,-0.19811028,0.14364871,-0.48036164,-0.12509975,0.6859152,-0.4597942,-0.030296575,0.24668841,0.16058007,-0.4186672,0.18911023,-0.16967246,0.32014322,-0.5966987,0.44606075,0.18577926,-0.036752824,-0.0144266095,-0.4176421,0.024442632,0.2358884,0.5649926,-0.6300298,0.22774887,-0.15687303,0.5865537,0
image_222.png,0.1647739,-0.0522155,0.29422227,1.2161243,0.66990733,-0.11266591,-0.42912433,0.1466482,-0.17750989,-0.42009586,-0.029611466,-0.94942063,-0.055231873,0.2734827,0.33446568,-1.3672222,0.5350818,-0.12564273,-0.18821082,-1.3130722,1.8109322,0.64290756,-0.79744095,1.1718727,-0.8886189,-1.6195264,1.5172857,1.0663533,-1.4890529,1.5097249,0.7737046,1.3432828,0
image_223.png,-0.45479095,0.22128096,0.024626233,0.41138428,0.33075145,-0.08196906,0.17840034,-0.2783579,-0.44071674,-0.4251074,0.38381037,-1.1078423,-0.48954725,0.017529087,0.41560388,-1.136694,0.62985456,-0.7944558,-0.4538963,-0.7795177,0.45587873,1.215134,-0.22994575,0.41186735,-0.2585899,-0.13400634,1.1474595,0.93205684,-0.97939396,0.8886778,0.4749265,0.81454945,0
image_224.png,-0.094964586,0.18998463,-0.8707663,0.18274198,0.5321257,0.26996022,0.35853282,-0.72013676,0.0010480363,0.5296718,0.29110318,0.29424933,0.05444113,-0.58335876,0.5618067,-0.5377412,-0.14933181,-0.10399795,-0.01879998,-0.016906876,0.08169334,0.45090064,-0.10759527,0.16358428,0.116883315,-0.6608001,-0.13211834,0.5585911,0.2605651,-0.46210432,-0.053241897,0.41024894,0
image_225.png,0.21971603,-0.008311619,-0.14751163,0.310771,-0.011650016,0.32333162,0.16298294,-0.19350609,0.025683416,-0.086688116,0.083389446,-0.35594118,-0.07800818,-0.18696412,-0.28374538,-0.23945867,0.14995944,-0.17498031,-0.020669363,-0.50654525,0.025580682,0.37674367,-0.25615788,0.33523962,-0.1532634,0.10427379,0.25722528,0.2577249,-0.23504493,0.059547313,-0.087559134,0.17848451,0
image_226.png,-0.356386,0.1594079,0.35204834,1.2519258,0.2067427,0.43834218,-0.3225094,0.5486773,-0.29393718,0.0696884,0.61668813,0.1184887,0.13852786,0.70099753,0.5491202,-0.53219813,0.102929,0.17172672,0.858345,-0.56275135,0.3951303,0.32229182,0.46477762,-0.4957722,-0.3555798,-0.15443721,0.012494095,0.39954486,-0.3908296,0.11863748,5.6934692e-05,0.5890546,0
image_227.png,-0.33547702,-0.24027996,-0.27693865,1.0072776,0.18835977,0.5335188,-0.73224133,-0.1416023,0.010735884,0.69323146,-0.19615567,-0.009217532,0.42683536,0.018451918,0.9836591,-1.5241129,0.080167,0.39040747,-0.094146505,-0.82947314,0.0879113,1.1398633,0.025893103,0.98738307,-0.4567913,-0.68605065,0.4513153,0.9946465,-0.31821635,-0.0041785967,0.841267,0.5461245,0
image_228.png,-0.39868954,0.45221406,-0.85577804,1.0990815,0.34025174,-0.33526766,0.8681419,1.3982285,0.045669705,-0.30809352,-1.492584,-0.04505542,-0.27160835,0.15315469,0.3631632,-0.012579813,0.38582447,-0.23972757,-0.7542861,-0.047492612,-0.24695568,0.50966245,-0.7016679,0.47198978,1.1327195,-0.7206388,1.131661,-0.53779054,-0.29697,-0.22974916,0.680399,0.77557397,0
image_229.png,-0.10671863,0.0035565894,0.60085243,1.2269295,0.331092,-0.14339183,-0.6943986,0.26703832,-0.33421832,-0.3801445,0.07049626,-0.839444,0.30391988,0.49271566,0.5212755,-1.1494116,0.42540875,-0.3870435,-0.26957718,-1.0456154,1.628973,0.61151975,-0.5319486,0.8158856,-0.8438489,-1.2434227,1.1927615,0.9432017,-1.2811823,1.3619623,0.74382406,1.2581002,0
image_230.png,-0.5792812,0.065006,0.46147186,1.3014491,0.6952567,-0.36292407,-0.22279295,0.315733,-0.45994002,-0.16074824,0.43885517,-0.18467449,-0.08680745,0.37929162,0.749027,-0.52603906,-0.042042676,-0.75187236,-0.65683144,-0.9306687,0.239367,1.4042543,-0.3821227,-0.02373353,0.19258332,-0.5410051,0.6767564,0.6060677,-1.1209425,0.67968816,-0.3406939,0.98060185,0
image_231.png,-0.14800803,-0.14217842,0.15574522,0.78879994,0.0038486402,0.0088051595,-0.38140395,0.21060891,-0.39023948,-0.33074844,0.0010363248,-0.43795314,-0.24650103,0.50622797,0.30218965,-0.9203209,0.33189544,-0.34207824,0.022896474,-0.75276786,0.7207285,0.822572,-0.18087608,0.4212189,-0.6168249,-0.54003906,1.0436839,0.72116566,-0.55693835,0.38203344,0.5866599,0.9159953,0
image_232.png,0.080524236,-0.20622756,-0.28250536,1.4367126,0.8450328,0.4937945,-0.21138668,0.13788871,0.25476173,0.3874258,0.4102585,-0.1743223,0.6652872,0.4233991,0.2293841,-1.0974817,0.30233917,0.20922291,0.11199448,-0.8137892,0.3022428,0.9883654,-0.15977922,0.24770549,-0.47780785,-0.99253565,0.5292317,0.68720704,-0.41214395,-0.07690377,-0.24488437,0.89931905,0
image_233.png,-0.69331765,-0.019711947,0.21533252,1.0311501,-0.33271408,0.21145384,-1.0949202,-0.19244881,-0.55992955,0.3649211,0.13341442,0.92159593,0.09334295,0.632898,1.8829277,-1.1014231,-0.06398077,-0.14467147,0.37811542,-0.46265757,0.5887513,-0.18969363,0.17733523,0.4009644,-0.21591572,-0.92277825,0.1262908,0.55646825,-0.7250572,-0.056543212,0.8895034,0.41632965,0
image_234.png,-0.49245107,0.064997956,-0.96994627,2.1840196,-0.41454145,-0.23061568,-0.36995202,0.31880036,-0.30094784,-0.49891886,-1.4994146,0.33302873,0.4209248,0.6701971,1.2104727,-1.4249498,0.7636422,-1.0639199,-1.4995593,-0.5111139,0.23894942,2.329237,-0.10749268,0.44781253,-0.012105486,-0.7666221,2.0174441,0.05838899,0.12560125,0.42909092,1.1707307,1.126881,0
image_235.png,-0.20953889,-0.08000432,0.41475633,0.7711441,-0.044592828,0.2058666,-0.57007957,0.48461652,-0.21440604,0.026296696,0.19801271,0.044032887,0.14925617,0.5931573,0.31143063,-0.35868058,0.028310489,0.061740953,0.3906829,-0.5729037,0.30873767,0.16811898,0.025705451,0.04948334,-0.32366523,-0.35377723,0.15298963,0.36167103,-0.39391986,-0.053013243,0.14257514,0.4425881,0
image_236.png,-0.12485733,-0.5868775,-0.037726544,1.7338018,1.0132316,0.72038084,-0.20825855,0.1627077,0.9517956,0.64951754,-0.8105001,0.62222725,0.65928644,0.47016996,0.5845278,-0.9645317,-0.1875814,0.116972424,-0.4919594,-1.4618822,-0.6176011,1.6869097,-0.57045907,0.95164174,0.73422587,-1.457994,0.63725847,0.44237104,-0.4036851,-0.44916904,0.19892563,-0.0046011307,0
image_237.png,0.062472332,-0.08114401,0.25214154,0.049627546,0.082357824,0.19665183,0.08102013,-0.17974652,-0.37591723,-0.03345051,0.64437795,-0.4636354,-0.07086641,0.1621717,-0.20385636,-0.13269575,0.11694722,-0.16124777,0.12847137,-0.3587273,0.42146498,0.15382737,-0.050959688,0.11956447,-0.3066478,0.17379649,0.09448684,0.29045036,-0.6541657,0.35800305,0.13445017,0.33420652,0
image_238.png,-0.06250272,-0.11435331,0.28525904,1.3193852,-0.15197557,0.08193148,-0.5472015,0.5716118,0.013247138,0.11473594,-0.08231826,0.21362075,0.20324574,0.17540883,0.061917353,-0.026606193,-0.2480125,0.07024803,0.55740285,-1.316516,0.030298062,0.36675778,-0.024274426,0.5802855,0.13028215,-0.73716724,0.4012656,0.58866125,-0.78499097,0.13215625,0.11580994,0.3399767,0
image_239.png,-1.1821955,-0.5338807,0.7572073,1.9011016,-0.15187876,-0.16676165,-0.55900836,1.1115834,-0.81604904,-0.5238422,-0.4190928,0.3628375,-0.3131301,1.5567191,0.97493196,-0.42954254,-0.41596755,-1.1751007,-0.08418905,-1.163579,1.0355036,1.3337435,-0.7628821,-0.25372213,0.28552768,-1.4764429,0.81825185,0.24009405,-0.6946548,0.5390925,0.8608629,0.9668243,0
image_240.png,0.1617532,0.07917285,-0.15545963,0.59446305,0.23454241,0.13665177,-0.03925571,0.037918482,-0.029969938,-0.15142554,-0.101822756,-0.72453624,-0.018847074,-0.17876737,-0.03236008,-0.67024606,0.3648423,-0.0015158429,0.0055996235,-0.7993068,0.6884045,0.38291284,-0.2601672,0.7549758,-0.46664506,-0.58512074,0.89825755,0.66964,-0.72244745,0.7404547,0.56749535,0.62958515,0
image_241.png,0.9983089,0.04489638,-0.04313017,1.5895311,1.1754867,-0.4298383,-0.043574855,0.5255255,0.53682876,-0.07055132,-0.33445233,0.30710438,0.2776045,-0.17246294,-0.32325882,0.17171332,0.109353475,0.8790433,0.02808381,-1.0526879,0.89657825,-0.05250821,-0.5659482,1.0272441,-0.014427916,-1.5551575,0.8045198,0.065582626,-1.5878843,1.1615896,-0.50714755,0.72334397,0
image_242.png,-0.08099694,-0.0146705005,0.14630319,1.1637418,0.14113912,0.066888824,-0.40492547,0.5370049,-0.16865039,-0.071632534,0.22291745,-0.6580286,0.15438369,0.37641585,-0.019200446,-0.7297278,0.49536312,-0.23850788,-0.18055145,-0.82145065,0.3361748,0.7991483,-0.12521243,0.36610016,-0.45937738,-0.47708413,0.84900224,0.6157817,-0.8649301,0.5228619,0.26917312,1.0219206,0
image_243.png,-0.51251286,-0.084521085,-1.1223912,1.3537873,0.6482642,0.38831067,0.30162144,-0.13894156,0.07951546,0.31476557,-0.8321609,0.0911667,0.5320902,0.21862987,1.1571134,-1.6047586,0.25762108,-0.27739784,-0.38216037,-0.38507447,0.62919503,1.4242034,-0.2606049,0.64716876,0.10064498,-1.5273929,1.1012266,0.613133,0.26979724,-0.10483106,1.1576486,0.91413254,0
image_244.png,-0.33876044,0.19268413,0.15966837,0.94220257,0.29813248,0.070417315,0.23398551,0.4154091,-0.21234849,-0.16021213,0.15955248,-0.15139104,0.29269496,0.37948805,0.2372795,0.06014737,-0.059867155,-0.61949664,-0.09986633,-0.12129977,0.52892977,0.45851833,0.117787614,-0.26843375,0.201142,-0.31208593,0.29734984,0.046820942,-0.490314,0.5627365,0.47046956,0.7539848,0
image_245.png,-0.05116822,-0.1849516,0.14178115,0.5353126,0.23710877,0.37600216,-0.23984925,0.12015911,0.025899224,0.27863494,0.23602836,-0.28621495,0.3557341,0.21067795,0.068382815,-0.4709158,0.06238132,0.17955394,0.25941968,-0.58695257,0.118704036,0.38155657,0.060925677,0.30005753,-0.2527179,-0.25055936,0.17396627,0.46667224,-0.34380087,0.048425972,0.18875305,0.24675983,0
image_246.png,-0.7322443,-0.24328777,0.28826126,1.5989741,0.38589978,0.46069512,-0.6237778,0.83272946,-0.058568668,0.28906772,0.43539724,0.84934896,-0.314853,1.1686965,1.1052281,-0.7480322,0.026919005,0.54725444,1.1624292,-0.79726577,-0.4504546,0.3143055,0.69381016,-0.5109231,0.08362576,-0.42344034,0.15544593,0.22468744,-0.7961513,-0.22357677,-0.0022410827,0.20637205,0
image_247.png,0.26137716,0.14962664,0.36863464,0.42135274,0.5774744,0.005203015,0.09398533,-0.14692459,0.07335329,-0.027190117,0.458251,-0.51584375,0.48978585,-0.010877722,0.0073963082,-0.21848194,0.042930696,-0.11919691,0.08471053,-0.586223,0.64857304,0.098490104,-0.13038354,0.34555754,-0.18676947,-0.46296585,0.41770703,0.5649172,-0.7360118,0.49191546,-0.08338761,0.4149575,0
image_248.png,-0.16038276,0.23352909,0.28726408,0.37975425,0.048732664,0.19115694,-0.043197535,-0.20191108,-0.41560978,-0.23345925,0.6288958,-0.80272645,0.13416888,0.048978884,0.16745019,-0.5571766,0.14490505,-0.5921412,0.22749704,-0.9129881,0.78316486,0.28812963,-0.24332897,0.3312948,-0.4016098,-0.34906596,0.52756023,0.96243024,-0.72791237,0.35392436,0.21152352,0.6773534,0
image_249.png,-0.1702312,-0.01045013,-0.15778102,1.349516,0.7095482,0.9110172,0.16205359,0.2058992,0.27435076,0.6211547,0.5366306,-0.04818534,0.66749865,0.18961419,0.33082113,-0.69893855,-0.04413084,0.23930225,0.56104815,-0.6750083,-0.07075173,0.611497,0.40269795,-0.07168489,-0.007831397,-0.40543783,0.0030178893,0.45874482,-0.3895175,-0.077791035,0.13690735,0.5217182,0
image_250.png,-0.28944835,0.18977082,-0.4325164,0.8183388,0.39761972,0.1080366,-0.089198284,0.6134802,-0.3438402,0.060926758,-0.6590178,-0.81825966,0.12952337,-0.042707443,0.59294045,-1.0636214,0.54876935,0.05484853,-0.8127811,-0.41716853,0.7971659,0.6485382,-0.9667191,0.9955059,-0.35627028,-0.8755052,0.7930682,0.4185802,-0.6676509,0.42958742,0.7834879,1.1683806,0
image_251.png,-0.73732156,-0.1052834,-0.5761503,0.77922267,0.2441579,0.24013893,-0.4356594,0.3301273,-0.57652825,0.78646547,-0.04571575,0.14159535,0.050660837,0.06728815,1.1073235,-1.0121421,-0.09417056,0.34867972,-0.028388523,-0.43277565,0.06522096,0.78469795,0.08433524,0.71381474,-0.040053427,-0.73195887,0.27640733,0.7916481,-0.5348888,-0.22241455,1.0489901,0.9437914,0
image_252.png,0.0033280472,0.36964306,0.45216864,0.35193795,0.34270042,-0.02856845,0.06033183,-0.15485735,-0.30801144,-0.3066861,0.72520506,-0.90434563,0.27628088,0.012806317,0.16985284,-0.4943163,0.18504284,-0.39882094,0.24570477,-0.93140805,0.8881932,0.12556495,-0.25894436,0.34663948,-0.34768245,-0.3532242,0.5946499,0.9431258,-0.89298064,0.5134643,-0.11610113,0.6078366,0
image_253.png,0.17150736,0.20176266,-0.82052666,1.4497583,0.07087092,0.003684626,-0.42122433,-0.047918733,0.3103789,-0.33024412,-1.4426335,-0.5733403,0.6389491,0.12547907,0.83199936,-2.2859154,1.1530327,-0.040873934,-0.6358817,-0.8022816,1.037216,1.2804699,-0.33046612,1.6252223,-0.8574098,-1.3870293,2.160533,0.9991032,-0.11390657,0.38569748,1.3148403,1.2354735,0
image_254.png,-0.7403927,-0.1601645,-0.07081743,0.49855757,0.19787687,-0.006457621,-0.5813388,-0.42574915,-0.14832793,0.21229595,0.53771615,1.3698308,-0.45140544,0.8759964,1.5029376,-0.83907574,-0.009499804,-0.06926825,0.39482278,-0.751585,-0.90367234,0.31929314,0.9358651,-0.00036507013,0.66058517,-0.29628253,0.5742358,0.3220325,-0.8056538,-0.6092558,0.3169903,-0.28420603,0
image_255.png,-0.13758849,-0.25990286,-0.29887065,0.7302778,0.10283905,0.15928529,-0.5880087,0.07929929,0.14454846,0.7355185,-0.007359165,0.55069953,0.3084714,0.18128163,0.42722708,-0.3818278,-0.034725297,0.30367818,0.1676425,-0.7631539,-0.7214148,0.5205604,0.5402637,0.7161729,0.24491191,-0.62036276,0.52663606,0.66910946,-0.5893341,-0.5211291,0.5957678,0.20390826,0
image_256.png,-0.13741402,0.29657063,0.34620112,0.71167576,-0.5398135,-0.29895326,-0.738476,0.56348807,-0.744923,-0.2558069,0.19776689,-0.38953727,-0.2084359,0.13611981,0.20248558,-0.27727067,0.18971445,-0.41775143,0.02669482,-0.9159338,0.57083833,0.22845842,-0.24930514,0.5450278,-0.5099848,-0.389149,0.71840525,0.86205995,-0.87702954,0.17995532,0.37107915,1.124401,0
image_257.png,-0.11631315,-0.17351179,0.50913775,0.89008385,0.6041298,0.32505107,-0.14858197,0.3366967,0.16643271,0.25038862,0.22128095,0.038419217,0.23818263,0.39526737,0.30166933,-0.3047487,-0.026278092,0.3156081,0.16737051,-0.65332806,-0.20149523,0.49192414,0.10992802,0.073757894,0.092155434,-0.050604533,0.06962911,0.1503914,-0.8066461,0.2660336,-0.15381771,0.08234211,0
image_258.png,-0.39829808,0.19425641,0.53711724,0.7901068,-0.3830812,-0.025488423,-0.76265484,0.43669334,-0.46595004,0.049357306,0.32892802,0.37517798,0.052963085,0.5858458,0.9530755,-0.5239981,-0.119926356,-0.033122506,0.65270674,-0.81817925,0.32529277,-0.2729446,-0.020885216,0.3553566,-0.04350579,-0.60466784,0.19302547,0.68571365,-0.71000296,-0.48452827,0.14591339,0.5187329,0
image_259.png,-0.24702084,-0.13488454,-0.44430387,0.37252998,-0.18848096,0.13365547,-0.18085602,0.28838494,-0.5236553,0.20838307,0.030691482,-0.089961864,-0.22359303,-0.07998951,0.3500123,-0.3579159,-0.2827258,0.03303697,0.44686598,-0.71101415,-0.058057502,0.34182516,-0.14953701,0.49288282,-0.18018325,-0.38041902,0.49915856,0.74674535,-0.22356896,-0.6931556,0.31565627,0.6628214,0
image_260.png,0.11065372,0.11949818,0.3596021,0.6792543,0.83575094,-0.064994164,0.1797307,-0.14548975,0.044105414,-0.087040335,0.49412125,-0.6170156,0.35240543,-0.12906,0.24761309,-0.4499999,-0.11571252,-0.37285945,-0.17133063,-0.6697778,0.8995082,0.1604736,-0.5753149,0.38743457,-0.11529622,-0.88025373,0.48385453,0.629446,-1.0327362,0.7552461,-0.2592077,0.7632321,0
image_261.png,-0.21822484,-0.07204325,-0.46149406,0.24598809,0.63768613,0.46558353,0.6869238,0.2089225,-0.2668455,-0.009857122,-0.0435595,-0.981871,-0.011730014,0.27868515,-0.073005356,-0.7051122,0.49905372,-0.47273496,-0.5184658,0.08443841,0.79098195,0.44611618,-0.4469419,0.35578558,-0.16740637,-0.56052357,0.7423063,0.141042,-0.5590537,0.35962144,1.1770629,1.1386551,0
image_262.png,-0.6930616,-0.43775508,0.14042124,1.6179361,1.0681632,0.38711673,-0.22566618,0.44598594,-0.31192303,0.58458817,0.7202595,-0.13392974,0.68383545,0.7731762,0.86291933,-0.82304823,-0.30220202,-0.12562184,0.13119712,-0.84250873,0.32593268,1.2537414,-0.11594082,-0.23212634,-0.06645345,-1.0055225,0.2842345,0.72814035,-0.6772687,0.13477294,-0.10565506,0.90613157,0
image_263.png,-0.8465711,-0.5816272,0.92338055,1.1061994,1.5171598,0.54809046,1.6523175,-1.841712,0.48800176,-0.64877814,-0.8091263,-0.3297937,0.90072864,0.9490926,2.272735,-1.9690651,-0.81174195,-2.3581524,0.41376808,-0.9011909,3.3719296,0.55791944,-1.228649,1.0083982,0.97951233,-3.2874844,1.6070229,0.8624719,-0.7181265,1.3571782,2.4736195,0.15346329,0
image_264.png,-0.23093969,-0.3020061,-0.18256119,1.1853882,1.1377492,0.01481689,0.028719567,0.75328743,0.11437319,0.46983674,-0.049303282,-0.5037722,0.48478615,0.16512576,0.078485735,-0.49628103,0.012674726,0.22635536,-0.5021629,-0.7189979,0.074267454,1.048383,-0.4966561,0.591209,0.16517036,-1.0523047,0.6064738,0.43243626,-0.92982644,0.37031925,0.092623144,0.9696836,0
image_265.png,-0.18880525,0.31420442,0.33608168,0.60320544,0.22133888,0.03286451,-0.16552374,0.18523149,0.069250934,0.051393032,0.17085113,-0.34392682,0.18187672,0.13562526,0.51703703,-0.7540928,0.4448223,0.07540214,-0.027414214,-0.9911669,-0.5717907,0.44800496,-0.07871953,0.5480456,0.21030883,0.14969672,0.5471082,0.6194921,-0.84380734,-0.30555046,-0.41798502,0.091323346,0
